#ifndef WEIGHTS_H
#define WEIGHTS_H

// Automatically generated weights

namespace weights
{
	// Input -> Hidden (Weights: 64x96)
	constexpr inline float W1[6144] = {
		0.076493f, -0.141474f, 0.115256f, -0.130434f, 0.175603f, -0.045355f, -0.056466f, -0.074007f, 
		-0.073810f, 0.191615f, 0.128351f, 0.046786f, -0.148114f, 0.034254f, -0.076251f, -0.155302f, 
		0.065901f, 0.102067f, -0.062750f, -0.174991f, 0.137831f, 0.078862f, 0.026107f, 0.166558f, 
		-0.095323f, 0.016779f, 0.176917f, 0.188668f, 0.105676f, 0.011842f, 0.119531f, -0.189641f, 
		-0.122362f, 0.151880f, -0.116608f, 0.091687f, 0.060415f, -0.054476f, -0.093853f, -0.105190f, 
		-0.128666f, 0.076280f, -0.095952f, -0.185776f, -0.003035f, -0.110390f, -0.027484f, -0.109576f, 
		0.058567f, 0.172503f, 0.072735f, 0.088336f, -0.072546f, -0.158503f, 0.105485f, -0.043284f, 
		0.118195f, 0.041341f, -0.115415f, -0.133370f, 0.173349f, 0.137808f, 0.083405f, -0.179153f, 
		0.120555f, -0.186525f, 0.015410f, 0.185621f, 0.122144f, 0.057675f, -0.161967f, 0.174387f, 
		-0.171823f, -0.168061f, 0.072384f, 0.147386f, 0.084452f, -0.072457f, -0.005337f, -0.017068f, 
		0.019305f, -0.157129f, -0.019500f, 0.014011f, 0.011175f, 0.087271f, 0.119912f, -0.025228f, 
		-0.042321f, 0.097480f, 0.091178f, 0.182602f, -0.037129f, 0.012128f, 0.142941f, -0.138589f, 
		0.119254f, 0.066078f, -0.133870f, -0.175557f, 0.042759f, 0.119899f, -0.138254f, 0.039241f, 
		-0.067788f, 0.097314f, -0.088881f, 0.170765f, -0.170540f, 0.060333f, -0.150374f, 0.182844f, 
		0.120490f, 0.167343f, -0.059960f, -0.142595f, -0.163416f, -0.107610f, -0.057571f, 0.140665f, 
		-0.162104f, -0.034291f, 0.191563f, 0.027145f, 0.104786f, 0.006455f, 0.160129f, 0.150118f, 
		-0.121038f, 0.033949f, -0.019844f, 0.001178f, 0.160966f, -0.032298f, 0.102464f, 0.134106f, 
		0.039606f, 0.183798f, -0.014110f, -0.060948f, -0.099342f, -0.117258f, 0.107614f, -0.112925f, 
		0.023553f, -0.181774f, -0.116935f, 0.155356f, -0.126196f, -0.027048f, 0.073533f, -0.126456f, 
		0.100707f, 0.129638f, 0.088586f, -0.147485f, 0.143098f, 0.021914f, 0.042690f, 0.116342f, 
		-0.033786f, 0.092352f, 0.098257f, 0.097860f, 0.007978f, 0.156961f, 0.026235f, 0.143886f, 
		-0.184204f, 0.093699f, -0.184190f, -0.136131f, -0.158336f, 0.019841f, -0.006792f, -0.124569f, 
		0.097573f, 0.013871f, 0.062559f, 0.118023f, 0.175948f, 0.170134f, -0.126968f, 0.005093f, 
		-0.056408f, -0.085230f, -0.179203f, 0.148247f, -0.128099f, 0.029763f, -0.138996f, -0.095567f, 
		-0.073652f, -0.173042f, 0.088392f, -0.072574f, 0.022024f, 0.044514f, -0.044721f, 0.167343f, 
		-0.143032f, -0.002344f, -0.157767f, -0.118241f, -0.033277f, 0.096028f, 0.135737f, -0.024715f, 
		-0.082501f, -0.066830f, -0.137414f, -0.135442f, -0.173755f, -0.183115f, -0.144951f, 0.054483f, 
		-0.053324f, 0.066037f, -0.100977f, 0.076000f, 0.073591f, 0.164734f, 0.010580f, 0.061507f, 
		0.131400f, -0.131831f, 0.076790f, 0.085179f, -0.125705f, -0.094240f, 0.177530f, -0.104040f, 
		0.068127f, -0.035407f, 0.083033f, 0.140978f, 0.013406f, -0.045796f, -0.169830f, -0.185813f, 
		0.129212f, 0.156239f, -0.192669f, -0.124953f, 0.093878f, 0.120939f, -0.081843f, 0.111241f, 
		-0.170765f, -0.090741f, 0.056135f, 0.130569f, -0.003548f, -0.181510f, -0.035722f, -0.006298f, 
		0.118094f, 0.094238f, 0.131069f, -0.051268f, 0.045388f, -0.153929f, -0.101859f, 0.070085f, 
		-0.008985f, -0.136162f, 0.082392f, 0.117790f, -0.120552f, -0.136557f, 0.003567f, -0.156651f, 
		-0.166155f, 0.101661f, -0.078355f, 0.107694f, -0.076680f, 0.139448f, 0.005985f, 0.044485f, 
		-0.126956f, -0.153748f, 0.185418f, 0.155299f, 0.139735f, 0.178039f, 0.119263f, -0.119935f, 
		0.080716f, 0.159319f, -0.081067f, -0.133173f, -0.184540f, -0.013954f, -0.164032f, 0.025368f, 
		-0.024531f, 0.147939f, -0.178184f, -0.103619f, 0.078637f, 0.118094f, -0.052634f, 0.187527f, 
		0.041405f, 0.016030f, -0.023511f, -0.113422f, 0.155077f, -0.131955f, -0.068436f, 0.124012f, 
		-0.026082f, 0.020058f, 0.043813f, 0.111264f, 0.105452f, -0.124753f, -0.048139f, -0.137841f, 
		-0.010306f, -0.042673f, 0.155374f, -0.110932f, -0.189178f, -0.184303f, -0.138569f, -0.047816f, 
		-0.011882f, 0.046122f, -0.020314f, -0.141839f, -0.067873f, 0.184011f, -0.086138f, -0.178064f, 
		0.121440f, 0.046988f, 0.106494f, -0.178408f, -0.150101f, 0.093413f, 0.130149f, -0.023150f, 
		0.079202f, -0.091836f, 0.095008f, 0.083152f, 0.049930f, -0.096118f, 0.057078f, 0.010144f, 
		0.031424f, -0.112010f, -0.000497f, -0.165055f, 0.033663f, -0.185475f, -0.116757f, 0.078766f, 
		0.009391f, 0.028055f, 0.185105f, 0.055921f, 0.078186f, -0.101111f, -0.060524f, -0.116429f, 
		-0.066446f, -0.072803f, 0.027334f, 0.159577f, -0.136907f, 0.010023f, 0.010922f, 0.037183f, 
		0.060620f, -0.137707f, -0.055061f, -0.173389f, -0.111039f, 0.057550f, 0.100645f, 0.009110f, 
		-0.014114f, 0.043823f, -0.178056f, -0.020980f, -0.105592f, 0.185185f, -0.037367f, -0.121486f, 
		0.166706f, 0.155946f, -0.117317f, -0.075380f, -0.024706f, -0.118016f, -0.144596f, -0.079479f, 
		0.045650f, 0.140238f, 0.097207f, -0.019596f, -0.034371f, -0.182708f, 0.184834f, -0.111228f, 
		-0.127848f, -0.180427f, -0.007065f, 0.007461f, -0.113442f, -0.111492f, 0.091680f, -0.058634f, 
		-0.162186f, -0.146382f, -0.012482f, 0.109564f, 0.027884f, -0.017347f, -0.139997f, -0.022624f, 
		-0.129488f, 0.063075f, -0.132120f, 0.188822f, 0.032322f, -0.121929f, 0.173509f, -0.012875f, 
		0.182772f, 0.192484f, 0.117372f, 0.068862f, 0.064102f, 0.135742f, -0.189624f, -0.072426f, 
		0.175723f, -0.120360f, 0.169513f, -0.041674f, 0.097015f, 0.157204f, -0.040636f, -0.172556f, 
		-0.090669f, -0.117501f, -0.055439f, 0.192344f, 0.101012f, 0.172822f, -0.084063f, 0.182066f, 
		0.031447f, -0.155592f, 0.004740f, 0.177845f, 0.141727f, -0.130803f, -0.027241f, 0.170947f, 
		0.034392f, 0.176989f, 0.073494f, -0.186860f, 0.067007f, -0.046014f, 0.112018f, -0.002024f, 
		-0.093048f, -0.180520f, -0.009468f, -0.125827f, -0.092058f, 0.149178f, 0.190111f, 0.063680f, 
		-0.051955f, -0.175483f, -0.094296f, 0.046468f, -0.102027f, 0.013556f, -0.025639f, 0.149122f, 
		-0.127883f, -0.045627f, 0.115536f, 0.014815f, -0.122566f, 0.188730f, 0.059711f, 0.170407f, 
		0.031703f, -0.133097f, -0.150264f, 0.117248f, -0.171721f, -0.178370f, -0.016438f, 0.178798f, 
		0.011054f, -0.000246f, 0.145619f, -0.159224f, -0.075602f, -0.040074f, 0.033964f, 0.190221f, 
		-0.191340f, 0.046282f, -0.038809f, -0.056045f, 0.070666f, -0.135742f, -0.120789f, 0.037020f, 
		-0.096445f, -0.092055f, -0.159294f, 0.000295f, -0.138887f, -0.087941f, 0.104559f, 0.041943f, 
		-0.192576f, 0.010654f, -0.165227f, 0.133407f, -0.186039f, -0.157765f, -0.042439f, 0.091342f, 
		0.133377f, 0.082779f, -0.053180f, -0.105599f, 0.038632f, -0.084843f, 0.032764f, 0.176819f, 
		-0.038052f, 0.178972f, 0.139689f, 0.143570f, 0.191943f, 0.150735f, -0.080163f, 0.139736f, 
		0.144030f, -0.122391f, 0.048180f, 0.171025f, -0.068876f, 0.077387f, -0.061589f, 0.029879f, 
		0.099661f, -0.036521f, -0.118619f, 0.066605f, 0.024614f, 0.169982f, -0.147814f, -0.057516f, 
		-0.096075f, 0.084952f, 0.049147f, 0.030942f, -0.021998f, 0.045337f, 0.074827f, 0.138236f, 
		-0.024317f, 0.055485f, -0.125089f, 0.132509f, -0.018926f, 0.066361f, 0.187159f, -0.172734f, 
		0.079456f, -0.124206f, -0.040707f, 0.010602f, 0.098752f, -0.073601f, 0.146437f, 0.121196f, 
		-0.176899f, -0.041136f, -0.050733f, 0.014782f, 0.070808f, 0.129414f, 0.178283f, 0.023807f, 
		0.087933f, -0.071931f, -0.099108f, -0.100022f, -0.124729f, -0.101707f, -0.049864f, 0.067331f, 
		-0.086368f, 0.166524f, -0.007908f, 0.175293f, -0.193288f, -0.070990f, 0.130417f, -0.027623f, 
		0.019442f, -0.168758f, -0.105150f, 0.163968f, -0.022412f, 0.047831f, 0.155062f, -0.082214f, 
		0.192514f, -0.176164f, -0.179933f, 0.035798f, -0.189406f, 0.085263f, 0.159712f, 0.046527f, 
		0.108728f, 0.051664f, 0.073618f, -0.073180f, 0.186107f, 0.118266f, -0.130596f, -0.104580f, 
		0.104192f, 0.121859f, 0.010700f, -0.112516f, -0.111939f, 0.018933f, -0.174464f, -0.128718f, 
		-0.043391f, -0.103232f, -0.007077f, -0.015901f, 0.182396f, 0.083275f, -0.055315f, 0.165591f, 
		0.130957f, -0.068228f, -0.061800f, -0.099493f, 0.053146f, -0.036046f, 0.179711f, 0.122586f, 
		0.143794f, -0.016308f, 0.074424f, -0.047897f, 0.121977f, -0.136937f, -0.102320f, 0.109441f, 
		-0.179437f, 0.068029f, 0.177021f, 0.188092f, 0.067188f, 0.015204f, 0.000585f, 0.054217f, 
		-0.152692f, -0.080746f, -0.050549f, -0.013583f, -0.001726f, -0.078837f, -0.172091f, -0.142059f, 
		-0.001293f, 0.116208f, 0.067260f, 0.161785f, 0.053991f, 0.157869f, 0.020272f, -0.057515f, 
		-0.013322f, 0.099923f, 0.189218f, -0.031729f, 0.124275f, -0.156214f, -0.094704f, 0.193551f, 
		0.186518f, 0.073195f, -0.058772f, 0.049503f, 0.040923f, 0.025979f, -0.166898f, -0.033735f, 
		-0.087184f, 0.050558f, 0.168906f, -0.095146f, 0.098180f, 0.191818f, -0.182252f, 0.116380f, 
		-0.043103f, 0.087600f, -0.144832f, -0.175997f, -0.021276f, -0.082749f, -0.175840f, 0.137633f, 
		0.079378f, -0.039809f, -0.066064f, 0.008154f, -0.186274f, 0.149800f, -0.041638f, -0.133696f, 
		-0.136992f, -0.009307f, 0.180652f, -0.155164f, 0.043932f, -0.024591f, -0.030965f, -0.056837f, 
		0.028313f, 0.043645f, -0.058393f, 0.049999f, 0.078962f, 0.101909f, -0.151348f, 0.190209f, 
		-0.066726f, 0.038318f, 0.006430f, 0.052817f, -0.097280f, -0.083369f, 0.005407f, -0.125232f, 
		-0.119336f, 0.114151f, -0.143633f, 0.039637f, 0.132917f, 0.132599f, -0.026195f, -0.084151f, 
		0.024369f, -0.104445f, 0.069067f, 0.027305f, 0.067673f, 0.013760f, -0.064203f, -0.141087f, 
		-0.033846f, 0.093065f, -0.063714f, -0.133545f, 0.171245f, 0.022628f, -0.160002f, 0.168566f, 
		-0.182581f, -0.156105f, 0.097014f, 0.109118f, -0.095145f, -0.040603f, -0.022524f, 0.125905f, 
		-0.064740f, -0.116220f, 0.022672f, -0.131874f, 0.046798f, 0.101916f, -0.179383f, 0.080722f, 
		-0.062533f, -0.160646f, 0.178589f, -0.106552f, -0.074424f, 0.131637f, 0.166275f, -0.064697f, 
		-0.068761f, -0.175398f, 0.065524f, -0.147366f, 0.073738f, -0.051433f, -0.018116f, 0.113306f, 
		-0.024137f, -0.039750f, -0.101903f, -0.107952f, 0.153392f, 0.059077f, 0.126025f, -0.120339f, 
		-0.154947f, 0.153230f, -0.188841f, 0.056588f, -0.014270f, 0.104497f, -0.156000f, 0.104410f, 
		-0.142069f, 0.101629f, 0.103413f, 0.122237f, -0.053994f, -0.117464f, -0.153497f, -0.047170f, 
		0.112224f, -0.026375f, -0.057079f, -0.099970f, -0.110657f, 0.190446f, -0.083358f, 0.062600f, 
		-0.103497f, 0.035600f, -0.079516f, 0.173778f, 0.142446f, 0.088597f, -0.001552f, -0.157720f, 
		-0.161842f, -0.050894f, 0.151837f, 0.138920f, 0.097086f, 0.001892f, 0.191113f, 0.052772f, 
		-0.132437f, 0.127738f, -0.000455f, 0.006833f, -0.162526f, 0.048839f, 0.041097f, -0.082678f, 
		-0.176606f, -0.007085f, -0.011776f, -0.081405f, 0.154866f, -0.151646f, 0.148359f, 0.103170f, 
		0.135109f, -0.032362f, -0.067758f, -0.042393f, -0.061339f, 0.075162f, 0.148058f, 0.125354f, 
		-0.022960f, -0.166573f, 0.193308f, -0.154751f, -0.116057f, 0.147099f, 0.180010f, 0.002175f, 
		0.093325f, -0.026598f, 0.090660f, -0.023246f, 0.133531f, -0.094349f, -0.127749f, -0.173407f, 
		-0.110000f, 0.052714f, -0.096891f, 0.095084f, -0.080482f, 0.091711f, -0.039363f, -0.184296f, 
		0.022644f, -0.038889f, 0.109787f, -0.192830f, -0.097016f, 0.047687f, 0.053231f, 0.101368f, 
		-0.183259f, -0.185997f, 0.122298f, -0.095459f, -0.087812f, -0.042212f, 0.061617f, 0.059772f, 
		-0.009133f, 0.192122f, -0.168247f, -0.141983f, 0.169626f, -0.185191f, 0.101165f, -0.034328f, 
		-0.101736f, -0.191872f, 0.057373f, -0.067542f, -0.083953f, -0.053521f, -0.045369f, -0.032232f, 
		-0.081667f, 0.030834f, 0.153997f, 0.089227f, 0.032277f, -0.136444f, -0.173215f, -0.056947f, 
		0.104909f, -0.168442f, 0.019888f, 0.153683f, 0.153209f, 0.060523f, 0.181299f, 0.049464f, 
		0.123194f, 0.084769f, 0.076051f, 0.041187f, 0.160182f, -0.024929f, -0.173008f, -0.040569f, 
		0.134878f, 0.166213f, 0.109975f, 0.102054f, -0.079079f, -0.042634f, -0.018533f, -0.066395f, 
		0.175556f, -0.147017f, 0.024855f, 0.063892f, 0.141751f, 0.163515f, -0.154800f, -0.133460f, 
		-0.033250f, 0.074728f, 0.171708f, -0.052507f, 0.178734f, 0.132175f, -0.125500f, 0.044015f, 
		0.187246f, 0.107048f, -0.165892f, -0.020521f, 0.109446f, -0.089874f, 0.085981f, 0.062481f, 
		-0.134338f, -0.058078f, 0.025775f, 0.129253f, 0.059879f, 0.078701f, -0.083338f, -0.050900f, 
		0.161362f, 0.026133f, -0.067009f, -0.189494f, -0.164034f, -0.087857f, 0.074609f, 0.162047f, 
		0.135978f, 0.005237f, -0.160910f, 0.189317f, -0.172238f, -0.147681f, -0.086637f, 0.188733f, 
		0.013103f, 0.044644f, 0.163259f, -0.044950f, 0.101217f, 0.044920f, -0.099059f, 0.055432f, 
		0.018712f, -0.159109f, 0.181546f, 0.165120f, 0.010705f, 0.103952f, 0.063400f, 0.081937f, 
		-0.042813f, 0.149005f, -0.133171f, 0.001549f, 0.031103f, -0.007780f, 0.187438f, 0.163147f, 
		-0.130019f, -0.058318f, -0.070394f, 0.122684f, -0.187471f, -0.127863f, -0.080163f, 0.121801f, 
		0.137911f, -0.039481f, 0.099451f, -0.033196f, -0.162903f, -0.071189f, -0.122534f, 0.147080f, 
		-0.104212f, -0.108328f, -0.142069f, -0.004905f, -0.020387f, -0.044060f, 0.164148f, 0.042333f, 
		0.159509f, 0.127936f, -0.086482f, -0.066849f, 0.030064f, -0.176365f, 0.010203f, 0.185053f, 
		0.176871f, 0.149492f, 0.111327f, -0.180834f, -0.030144f, -0.115572f, 0.082034f, -0.184636f, 
		-0.112129f, 0.010839f, 0.088301f, -0.014026f, 0.155294f, -0.185643f, -0.171459f, -0.188125f, 
		-0.004918f, -0.076115f, -0.129769f, 0.082646f, 0.043491f, 0.020863f, 0.065888f, -0.141415f, 
		-0.057684f, 0.041677f, -0.150943f, 0.113962f, 0.153656f, 0.023545f, 0.163668f, -0.109281f, 
		0.140518f, -0.078680f, -0.122389f, -0.136419f, 0.007034f, -0.091616f, 0.186755f, -0.153858f, 
		-0.095549f, 0.080095f, -0.122989f, 0.108351f, -0.094332f, -0.153099f, 0.052973f, -0.057760f, 
		0.095716f, -0.000475f, -0.141096f, -0.038413f, 0.134374f, 0.049336f, -0.060765f, 0.126448f, 
		-0.089585f, 0.183067f, -0.182326f, 0.102881f, -0.024627f, 0.186307f, 0.163637f, -0.062697f, 
		-0.093685f, -0.137581f, -0.025472f, 0.006057f, -0.088935f, -0.129637f, 0.102428f, 0.104259f, 
		-0.071536f, 0.098709f, -0.014354f, 0.161370f, 0.139108f, -0.154198f, 0.071980f, 0.114787f, 
		-0.101026f, -0.124391f, -0.029390f, 0.127559f, 0.073457f, 0.152664f, -0.147716f, 0.022909f, 
		-0.084366f, 0.174522f, -0.158907f, 0.152617f, 0.098524f, 0.128665f, -0.074813f, -0.028314f, 
		0.065883f, -0.170959f, 0.148490f, -0.100570f, -0.074209f, 0.180266f, 0.006497f, -0.004462f, 
		0.057075f, -0.155402f, 0.183301f, -0.043001f, 0.142735f, 0.095765f, -0.013943f, 0.107971f, 
		0.115823f, 0.145141f, -0.065508f, 0.053156f, 0.088489f, -0.073110f, 0.157600f, 0.036751f, 
		-0.042721f, -0.180762f, -0.046729f, 0.053439f, 0.018460f, -0.113988f, -0.046597f, -0.028370f, 
		0.132159f, 0.071073f, -0.085266f, 0.026984f, -0.029223f, -0.126336f, -0.154994f, 0.048061f, 
		0.087798f, -0.066998f, -0.159496f, 0.172450f, -0.041536f, -0.062421f, 0.120522f, -0.039476f, 
		0.004615f, 0.143536f, -0.040131f, 0.003979f, -0.000422f, -0.088723f, 0.036613f, 0.112124f, 
		0.007894f, -0.152323f, 0.107272f, 0.104869f, 0.118524f, -0.068382f, -0.091169f, 0.120192f, 
		-0.095027f, -0.126042f, 0.137376f, -0.018868f, -0.035326f, -0.026256f, -0.155353f, 0.111631f, 
		-0.192647f, 0.119597f, 0.064639f, 0.171720f, 0.165498f, 0.009076f, 0.082634f, -0.024369f, 
		0.167981f, 0.142711f, -0.023429f, -0.081216f, 0.010923f, 0.014893f, -0.096416f, -0.170003f, 
		0.141731f, 0.118014f, 0.106463f, 0.089860f, -0.134714f, -0.151246f, -0.080407f, -0.084034f, 
		-0.044377f, -0.155666f, 0.106416f, -0.054827f, -0.180959f, 0.002181f, 0.072570f, 0.048822f, 
		-0.183041f, 0.018363f, 0.185148f, -0.062820f, -0.163219f, -0.010581f, -0.106938f, -0.034530f, 
		0.185159f, 0.089195f, 0.161091f, 0.059659f, -0.018537f, 0.153150f, 0.089794f, 0.034280f, 
		0.048347f, -0.011926f, -0.059918f, -0.152826f, -0.189319f, -0.006751f, 0.031306f, 0.033058f, 
		-0.121360f, 0.109567f, 0.176674f, -0.166587f, -0.062686f, 0.055872f, 0.150078f, -0.099997f, 
		-0.154341f, -0.095430f, 0.184117f, -0.176129f, 0.060686f, 0.053004f, 0.056329f, 0.091875f, 
		0.139271f, 0.032670f, 0.116358f, 0.071127f, -0.075846f, 0.157122f, -0.112589f, -0.088644f, 
		0.167111f, 0.039201f, 0.168448f, -0.032982f, -0.003088f, 0.192763f, -0.181457f, 0.143872f, 
		0.024725f, 0.065879f, -0.079455f, -0.148447f, 0.128138f, 0.076523f, -0.042103f, 0.087085f, 
		0.072043f, -0.105685f, -0.141815f, -0.070381f, 0.193602f, 0.192861f, 0.037446f, 0.095635f, 
		-0.145823f, 0.018475f, -0.033810f, -0.137227f, -0.044537f, -0.063645f, -0.176356f, 0.043521f, 
		0.179836f, -0.152597f, -0.104601f, -0.157483f, 0.042421f, 0.172705f, 0.039435f, 0.052443f, 
		-0.139357f, 0.160214f, 0.108133f, 0.059293f, 0.069801f, 0.085267f, 0.144391f, 0.154670f, 
		-0.149770f, 0.155737f, -0.060722f, 0.046413f, -0.185961f, 0.072150f, -0.161856f, -0.047577f, 
		-0.026530f, 0.013911f, -0.117860f, 0.068959f, -0.021221f, -0.084702f, -0.006435f, 0.176911f, 
		-0.031589f, 0.188253f, 0.105664f, -0.009676f, -0.165210f, 0.130049f, 0.169314f, 0.082765f, 
		0.082284f, -0.168277f, -0.083820f, 0.014832f, -0.029723f, 0.109480f, 0.036466f, -0.137975f, 
		0.005169f, -0.005784f, -0.176131f, -0.020146f, 0.156057f, 0.073874f, 0.157809f, -0.044692f, 
		-0.146027f, 0.107615f, 0.047837f, 0.118449f, 0.096844f, -0.137199f, 0.057331f, 0.045309f, 
		-0.176331f, 0.107680f, -0.066136f, -0.128330f, 0.039888f, -0.045258f, 0.072197f, 0.069512f, 
		0.017240f, 0.125058f, 0.074465f, -0.043299f, 0.115026f, 0.029969f, 0.114858f, -0.182631f, 
		-0.144956f, 0.117005f, -0.107479f, -0.056488f, -0.065376f, 0.006101f, -0.148572f, -0.080434f, 
		-0.071688f, -0.122205f, 0.169492f, -0.101713f, 0.192870f, 0.181699f, 0.135130f, 0.088401f, 
		-0.129220f, -0.023300f, 0.038317f, 0.091044f, -0.181570f, -0.072897f, -0.126122f, 0.076382f, 
		0.059928f, 0.142329f, -0.163251f, -0.156875f, -0.104034f, 0.168287f, 0.172561f, -0.027184f, 
		-0.007376f, -0.099102f, 0.019888f, 0.031804f, 0.112856f, -0.015625f, 0.068269f, -0.153692f, 
		-0.090406f, -0.010071f, -0.085869f, 0.104629f, 0.033929f, -0.116353f, -0.029378f, 0.181893f, 
		0.048514f, -0.024925f, -0.087494f, -0.134345f, -0.163706f, -0.073044f, 0.050790f, -0.154098f, 
		0.105834f, -0.162565f, 0.074864f, 0.075680f, -0.101016f, -0.077561f, -0.184732f, -0.145851f, 
		-0.138433f, -0.029843f, -0.069688f, -0.035511f, -0.003358f, 0.101042f, -0.099369f, 0.102955f, 
		0.084892f, 0.188890f, 0.015047f, 0.057244f, 0.104781f, 0.179634f, -0.093139f, -0.188058f, 
		-0.120097f, -0.031415f, -0.115519f, -0.163480f, 0.105207f, -0.124517f, -0.040557f, -0.112555f, 
		0.139783f, 0.102196f, -0.067247f, -0.049350f, 0.047462f, 0.053362f, 0.099548f, -0.129715f, 
		0.010916f, 0.031234f, 0.060824f, -0.069388f, 0.009282f, 0.054143f, -0.016817f, 0.184370f, 
		0.037999f, 0.159031f, 0.178062f, -0.186576f, -0.012698f, -0.014992f, 0.157665f, 0.185795f, 
		0.176820f, 0.100590f, 0.185509f, 0.009624f, -0.156195f, 0.165829f, -0.075347f, 0.088907f, 
		0.137417f, -0.067892f, 0.140916f, -0.126339f, 0.152976f, 0.139409f, 0.101347f, 0.183539f, 
		0.003562f, 0.030194f, 0.124650f, -0.095469f, 0.189098f, 0.042641f, 0.111866f, 0.040438f, 
		0.077249f, 0.061239f, 0.115220f, 0.126230f, 0.175867f, -0.092393f, -0.038881f, -0.076299f, 
		-0.100671f, -0.067151f, -0.182890f, 0.017209f, -0.156062f, -0.186368f, 0.082830f, 0.118118f, 
		0.092867f, 0.063410f, -0.178185f, -0.058163f, 0.132382f, 0.010312f, 0.047775f, 0.046109f, 
		-0.121983f, 0.139384f, 0.134372f, -0.138948f, -0.180150f, 0.119277f, -0.184474f, 0.147177f, 
		-0.041074f, 0.040564f, 0.100073f, -0.146314f, 0.101184f, -0.005625f, 0.129142f, -0.189727f, 
		-0.012789f, 0.023771f, -0.165020f, 0.069442f, 0.031787f, 0.148726f, -0.053995f, -0.164534f, 
		0.011389f, 0.110029f, -0.172267f, -0.119013f, 0.165530f, -0.014179f, 0.176408f, 0.089265f, 
		-0.158273f, -0.094236f, 0.094824f, -0.046571f, 0.135058f, 0.003415f, 0.001722f, 0.079624f, 
		0.105114f, -0.116217f, -0.179093f, -0.097313f, 0.173405f, -0.054267f, 0.078206f, -0.029649f, 
		-0.052114f, -0.087586f, -0.116821f, 0.191612f, 0.040191f, 0.046702f, 0.090284f, 0.131660f, 
		0.137370f, -0.105443f, -0.140500f, 0.182194f, -0.075685f, -0.137616f, 0.065509f, -0.163016f, 
		0.093728f, -0.100553f, -0.152594f, -0.163160f, 0.004728f, 0.138046f, -0.132060f, -0.115526f, 
		-0.016622f, 0.085441f, -0.135117f, 0.138837f, 0.066115f, -0.122510f, -0.087118f, 0.122301f, 
		0.114445f, 0.078288f, 0.032725f, -0.192036f, 0.176384f, -0.144587f, 0.025287f, 0.147245f, 
		0.013904f, 0.080030f, -0.091243f, 0.179022f, 0.181393f, -0.101464f, -0.056561f, 0.076250f, 
		0.003313f, 0.059619f, -0.169642f, 0.083279f, 0.017791f, -0.085732f, 0.083319f, 0.037628f, 
		0.147624f, 0.124251f, 0.148749f, 0.148072f, 0.035776f, -0.091973f, -0.091573f, -0.080353f, 
		0.035079f, -0.171789f, 0.129812f, 0.091404f, -0.064516f, -0.125279f, 0.120331f, -0.074166f, 
		-0.184702f, 0.145692f, 0.179142f, -0.113950f, -0.054493f, -0.020275f, -0.147138f, 0.016238f, 
		0.004427f, 0.114811f, 0.058882f, -0.166823f, -0.189740f, 0.040361f, 0.153792f, 0.049296f, 
		-0.159364f, 0.106584f, 0.088101f, 0.108679f, 0.082895f, 0.101650f, 0.050257f, 0.097328f, 
		-0.068032f, -0.184004f, -0.113022f, 0.031384f, 0.114865f, 0.049882f, 0.102318f, -0.072353f, 
		0.153709f, -0.077473f, -0.026766f, -0.122271f, -0.083323f, -0.033527f, 0.102602f, 0.180936f, 
		-0.149945f, -0.173256f, 0.166278f, 0.125030f, -0.039308f, 0.006964f, 0.176338f, -0.137538f, 
		0.141197f, -0.034658f, -0.182861f, -0.001028f, -0.008442f, -0.132844f, 0.149408f, -0.092907f, 
		0.087119f, -0.167339f, 0.041741f, -0.128157f, 0.127627f, 0.095427f, 0.145809f, -0.170305f, 
		-0.072555f, 0.010587f, -0.191698f, -0.106647f, -0.133107f, 0.020696f, -0.127436f, 0.044017f, 
		-0.072533f, 0.163887f, 0.065543f, 0.175175f, -0.123171f, 0.192473f, -0.011090f, -0.001492f, 
		0.187456f, -0.037644f, -0.158380f, -0.058689f, -0.133343f, 0.079722f, -0.176128f, -0.179451f, 
		-0.117953f, 0.021986f, -0.029724f, -0.069530f, 0.014824f, -0.132107f, -0.144163f, -0.121369f, 
		0.179715f, 0.059295f, 0.168457f, -0.180492f, 0.123574f, -0.076005f, 0.105702f, 0.149833f, 
		0.163454f, 0.120934f, -0.035085f, -0.125219f, -0.095927f, -0.110604f, 0.046005f, 0.127043f, 
		0.029949f, -0.117386f, -0.132728f, -0.030099f, 0.022015f, -0.109877f, -0.018355f, 0.104185f, 
		-0.117149f, -0.160118f, -0.105442f, 0.136149f, -0.025990f, 0.083880f, -0.064141f, -0.120050f, 
		-0.166498f, -0.014616f, 0.035220f, 0.184281f, 0.062931f, -0.068095f, -0.069839f, 0.056578f, 
		-0.136265f, 0.089096f, 0.140447f, 0.177271f, 0.005279f, 0.063002f, 0.070455f, 0.008470f, 
		-0.098951f, 0.153013f, -0.015989f, 0.185045f, -0.066899f, 0.101644f, 0.184359f, -0.113441f, 
		-0.127778f, -0.055478f, 0.182220f, -0.035215f, -0.091094f, 0.152451f, 0.076379f, -0.022039f, 
		-0.013144f, -0.046085f, 0.113035f, 0.189128f, -0.052961f, -0.018557f, -0.151239f, -0.154605f, 
		-0.164622f, -0.179930f, -0.126621f, 0.012931f, -0.062068f, -0.193407f, 0.053355f, -0.021996f, 
		0.085470f, 0.050350f, 0.167455f, -0.069491f, -0.038593f, -0.034693f, 0.156581f, -0.028277f, 
		-0.089041f, 0.047515f, 0.143604f, 0.139804f, 0.047490f, 0.011122f, -0.095871f, 0.030536f, 
		-0.138573f, 0.131125f, 0.170502f, -0.165370f, -0.112099f, -0.086174f, -0.151605f, 0.134492f, 
		-0.072646f, -0.019707f, -0.083263f, -0.023044f, 0.058336f, -0.018432f, -0.064498f, 0.010317f, 
		-0.162803f, 0.172647f, -0.137107f, 0.004816f, -0.163900f, 0.179246f, 0.110309f, 0.133380f, 
		-0.054095f, -0.040773f, 0.038534f, -0.093948f, 0.118406f, -0.045921f, -0.170766f, -0.135750f, 
		-0.169984f, -0.144083f, 0.092634f, 0.100077f, 0.053315f, 0.057108f, 0.073422f, -0.129814f, 
		0.185656f, 0.102436f, -0.166066f, -0.001866f, -0.026486f, 0.165125f, 0.086887f, -0.155701f, 
		0.168223f, -0.084708f, 0.157390f, 0.069276f, 0.192142f, 0.156538f, -0.034176f, -0.100307f, 
		0.056107f, -0.139362f, 0.034720f, -0.094346f, 0.060617f, -0.141330f, 0.043991f, -0.058208f, 
		0.190552f, 0.153888f, -0.097488f, 0.148802f, -0.190617f, -0.157262f, -0.137835f, 0.053059f, 
		-0.137058f, 0.022110f, 0.006699f, 0.152795f, -0.047903f, -0.039143f, -0.071399f, -0.133658f, 
		0.147892f, 0.189020f, 0.071637f, -0.115613f, 0.141500f, -0.031684f, 0.009798f, 0.130041f, 
		-0.131602f, 0.120672f, -0.107395f, 0.018468f, 0.110785f, -0.055024f, -0.122326f, -0.009981f, 
		0.139793f, 0.009635f, 0.059810f, 0.137513f, 0.162376f, -0.068615f, -0.069729f, 0.140769f, 
		0.166070f, 0.056140f, -0.037007f, -0.063089f, 0.027557f, -0.080202f, 0.111403f, -0.149093f, 
		0.065609f, 0.175343f, -0.165776f, 0.002760f, -0.134396f, -0.071167f, 0.007833f, 0.079949f, 
		-0.149565f, -0.135426f, -0.155924f, -0.090696f, 0.059797f, 0.090420f, 0.047748f, -0.110096f, 
		-0.105578f, -0.060014f, -0.144442f, 0.086087f, 0.148866f, 0.175010f, 0.111079f, -0.187575f, 
		0.049955f, 0.107165f, -0.058713f, 0.069404f, -0.118717f, 0.035428f, -0.008756f, -0.114662f, 
		-0.156171f, -0.165954f, -0.089415f, -0.033061f, -0.023184f, 0.051053f, 0.139476f, -0.033608f, 
		-0.092587f, -0.104949f, 0.020220f, -0.160528f, 0.135189f, 0.119758f, -0.186867f, -0.075739f, 
		-0.132063f, 0.002152f, -0.151638f, -0.122312f, -0.080506f, -0.020008f, -0.124987f, 0.178805f, 
		-0.126299f, -0.056886f, 0.062644f, 0.184389f, -0.153256f, -0.041803f, -0.008152f, -0.154616f, 
		0.061814f, 0.034538f, -0.072821f, -0.002175f, 0.004321f, 0.074835f, -0.155327f, 0.033433f, 
		-0.008434f, 0.041545f, 0.111835f, 0.042712f, -0.088618f, 0.095312f, 0.093438f, -0.025776f, 
		-0.041160f, 0.059402f, 0.089585f, -0.053386f, 0.140909f, 0.175970f, 0.047799f, 0.069317f, 
		-0.163141f, -0.010137f, 0.152522f, 0.151176f, 0.105415f, 0.010480f, -0.011534f, -0.041034f, 
		-0.112832f, 0.131768f, -0.004886f, 0.130318f, 0.161290f, -0.172117f, 0.000022f, -0.095231f, 
		0.129958f, -0.158454f, -0.153568f, 0.055921f, -0.028645f, -0.185432f, -0.134503f, 0.148460f, 
		0.174907f, -0.043192f, 0.133505f, 0.164145f, -0.099666f, 0.062528f, 0.190598f, -0.142330f, 
		0.008205f, -0.061132f, 0.006771f, -0.132053f, -0.038341f, 0.152430f, -0.079983f, -0.184932f, 
		0.116445f, 0.034075f, -0.129070f, -0.193323f, -0.010457f, -0.178193f, -0.095532f, -0.144044f, 
		0.160035f, -0.121320f, 0.048930f, 0.130664f, 0.167077f, 0.073320f, 0.111644f, -0.020427f, 
		-0.080675f, -0.082255f, 0.000641f, -0.037878f, -0.014825f, -0.124619f, -0.089206f, -0.043133f, 
		-0.134540f, -0.167949f, -0.011714f, 0.075223f, 0.077759f, 0.165504f, -0.114792f, -0.102723f, 
		0.018069f, 0.087610f, 0.167576f, 0.183389f, 0.008133f, -0.055964f, 0.174787f, -0.178623f, 
		0.063930f, -0.132541f, 0.134507f, -0.110309f, -0.188729f, -0.175040f, -0.004476f, -0.152095f, 
		0.050205f, 0.069367f, 0.061878f, 0.041963f, 0.040201f, -0.191334f, 0.150584f, 0.065117f, 
		0.168093f, 0.105167f, 0.059249f, -0.064417f, 0.010427f, 0.009727f, -0.067271f, 0.018443f, 
		0.122120f, 0.114640f, -0.065465f, -0.116218f, 0.178385f, -0.047630f, -0.075234f, -0.175337f, 
		-0.064625f, -0.020175f, 0.104571f, -0.083581f, 0.080228f, 0.098835f, -0.187669f, 0.190584f, 
		-0.105652f, 0.143820f, 0.191245f, 0.021368f, 0.065401f, 0.082234f, -0.147332f, 0.112690f, 
		-0.173135f, 0.078960f, 0.071700f, -0.091868f, 0.076943f, 0.160184f, -0.056028f, 0.039795f, 
		0.035627f, 0.089523f, 0.033947f, 0.023507f, -0.065374f, -0.052331f, 0.011253f, -0.116265f, 
		-0.072807f, -0.083085f, -0.070846f, -0.072884f, 0.087196f, 0.108096f, 0.106927f, 0.046957f, 
		0.041751f, 0.060349f, 0.096802f, -0.014922f, -0.178807f, -0.170514f, 0.018648f, -0.139025f, 
		0.049264f, -0.086455f, -0.023916f, 0.083450f, -0.101491f, -0.016390f, 0.076157f, -0.177700f, 
		0.087710f, 0.116937f, 0.010183f, 0.037647f, 0.052014f, 0.170619f, -0.079092f, -0.071428f, 
		0.121809f, 0.031765f, -0.165691f, 0.186917f, 0.091279f, 0.188263f, 0.001874f, 0.171068f, 
		-0.169154f, 0.089338f, -0.088720f, 0.013130f, -0.047487f, 0.188763f, 0.048200f, 0.093793f, 
		-0.169384f, 0.025414f, 0.074623f, -0.104087f, 0.159530f, 0.058381f, 0.012161f, -0.191854f, 
		0.185745f, -0.121851f, -0.063684f, 0.163604f, 0.136665f, -0.075286f, 0.121628f, -0.123104f, 
		0.146605f, 0.142174f, 0.055599f, -0.101412f, -0.079275f, -0.082465f, -0.166633f, -0.086014f, 
		-0.075139f, -0.110497f, -0.105863f, -0.087814f, 0.115914f, -0.087680f, -0.144819f, 0.082611f, 
		0.118096f, -0.128284f, -0.121507f, 0.170983f, -0.107884f, -0.150253f, 0.166150f, 0.191036f, 
		-0.082287f, -0.102325f, -0.047427f, -0.191951f, 0.171938f, -0.149390f, 0.054477f, 0.146474f, 
		-0.117843f, -0.041218f, -0.144133f, -0.101418f, -0.024730f, 0.176594f, -0.009645f, -0.031313f, 
		0.067712f, -0.169479f, 0.084277f, -0.106642f, 0.057158f, -0.144440f, 0.109412f, -0.148101f, 
		0.027325f, 0.124044f, -0.138504f, 0.021287f, -0.125778f, -0.038051f, -0.154614f, -0.122877f, 
		-0.175440f, -0.140169f, -0.174827f, -0.048555f, -0.039796f, 0.090403f, -0.069025f, -0.040883f, 
		0.008151f, -0.038311f, 0.032941f, 0.182802f, 0.058222f, -0.118873f, -0.161155f, 0.110138f, 
		-0.187516f, -0.091572f, -0.071957f, 0.028152f, 0.164074f, -0.093245f, 0.162602f, -0.112608f, 
		-0.018251f, 0.165984f, 0.104893f, 0.151070f, 0.042160f, 0.038750f, -0.174246f, 0.145046f, 
		-0.175213f, 0.034240f, -0.077223f, -0.142712f, 0.089682f, 0.003703f, -0.035239f, -0.183919f, 
		-0.065664f, 0.068361f, -0.101056f, 0.004712f, -0.043075f, -0.013499f, 0.172401f, 0.154486f, 
		0.130846f, 0.151192f, 0.014087f, 0.165348f, -0.027115f, -0.149853f, 0.074481f, 0.184358f, 
		0.107067f, -0.049917f, -0.168659f, 0.169451f, -0.090716f, -0.082987f, -0.041508f, 0.184940f, 
		-0.174822f, -0.160167f, 0.172086f, -0.051946f, -0.086260f, 0.186697f, -0.100693f, 0.065248f, 
		0.160881f, -0.134662f, -0.050060f, -0.086656f, 0.052860f, 0.132148f, 0.054166f, 0.140863f, 
		0.047615f, -0.046609f, -0.178781f, -0.025665f, -0.079381f, 0.029375f, 0.058315f, -0.038214f, 
		-0.023669f, -0.091803f, -0.137190f, -0.190692f, -0.136748f, -0.044424f, -0.111367f, -0.136723f, 
		0.028091f, -0.003223f, 0.093806f, -0.047525f, 0.004411f, 0.082830f, -0.041876f, 0.093990f, 
		-0.033202f, -0.036700f, -0.115926f, -0.181559f, -0.077038f, -0.004297f, 0.018026f, -0.107759f, 
		-0.093777f, -0.123960f, 0.144978f, -0.144922f, -0.046879f, -0.115380f, -0.066119f, 0.121565f, 
		0.114922f, 0.020842f, 0.153027f, 0.068614f, 0.130199f, 0.160165f, -0.052961f, -0.045510f, 
		0.093047f, -0.026756f, -0.154816f, -0.113177f, -0.132235f, -0.082312f, -0.038128f, 0.157442f, 
		0.108097f, 0.121272f, -0.036701f, 0.122566f, 0.169065f, -0.059888f, 0.110315f, -0.096935f, 
		0.003912f, -0.145801f, -0.189864f, 0.139030f, 0.076977f, 0.083104f, 0.052830f, 0.053911f, 
		-0.047037f, 0.189073f, 0.187070f, 0.155553f, -0.140359f, -0.180909f, 0.028582f, 0.040748f, 
		-0.063586f, 0.131875f, -0.069891f, -0.132274f, -0.126578f, -0.146148f, -0.090260f, -0.094963f, 
		-0.003349f, -0.170685f, -0.077642f, 0.030744f, -0.152245f, 0.008987f, -0.099597f, -0.042347f, 
		0.010040f, -0.148539f, -0.015748f, 0.169256f, 0.096663f, 0.163726f, 0.066121f, 0.105968f, 
		-0.045686f, 0.031113f, 0.107194f, 0.052723f, -0.127353f, -0.173484f, -0.014562f, -0.057453f, 
		0.103365f, 0.046075f, -0.046999f, 0.116106f, 0.023471f, -0.092961f, -0.047640f, -0.004679f, 
		-0.010398f, 0.035367f, -0.003878f, 0.116755f, -0.119512f, 0.161458f, -0.045611f, -0.113582f, 
		0.189443f, 0.073608f, 0.134731f, -0.125978f, -0.075799f, 0.040552f, 0.187198f, -0.117426f, 
		-0.115925f, 0.129688f, 0.096901f, -0.094375f, 0.100163f, 0.075328f, 0.148030f, -0.104064f, 
		-0.082937f, -0.053824f, -0.130483f, 0.110521f, -0.083526f, -0.102225f, -0.031221f, -0.026865f, 
		0.082158f, 0.083306f, -0.178420f, 0.059063f, -0.062251f, 0.032819f, -0.017934f, 0.051594f, 
		0.048121f, 0.049667f, 0.063177f, -0.164140f, -0.065640f, 0.008455f, -0.027486f, -0.069153f, 
		-0.088189f, -0.122496f, 0.014692f, -0.038605f, -0.006724f, 0.146233f, 0.165657f, 0.081642f, 
		-0.131253f, -0.009269f, -0.054842f, -0.003337f, 0.027411f, -0.160297f, 0.059913f, -0.100787f, 
		0.086008f, -0.112742f, -0.092356f, 0.023701f, -0.164782f, -0.039648f, 0.145791f, -0.118892f, 
		-0.076476f, -0.140064f, -0.161836f, -0.129417f, -0.051595f, -0.028196f, 0.049908f, -0.027585f, 
		-0.183019f, 0.145758f, -0.177086f, -0.093668f, -0.151329f, 0.065813f, 0.174712f, 0.000797f, 
		-0.021516f, -0.064055f, 0.058262f, -0.174441f, -0.089633f, -0.176256f, 0.074686f, -0.028466f, 
		-0.184601f, -0.048630f, -0.108684f, -0.087608f, -0.143733f, 0.057910f, -0.156364f, -0.134621f, 
		-0.056355f, 0.185600f, 0.189820f, -0.171194f, -0.068923f, 0.044621f, -0.157060f, -0.175905f, 
		0.080432f, 0.162040f, -0.045916f, -0.145186f, 0.192557f, -0.015755f, 0.179525f, -0.011137f, 
		0.081237f, 0.010118f, 0.137943f, 0.036246f, 0.105929f, 0.178988f, -0.021203f, -0.128974f, 
		-0.060543f, -0.136689f, 0.027848f, 0.074648f, -0.114093f, 0.026495f, 0.165590f, 0.120286f, 
		-0.018892f, -0.121134f, -0.188629f, -0.021232f, -0.000877f, -0.070768f, -0.066546f, -0.077662f, 
		-0.102340f, -0.193208f, -0.148952f, 0.118987f, 0.072292f, 0.120687f, -0.013197f, -0.024629f, 
		0.021193f, 0.023667f, -0.043648f, 0.100179f, -0.010388f, -0.009808f, 0.015625f, -0.062831f, 
		0.057012f, 0.054861f, -0.180942f, -0.044009f, 0.057017f, -0.113351f, -0.097449f, 0.114370f, 
		0.165199f, 0.043061f, 0.166567f, -0.043968f, 0.134073f, 0.048849f, -0.017961f, -0.157832f, 
		-0.078210f, 0.168008f, -0.081344f, -0.075328f, 0.032044f, -0.136967f, -0.074761f, 0.190142f, 
		-0.034706f, 0.103250f, 0.150366f, -0.042594f, -0.017533f, 0.068044f, 0.119287f, 0.175367f, 
		-0.041138f, -0.110009f, 0.113958f, 0.085444f, -0.014331f, -0.073551f, 0.156808f, -0.005950f, 
		-0.073147f, -0.003976f, 0.180463f, -0.054088f, 0.022485f, -0.012966f, 0.048822f, -0.128553f, 
		0.041506f, -0.138711f, 0.119280f, 0.138564f, -0.084729f, 0.036448f, -0.089439f, 0.063780f, 
		-0.181186f, -0.168988f, -0.068842f, 0.063608f, -0.058440f, -0.104086f, 0.076834f, 0.139296f, 
		-0.066419f, 0.098529f, -0.166914f, -0.181696f, 0.101519f, 0.138738f, -0.078159f, -0.110615f, 
		-0.143795f, -0.068642f, 0.090823f, -0.001348f, 0.093926f, -0.187005f, -0.037720f, -0.045816f, 
		-0.173021f, 0.062870f, -0.032913f, 0.105092f, 0.077830f, -0.147810f, 0.055754f, -0.138086f, 
		0.192638f, -0.114981f, 0.088951f, 0.122518f, 0.130230f, -0.057309f, -0.022779f, 0.063215f, 
		0.000046f, -0.090650f, 0.139320f, -0.121247f, -0.175361f, -0.113383f, 0.095764f, -0.183560f, 
		0.105864f, -0.029154f, 0.067339f, 0.054171f, -0.064828f, -0.146205f, 0.155361f, -0.067357f, 
		0.146449f, 0.153486f, -0.020461f, 0.188567f, -0.092790f, -0.149436f, 0.093057f, -0.119963f, 
		-0.030815f, -0.088852f, 0.154109f, -0.016905f, 0.185885f, -0.074710f, 0.108561f, 0.183983f, 
		-0.095134f, -0.020621f, 0.170683f, 0.138082f, -0.186538f, 0.176636f, -0.072588f, -0.162428f, 
		0.065331f, 0.150652f, 0.132989f, 0.017043f, 0.071715f, 0.067096f, -0.040891f, -0.031786f, 
		0.016178f, -0.012366f, 0.143604f, -0.172942f, 0.086167f, 0.155271f, -0.056086f, 0.104865f, 
		0.157400f, 0.123419f, -0.154291f, 0.118828f, -0.012173f, 0.050643f, 0.072907f, 0.045046f, 
		0.140196f, -0.172347f, 0.028084f, 0.168995f, -0.186406f, 0.073212f, 0.165826f, -0.108074f, 
		-0.056627f, 0.154510f, 0.068325f, -0.013856f, -0.021202f, -0.070482f, 0.118813f, 0.147958f, 
		-0.088239f, 0.183861f, 0.152534f, -0.123169f, 0.113825f, 0.115093f, -0.122352f, -0.019091f, 
		-0.026405f, 0.173419f, 0.112776f, -0.141005f, 0.157163f, 0.025971f, -0.101353f, 0.065635f, 
		-0.170270f, -0.013882f, -0.164149f, -0.115330f, 0.107572f, 0.114787f, 0.072238f, 0.168630f, 
		0.017963f, -0.030364f, 0.007414f, -0.164999f, 0.100788f, -0.027466f, 0.120446f, 0.057486f, 
		-0.082395f, 0.119092f, -0.181978f, -0.140612f, -0.058601f, 0.052785f, -0.170256f, 0.103909f, 
		-0.174079f, 0.072695f, 0.079659f, -0.023892f, -0.004639f, -0.010107f, 0.057714f, -0.179073f, 
		-0.028010f, 0.191241f, 0.116120f, 0.018898f, -0.118791f, 0.026030f, -0.117301f, 0.118254f, 
		0.047105f, 0.112176f, 0.111294f, -0.004330f, 0.081660f, -0.012689f, 0.173825f, -0.130088f, 
		0.151271f, -0.166206f, 0.132354f, -0.185744f, 0.174519f, 0.016007f, -0.141804f, 0.141722f, 
		-0.027344f, -0.083378f, 0.095905f, -0.154868f, -0.059862f, -0.130114f, 0.154202f, -0.005354f, 
		0.070978f, -0.113183f, -0.046608f, 0.163865f, -0.046600f, -0.116827f, -0.109761f, 0.006229f, 
		-0.125564f, -0.125567f, -0.107276f, -0.059514f, -0.117983f, -0.036629f, -0.149767f, -0.072440f, 
		-0.141814f, 0.059089f, -0.111590f, 0.069729f, -0.124704f, -0.131790f, 0.193554f, -0.151074f, 
		0.190624f, -0.177788f, 0.085011f, -0.015398f, -0.044864f, -0.002950f, 0.050220f, 0.133881f, 
		-0.080814f, 0.059719f, 0.032104f, -0.061172f, -0.138342f, 0.178018f, -0.112112f, -0.035993f, 
		0.012808f, -0.012481f, 0.119969f, -0.059570f, 0.094385f, -0.120335f, 0.165481f, 0.046110f, 
		0.020450f, -0.042488f, 0.098667f, -0.111805f, -0.136366f, -0.144112f, 0.064176f, -0.109196f, 
		0.140002f, 0.177474f, 0.156588f, 0.102080f, 0.063260f, 0.030004f, -0.042015f, -0.108558f, 
		0.084348f, 0.121937f, -0.016573f, 0.119287f, 0.012688f, -0.061495f, -0.146303f, 0.174674f, 
		-0.146747f, 0.024400f, -0.103431f, 0.140637f, -0.026881f, 0.021225f, 0.135406f, -0.100424f, 
		0.105181f, -0.183892f, 0.128318f, 0.009809f, 0.094460f, -0.037263f, 0.188008f, 0.185405f, 
		0.177898f, -0.109790f, 0.165253f, 0.136724f, 0.083658f, 0.168519f, -0.147470f, 0.151696f, 
		-0.142695f, 0.005569f, 0.121965f, -0.048966f, 0.005310f, 0.126437f, -0.050452f, 0.030319f, 
		0.031989f, -0.052766f, 0.177783f, 0.066781f, 0.141775f, 0.037872f, -0.116637f, -0.180536f, 
		0.052430f, -0.051714f, 0.107936f, -0.157014f, -0.040958f, -0.073462f, -0.068380f, 0.037943f, 
		-0.010994f, 0.138995f, -0.095627f, 0.018964f, -0.034495f, -0.068377f, 0.081029f, 0.178500f, 
		-0.145623f, 0.086786f, -0.013334f, -0.116203f, -0.115224f, 0.188461f, -0.035701f, 0.017986f, 
		0.088693f, -0.074574f, 0.064158f, 0.101257f, -0.155262f, -0.144978f, -0.066882f, -0.185874f, 
		-0.119630f, -0.021610f, -0.142398f, -0.039409f, -0.160091f, -0.172902f, 0.128255f, -0.058325f, 
		-0.132959f, -0.098789f, 0.138439f, 0.083327f, -0.131226f, 0.053755f, 0.136253f, -0.060465f, 
		0.131010f, -0.160893f, 0.177526f, 0.026296f, 0.102212f, -0.029356f, -0.094949f, -0.079534f, 
		-0.077202f, -0.116612f, 0.027265f, 0.182232f, -0.144182f, -0.099500f, 0.125137f, 0.161929f, 
		-0.145592f, -0.059146f, -0.041266f, 0.101674f, -0.015923f, 0.178242f, -0.117503f, 0.033620f, 
		-0.025046f, -0.190337f, 0.188837f, -0.135741f, 0.054953f, 0.091633f, -0.074920f, 0.138261f, 
		-0.183289f, -0.144487f, 0.148766f, 0.111351f, -0.076091f, 0.063854f, -0.045733f, 0.094035f, 
		0.143560f, -0.161400f, -0.110777f, -0.144678f, -0.143577f, 0.024307f, 0.023387f, 0.020846f, 
		-0.096524f, 0.113008f, -0.149913f, -0.074789f, -0.026216f, -0.105211f, -0.108804f, -0.044517f, 
		0.160123f, -0.068680f, -0.012993f, -0.116851f, 0.119512f, -0.035322f, 0.168768f, 0.183021f, 
		-0.193124f, -0.009278f, -0.164953f, 0.160015f, 0.123603f, -0.166286f, -0.099227f, -0.004921f, 
		-0.096252f, 0.003554f, 0.053849f, -0.059685f, 0.103708f, -0.115575f, -0.134175f, 0.067630f, 
		0.189212f, 0.074691f, 0.068816f, 0.043496f, 0.073289f, 0.002655f, 0.096887f, -0.145213f, 
		0.013268f, -0.160037f, 0.064784f, 0.032722f, -0.060542f, -0.036668f, 0.071058f, -0.170016f, 
		0.133604f, 0.105446f, 0.047920f, 0.160768f, -0.109657f, 0.173060f, -0.019970f, -0.144393f, 
		0.173164f, -0.101664f, -0.026724f, 0.161501f, -0.014407f, 0.050274f, 0.033181f, 0.107138f, 
		-0.169132f, 0.184902f, -0.096641f, 0.054998f, -0.018002f, -0.039847f, 0.158514f, -0.136469f, 
		0.056034f, -0.102592f, -0.062424f, -0.013220f, 0.048426f, 0.060279f, 0.056639f, -0.082437f, 
		-0.015747f, -0.085598f, -0.078171f, 0.009338f, 0.124155f, -0.026859f, -0.064222f, -0.122909f, 
		0.065749f, 0.171999f, 0.047710f, -0.037687f, -0.073807f, 0.079534f, 0.083940f, -0.105194f, 
		-0.189933f, -0.075661f, -0.037024f, -0.162797f, 0.075039f, -0.091109f, -0.135233f, 0.185267f, 
		-0.106816f, -0.160296f, 0.067355f, 0.019726f, -0.159187f, -0.139458f, 0.028181f, 0.041858f, 
		-0.137111f, -0.023376f, 0.010804f, -0.186905f, -0.105541f, 0.031956f, 0.059288f, -0.135557f, 
		0.136155f, -0.045341f, 0.035116f, 0.189783f, -0.192391f, -0.164293f, 0.173623f, -0.160075f, 
		-0.123035f, -0.065591f, 0.172175f, 0.155444f, 0.086326f, 0.077526f, 0.006176f, -0.026052f, 
		-0.159319f, -0.006093f, 0.098268f, 0.101365f, -0.165447f, 0.072726f, -0.115551f, -0.034967f, 
		-0.009586f, 0.002232f, -0.008389f, -0.142242f, 0.078970f, 0.055383f, -0.110075f, 0.091607f, 
		-0.097606f, 0.084637f, 0.117461f, 0.182561f, -0.081987f, 0.169367f, -0.142491f, -0.061861f, 
		-0.107046f, -0.143710f, 0.115899f, -0.183889f, 0.014886f, 0.130251f, -0.109335f, 0.105078f, 
		0.035633f, -0.109109f, 0.188751f, 0.019181f, 0.091289f, -0.001434f, -0.100426f, 0.117642f, 
		0.087169f, -0.013926f, 0.180901f, 0.097623f, -0.134816f, 0.074139f, -0.119336f, -0.103587f, 
		-0.081702f, 0.027097f, -0.186385f, -0.138399f, 0.109212f, 0.143606f, -0.188904f, -0.032985f, 
		-0.014899f, 0.136384f, 0.189206f, -0.034271f, -0.070243f, -0.086118f, 0.093277f, -0.029502f, 
		-0.150666f, 0.026455f, -0.111500f, 0.150084f, -0.080601f, 0.149035f, 0.143377f, 0.115712f, 
		-0.041510f, -0.025837f, -0.031932f, 0.176611f, 0.081863f, 0.006237f, 0.182485f, 0.128694f, 
		0.176673f, 0.123012f, 0.114141f, -0.080589f, -0.001930f, -0.070834f, -0.106567f, -0.121141f, 
		-0.156601f, -0.003478f, 0.124214f, 0.012214f, -0.085228f, 0.036688f, 0.146706f, -0.180950f, 
		-0.039112f, -0.000211f, 0.174520f, 0.152451f, 0.088567f, -0.191388f, 0.049102f, 0.145847f, 
		-0.127912f, -0.186911f, -0.120122f, -0.067046f, 0.157239f, -0.036778f, -0.006448f, -0.152822f, 
		-0.102794f, 0.091948f, 0.104537f, -0.177550f, -0.138696f, 0.166824f, -0.134384f, -0.135692f, 
		-0.058980f, -0.039779f, 0.063401f, 0.041212f, -0.076929f, 0.112968f, 0.002674f, -0.120969f, 
		0.115667f, -0.078438f, -0.070621f, -0.005187f, 0.051398f, 0.032210f, -0.123777f, 0.010494f, 
		-0.027837f, 0.125391f, -0.096907f, -0.140713f, 0.051146f, 0.125871f, -0.064070f, -0.110075f, 
		-0.138814f, -0.144749f, -0.151933f, 0.019309f, -0.185371f, 0.141165f, -0.083306f, 0.023742f, 
		-0.142374f, 0.092837f, 0.175291f, 0.145500f, 0.135912f, -0.129715f, -0.118935f, 0.110251f, 
		0.029202f, -0.180567f, 0.124905f, 0.033401f, 0.006254f, -0.093361f, -0.150728f, 0.162901f, 
		-0.159334f, 0.117552f, -0.145355f, -0.094891f, -0.063634f, 0.142767f, 0.007384f, -0.005175f, 
		0.092797f, 0.035031f, -0.042691f, 0.134096f, 0.010835f, -0.016662f, 0.047139f, 0.008504f, 
		0.048037f, -0.187583f, 0.054884f, 0.079111f, 0.137186f, 0.023976f, -0.166486f, -0.005373f, 
		0.028251f, 0.116046f, 0.129493f, 0.137275f, -0.125639f, -0.118886f, -0.141142f, 0.037807f, 
		-0.043590f, 0.136917f, 0.125016f, 0.136221f, 0.037579f, 0.191010f, -0.032044f, -0.050599f, 
		-0.122133f, -0.191967f, -0.174199f, 0.067669f, -0.030394f, 0.099316f, 0.157260f, -0.058147f, 
		0.163004f, 0.090048f, 0.026255f, 0.109778f, 0.014871f, 0.008501f, 0.013011f, -0.079536f, 
		-0.147546f, 0.104617f, 0.169826f, -0.107980f, 0.083438f, -0.152601f, 0.146665f, 0.152360f, 
		0.137107f, 0.159740f, 0.042305f, -0.033805f, 0.119329f, -0.124091f, 0.064290f, -0.072142f, 
		-0.148854f, -0.014882f, 0.157947f, 0.038988f, -0.093265f, -0.064428f, 0.044161f, -0.175991f, 
		0.081493f, 0.034946f, 0.006539f, -0.173792f, -0.176702f, 0.053293f, 0.181934f, 0.090981f, 
		-0.056138f, 0.019391f, 0.079708f, 0.177091f, 0.086700f, 0.040435f, 0.173066f, 0.047791f, 
		-0.011178f, 0.091644f, 0.113941f, 0.007881f, -0.184142f, -0.060688f, -0.165976f, -0.075970f, 
		0.162493f, 0.077146f, -0.000841f, -0.116939f, -0.018809f, -0.071151f, -0.124445f, -0.093944f, 
		0.157172f, -0.110121f, 0.028425f, 0.166513f, 0.124432f, 0.003271f, 0.014728f, 0.140851f, 
		0.184622f, -0.149852f, -0.017518f, 0.054984f, -0.009020f, 0.180314f, 0.039008f, 0.087430f, 
		0.193128f, 0.179398f, 0.086022f, 0.178889f, 0.184672f, -0.017772f, 0.082744f, -0.179001f, 
		-0.128211f, 0.034060f, -0.061370f, -0.045603f, 0.141716f, -0.108781f, -0.083205f, -0.015353f, 
		-0.039626f, 0.134095f, -0.176958f, 0.051627f, 0.165286f, -0.122901f, -0.057766f, -0.106673f, 
		0.077175f, -0.081019f, -0.068375f, -0.040247f, 0.187056f, 0.128686f, 0.189439f, -0.027746f, 
		0.186138f, 0.076034f, 0.128436f, 0.073103f, -0.074050f, 0.104405f, -0.037646f, -0.000804f, 
		0.121193f, 0.076727f, -0.164671f, -0.046267f, -0.111717f, -0.123750f, -0.087233f, 0.097087f, 
		0.155563f, 0.126669f, 0.094028f, 0.085966f, -0.135927f, -0.168608f, -0.091327f, -0.015704f, 
		0.082214f, -0.167370f, 0.018041f, 0.139549f, 0.158462f, 0.015049f, 0.065737f, 0.128459f, 
		0.175551f, 0.061239f, -0.065592f, 0.062480f, 0.137784f, -0.119135f, -0.179643f, 0.078561f, 
		0.190953f, -0.160055f, 0.124589f, 0.073386f, 0.153782f, -0.012910f, -0.100671f, -0.089178f, 
		-0.132501f, -0.023059f, -0.019812f, 0.070841f, -0.141870f, -0.003945f, -0.068834f, 0.012182f, 
		0.192751f, -0.157079f, 0.153924f, 0.061652f, 0.033487f, -0.167436f, -0.160837f, 0.113478f, 
		-0.128378f, 0.071607f, -0.069689f, -0.146797f, 0.112545f, 0.002687f, -0.188754f, 0.129661f, 
		-0.000376f, -0.089456f, -0.013782f, 0.147416f, -0.119805f, -0.094450f, -0.083804f, -0.129807f, 
		0.057198f, -0.188001f, -0.031210f, -0.015053f, 0.025795f, 0.030988f, 0.193073f, 0.191003f, 
		0.085579f, -0.086472f, 0.164832f, 0.076648f, -0.063455f, 0.000992f, -0.056621f, -0.138225f, 
		-0.124827f, 0.003648f, -0.188698f, 0.167497f, 0.061625f, 0.178399f, -0.151238f, -0.135864f, 
		0.183974f, 0.014371f, -0.135314f, -0.109771f, -0.116229f, 0.062101f, 0.011750f, 0.170262f, 
		-0.018099f, 0.084214f, -0.002365f, -0.127541f, 0.033645f, 0.069298f, 0.000148f, 0.114550f, 
		0.023097f, 0.058190f, 0.052334f, -0.000590f, 0.095562f, 0.178586f, -0.064666f, -0.076365f, 
		-0.078884f, 0.102578f, -0.109588f, -0.143406f, -0.153777f, -0.157923f, 0.014278f, 0.003148f, 
		0.127807f, 0.079136f, 0.124798f, 0.091100f, 0.045071f, -0.017608f, 0.082807f, -0.112711f, 
		0.181191f, 0.107154f, -0.006964f, 0.183598f, -0.153236f, -0.074258f, 0.050323f, -0.036574f, 
		0.061096f, -0.112518f, 0.034277f, 0.090362f, -0.151864f, 0.010693f, -0.007030f, 0.062724f, 
		-0.115912f, -0.114048f, -0.045628f, 0.159996f, 0.192890f, 0.062563f, 0.004208f, 0.042850f, 
		0.125867f, 0.111925f, 0.067738f, -0.131594f, -0.029251f, 0.077663f, 0.145286f, 0.151054f, 
		0.180102f, 0.081760f, -0.006042f, 0.080137f, 0.064659f, 0.013720f, 0.014269f, 0.043502f, 
		0.093597f, -0.140187f, 0.155663f, 0.000377f, -0.059123f, 0.010924f, 0.186231f, -0.134771f, 
		-0.165629f, 0.135700f, 0.058255f, -0.011615f, 0.069907f, -0.124553f, 0.099663f, 0.057041f, 
		-0.017128f, 0.133101f, 0.028547f, -0.006242f, 0.097184f, 0.005201f, -0.192139f, 0.038907f, 
		-0.017395f, -0.144634f, 0.143612f, -0.028271f, -0.152017f, -0.125287f, 0.161817f, -0.170328f, 
		0.001468f, 0.184780f, -0.029611f, -0.094807f, -0.045660f, -0.049647f, -0.110712f, 0.086627f, 
		-0.010397f, -0.119607f, -0.112262f, 0.187125f, 0.039822f, 0.057554f, 0.118678f, 0.174449f, 
		-0.138801f, -0.037120f, -0.068768f, -0.036083f, 0.117346f, -0.069630f, 0.145661f, -0.008868f, 
		0.099437f, 0.159268f, 0.008477f, 0.001196f, 0.184856f, 0.021454f, -0.190845f, 0.149029f, 
		0.110154f, -0.091375f, -0.040377f, -0.031294f, -0.061013f, -0.061816f, -0.130575f, -0.110329f, 
		-0.119056f, 0.089065f, 0.162682f, -0.167475f, 0.011200f, 0.019687f, -0.145407f, -0.155780f, 
		-0.164746f, 0.140287f, 0.051860f, -0.146309f, -0.018604f, -0.051971f, -0.179139f, 0.185589f, 
		0.110578f, -0.011681f, -0.100450f, 0.106376f, 0.004065f, 0.072238f, -0.134445f, 0.111121f, 
		-0.118787f, 0.004879f, 0.001023f, -0.024078f, -0.064987f, 0.122284f, -0.072659f, -0.166674f, 
		0.024577f, 0.161509f, 0.076395f, 0.030138f, -0.039211f, 0.009536f, -0.162760f, 0.186307f, 
		0.166746f, -0.115426f, 0.066728f, 0.015813f, 0.061083f, 0.099265f, -0.159026f, 0.181651f, 
		-0.064784f, 0.134330f, 0.000187f, -0.123381f, -0.003253f, -0.154845f, -0.067454f, -0.067210f, 
		-0.052394f, 0.180104f, -0.144523f, -0.108867f, 0.164258f, 0.076286f, -0.074355f, -0.100019f, 
		0.055321f, 0.168215f, 0.013280f, 0.087313f, 0.131231f, 0.047491f, -0.164715f, 0.053197f, 
		0.087484f, 0.181157f, -0.187297f, 0.183426f, -0.004977f, 0.098275f, -0.097952f, 0.008110f, 
		-0.041616f, 0.077158f, 0.072871f, -0.085281f, -0.123614f, 0.098429f, 0.115469f, -0.044757f, 
		-0.132319f, -0.090942f, -0.145034f, -0.098022f, 0.048670f, 0.117318f, -0.006532f, -0.019696f, 
		-0.108535f, 0.009222f, 0.013402f, 0.103114f, 0.101918f, -0.100333f, -0.162259f, 0.143731f, 
		-0.163735f, 0.030054f, 0.158090f, -0.067494f, -0.141563f, -0.025623f, -0.152259f, -0.120806f, 
		-0.033044f, -0.020900f, 0.075076f, -0.180657f, -0.155788f, 0.077645f, 0.049965f, 0.158165f, 
		-0.083580f, -0.147259f, -0.151531f, -0.135485f, 0.031522f, -0.135998f, 0.082457f, 0.052742f, 
		0.144812f, 0.104270f, 0.169220f, -0.111152f, -0.011362f, 0.012785f, -0.139036f, -0.017556f, 
		0.099225f, 0.102673f, 0.085264f, -0.162670f, 0.090499f, 0.016765f, 0.168536f, 0.157606f, 
		-0.086663f, -0.145591f, 0.106885f, -0.093556f, -0.094775f, -0.154982f, -0.075162f, 0.083628f, 
		-0.064528f, 0.051384f, 0.113029f, -0.155652f, 0.024782f, -0.129706f, 0.167117f, -0.061543f, 
		-0.108306f, -0.091807f, 0.148777f, 0.159166f, 0.088994f, -0.148865f, -0.008997f, -0.094666f, 
		0.164731f, 0.093428f, -0.041885f, 0.093017f, 0.192695f, 0.148176f, -0.109415f, 0.188935f, 
		0.035619f, 0.135181f, -0.133035f, -0.019673f, 0.192654f, 0.095815f, -0.111061f, 0.120101f, 
		-0.128719f, 0.110325f, -0.043784f, -0.096472f, -0.036770f, 0.018082f, 0.064880f, -0.118008f, 
		-0.160401f, -0.105099f, -0.190273f, -0.034456f, 0.128238f, -0.054126f, -0.087737f, -0.098252f, 
		-0.157715f, -0.169513f, -0.152915f, 0.080381f, -0.124519f, 0.111960f, -0.161569f, -0.183098f, 
		-0.102524f, 0.013059f, -0.072248f, -0.100882f, -0.005877f, -0.038617f, 0.115173f, 0.045213f, 
		-0.041534f, 0.058242f, 0.014466f, 0.014930f, 0.114401f, 0.123803f, -0.129416f, -0.105593f, 
		0.160508f, 0.048662f, -0.161505f, 0.006339f, -0.137609f, -0.021651f, 0.189805f, 0.189636f, 
		0.138222f, 0.185000f, -0.029628f, -0.115358f, -0.122078f, 0.005828f, -0.032850f, 0.025047f, 
		-0.056287f, -0.149823f, 0.107124f, -0.103632f, -0.039964f, 0.055827f, -0.182704f, -0.069666f, 
		0.156410f, 0.001256f, 0.149338f, 0.029728f, -0.026839f, 0.104741f, -0.122234f, -0.051145f, 
		0.062316f, 0.045394f, -0.081284f, -0.149105f, -0.185414f, 0.118895f, 0.152978f, 0.044189f, 
		-0.154724f, 0.186257f, -0.165151f, -0.035804f, 0.104440f, -0.172744f, -0.028194f, 0.141191f, 
		-0.105504f, 0.126922f, -0.082675f, -0.188009f, 0.147027f, 0.182418f, -0.027413f, -0.127434f, 
		-0.142192f, 0.038169f, 0.072780f, -0.120755f, -0.120073f, 0.081328f, 0.172030f, -0.136194f, 
		0.114544f, 0.065001f, -0.126483f, 0.133900f, -0.176518f, -0.154561f, -0.154412f, -0.068327f, 
		-0.057178f, 0.094483f, -0.191136f, -0.012065f, -0.039617f, 0.036931f, 0.159694f, -0.079093f, 
		-0.123440f, 0.018998f, -0.010603f, 0.062329f, -0.138803f, -0.117799f, -0.028606f, -0.130400f, 
		0.006707f, -0.172288f, -0.042442f, -0.165846f, 0.180293f, 0.040681f, 0.078259f, 0.035949f, 
		0.098648f, -0.008467f, -0.175820f, -0.162430f, 0.093011f, 0.129586f, -0.102497f, -0.108717f, 
		-0.023364f, -0.152758f, -0.190283f, -0.124363f, 0.121223f, -0.007225f, -0.142706f, 0.185565f, 
		-0.137644f, -0.160870f, -0.074561f, 0.162064f, 0.107223f, -0.134654f, 0.141895f, 0.095371f, 
		0.126591f, 0.128538f, -0.077530f, -0.036540f, 0.130066f, 0.119705f, -0.138750f, 0.117996f, 
		-0.089228f, -0.096191f, 0.124962f, -0.049829f, 0.027498f, 0.127187f, 0.165195f, 0.121397f, 
		0.184154f, 0.018440f, -0.028653f, -0.069911f, 0.193121f, 0.126629f, -0.124756f, -0.105886f, 
		-0.045516f, 0.094076f, 0.070728f, 0.171145f, -0.082532f, -0.139427f, -0.046567f, -0.143790f, 
		0.129166f, 0.017853f, -0.133812f, 0.026425f, 0.036048f, 0.154628f, -0.029690f, -0.005375f, 
		-0.159471f, -0.114975f, -0.155843f, -0.102423f, 0.158115f, 0.078681f, 0.149053f, 0.039794f, 
		0.081227f, 0.039010f, 0.141492f, -0.056414f, 0.067082f, -0.155750f, 0.126177f, -0.006557f, 
		0.171382f, 0.160759f, 0.040237f, -0.169009f, -0.024823f, -0.051162f, 0.010115f, 0.132624f, 
		0.036763f, 0.063864f, 0.031111f, 0.101027f, 0.168718f, 0.160426f, -0.018391f, 0.129458f, 
		-0.018363f, -0.039964f, -0.075813f, -0.071930f, 0.142578f, -0.166929f, -0.168639f, -0.089493f, 
		-0.142839f, 0.088840f, 0.182350f, 0.147396f, 0.104966f, -0.174638f, 0.082526f, 0.098160f, 
		-0.050460f, -0.189171f, 0.123943f, -0.088397f, -0.066260f, -0.146038f, 0.000017f, -0.154098f, 
		-0.015489f, -0.114216f, -0.166225f, 0.030529f, -0.070780f, 0.097523f, -0.063971f, 0.007933f, 
		0.100557f, -0.017815f, 0.068837f, -0.078942f, -0.145215f, -0.142664f, 0.017733f, 0.073325f, 
		-0.060834f, -0.087713f, -0.007252f, 0.018794f, -0.070305f, -0.113449f, 0.010722f, 0.031962f, 
		-0.067083f, 0.026373f, 0.175783f, -0.168025f, -0.039311f, -0.080094f, 0.189788f, 0.066288f, 
		0.099655f, -0.052672f, -0.019555f, -0.150541f, 0.089063f, 0.084703f, -0.064836f, -0.158852f, 
		-0.011445f, -0.178632f, 0.073668f, 0.171422f, 0.145650f, -0.012259f, 0.010807f, 0.154712f, 
		-0.103300f, 0.131479f, 0.146376f, 0.121336f, 0.174953f, 0.097709f, -0.006150f, 0.169818f, 
		0.142961f, -0.155515f, 0.040836f, -0.079660f, -0.097480f, -0.101916f, -0.164640f, 0.143360f, 
		-0.161333f, 0.084156f, -0.187504f, 0.186442f, -0.052671f, -0.116644f, -0.013981f, -0.027152f, 
		-0.022205f, 0.076398f, 0.166744f, -0.148775f, 0.021911f, 0.074516f, 0.030965f, -0.039404f, 
		0.013127f, -0.028846f, 0.004798f, 0.009694f, 0.033490f, 0.049242f, 0.074972f, -0.086282f, 
		-0.157318f, -0.022610f, 0.079435f, 0.087372f, -0.126960f, -0.080970f, -0.061403f, 0.163861f, 
		0.131156f, -0.103379f, 0.036855f, 0.042741f, -0.110049f, 0.149338f, 0.124300f, 0.183876f, 
		0.005072f, 0.182376f, -0.160667f, 0.130976f, 0.044157f, -0.117713f, 0.144296f, 0.138732f, 
		-0.173189f, -0.072028f, -0.048979f, 0.052931f, -0.162461f, 0.093877f, 0.093469f, 0.016971f, 
		0.025700f, 0.091449f, -0.031824f, -0.092305f, -0.176807f, -0.178684f, 0.170260f, -0.053826f, 
		-0.183610f, 0.140793f, 0.103513f, 0.157410f, -0.127153f, 0.093610f, 0.154021f, -0.124618f, 
		-0.052461f, -0.085587f, 0.113273f, 0.116055f, 0.119629f, 0.159321f, 0.183390f, 0.063501f, 
		0.127735f, -0.114114f, -0.063875f, 0.102878f, 0.175461f, -0.137939f, 0.091303f, 0.176865f, 
		0.112310f, -0.186662f, 0.154364f, 0.141600f, -0.181070f, -0.129578f, 0.148752f, 0.090053f, 
		0.003625f, -0.081224f, 0.069543f, 0.151067f, 0.191565f, 0.153959f, 0.005060f, 0.117294f, 
		0.135000f, -0.010991f, -0.034314f, -0.043657f, -0.138854f, -0.118183f, 0.078813f, 0.115793f, 
		0.116484f, -0.099049f, 0.023783f, -0.035206f, -0.058945f, -0.059052f, 0.178396f, -0.012404f, 
		0.193286f, -0.082126f, -0.135420f, 0.085602f, -0.190308f, 0.041366f, 0.050626f, -0.140420f, 
		-0.065437f, 0.064592f, -0.126940f, 0.079533f, 0.026949f, -0.039935f, -0.156009f, -0.154159f, 
		0.054168f, -0.171506f, -0.018297f, -0.096953f, -0.149994f, 0.027367f, -0.074367f, 0.168489f, 
		-0.095811f, 0.145492f, 0.102001f, -0.107889f, -0.016114f, -0.024850f, 0.037465f, 0.009929f, 
		-0.061358f, 0.009725f, -0.087083f, -0.038373f, -0.028689f, 0.048642f, 0.075185f, 0.081131f, 
		-0.160252f, -0.115945f, -0.073608f, 0.108728f, -0.007051f, 0.167246f, 0.034545f, 0.075346f, 
		0.083344f, -0.158523f, 0.070177f, -0.042111f, 0.149535f, -0.090315f, 0.097044f, 0.045182f, 
		0.088892f, 0.119087f, 0.150880f, -0.107828f, -0.025242f, -0.096983f, -0.177630f, 0.000167f, 
		0.055915f, 0.022453f, -0.004058f, -0.162961f, 0.095380f, 0.044759f, -0.003614f, 0.005452f, 
		-0.165000f, -0.112402f, -0.150622f, 0.149401f, -0.104714f, -0.127776f, -0.048222f, -0.095876f, 
		-0.124662f, -0.067751f, -0.174653f, -0.038275f, -0.018415f, 0.065610f, -0.173841f, 0.104095f, 
		-0.191853f, 0.158891f, 0.142476f, 0.068534f, 0.002193f, -0.055588f, -0.117862f, 0.176144f, 
		0.191167f, -0.103914f, -0.032693f, -0.033492f, 0.010491f, 0.120572f, -0.168558f, -0.111114f, 
		0.142063f, 0.076924f, -0.148389f, -0.022192f, -0.153355f, -0.099840f, -0.034021f, -0.073755f, 
		-0.054468f, -0.184302f, 0.156429f, -0.020556f, -0.118926f, -0.072373f, -0.177415f, 0.166180f, 
		0.128139f, 0.096295f, 0.054214f, 0.137275f, 0.143717f, -0.172069f, -0.040008f, -0.133938f, 
		0.060404f, 0.006813f, -0.049358f, 0.138124f, -0.125140f, -0.136953f, 0.184825f, -0.044498f, 
		0.054279f, -0.101793f, 0.134414f, -0.065425f, -0.003410f, 0.184808f, -0.098947f, -0.005230f, 
		-0.136068f, 0.157694f, -0.066739f, 0.064478f, 0.051007f, 0.180807f, -0.040950f, -0.177927f, 
		-0.147453f, 0.105551f, -0.185951f, -0.119747f, 0.008721f, 0.107581f, -0.181606f, 0.151915f, 
		-0.189080f, 0.057488f, -0.018990f, -0.078652f, -0.066807f, -0.077002f, 0.053190f, 0.051195f, 
		-0.098349f, 0.060947f, -0.065929f, -0.115531f, 0.132863f, 0.144832f, -0.035710f, -0.013320f, 
		-0.155516f, 0.115608f, 0.005957f, 0.106708f, 0.183687f, -0.065537f, -0.025622f, 0.146451f, 
		0.141943f, 0.155415f, 0.125704f, 0.124953f, -0.171056f, 0.062768f, 0.051058f, 0.093173f, 
		0.179170f, 0.107664f, 0.012878f, 0.131775f, -0.016365f, -0.008206f, 0.116153f, -0.037255f, 
		-0.116346f, 0.142842f, -0.084986f, 0.035125f, 0.182553f, -0.093141f, -0.152379f, -0.049052f, 
		-0.094403f, -0.047931f, 0.166724f, -0.111800f, -0.171543f, 0.061255f, 0.153370f, -0.109275f, 
		0.129099f, -0.009155f, 0.065483f, -0.062510f, 0.145874f, -0.099832f, -0.153857f, 0.015602f, 
		-0.142650f, -0.024425f, -0.078967f, -0.049526f, -0.088665f, -0.105856f, 0.049431f, -0.074803f, 
		0.063367f, -0.119903f, 0.026239f, -0.078933f, -0.003749f, 0.014903f, -0.139709f, 0.002027f, 
		0.076849f, 0.028261f, -0.024561f, -0.099443f, -0.116616f, -0.158011f, 0.186743f, 0.183516f, 
		0.046655f, 0.151381f, -0.025763f, 0.123014f, -0.141875f, -0.084957f, -0.085045f, -0.130199f, 
		-0.054191f, -0.040205f, -0.171844f, -0.139984f, -0.086068f, 0.017247f, 0.019876f, 0.082911f, 
		0.113727f, -0.146821f, 0.072917f, -0.110622f, 0.160292f, -0.180906f, 0.156706f, 0.072359f, 
		-0.114238f, 0.172420f, -0.073671f, 0.079309f, -0.002679f, -0.177208f, -0.178538f, 0.078945f, 
		0.164213f, -0.001905f, -0.190228f, -0.187108f, -0.179411f, -0.041528f, 0.045344f, -0.000329f, 
		0.017281f, -0.027810f, -0.017454f, 0.126958f, -0.134779f, 0.137362f, -0.071928f, -0.136533f, 
		0.139052f, 0.110322f, -0.049886f, 0.167762f, -0.039459f, 0.136069f, 0.087060f, -0.061727f, 
		-0.157307f, 0.020652f, -0.054305f, -0.185634f, 0.133370f, 0.002946f, 0.154890f, 0.080434f, 
		0.188536f, -0.183315f, -0.166418f, -0.015829f, 0.173555f, 0.059909f, -0.143818f, 0.067168f, 
		-0.192187f, -0.042439f, 0.173015f, -0.074521f, -0.025674f, 0.140508f, 0.017712f, -0.008980f, 
		-0.185264f, 0.169272f, 0.170124f, 0.002576f, 0.100955f, 0.116876f, 0.023003f, -0.001134f, 
		-0.001468f, 0.145191f, 0.068541f, 0.041259f, 0.032984f, -0.170727f, 0.009670f, -0.180311f, 
		0.170627f, 0.082908f, 0.054138f, -0.193441f, 0.130785f, -0.103132f, -0.149530f, 0.055040f, 
		-0.186769f, -0.074317f, 0.119319f, 0.085947f, 0.140868f, -0.028258f, 0.149942f, 0.038401f, 
		-0.172036f, -0.139257f, 0.164829f, 0.082387f, -0.133808f, 0.002574f, 0.069038f, -0.036653f, 
		-0.019210f, 0.124126f, 0.109891f, -0.014827f, -0.052501f, 0.037115f, 0.086085f, -0.173144f, 
		0.182150f, -0.181074f, 0.006849f, 0.164140f, 0.116876f, -0.192940f, -0.189551f, -0.164251f, 
		0.100049f, 0.067759f, -0.093202f, 0.166872f, -0.186415f, 0.110725f, -0.131656f, -0.162628f, 
		-0.114192f, -0.090917f, 0.165280f, -0.008618f, 0.048387f, -0.085260f, 0.045507f, -0.130393f, 
		0.012388f, 0.040978f, 0.132542f, 0.170006f, -0.168445f, 0.164463f, -0.055115f, 0.142071f, 
		-0.130564f, -0.024331f, 0.161042f, 0.062076f, 0.018630f, -0.044065f, -0.154889f, -0.076776f, 
		0.043551f, -0.170805f, 0.089990f, 0.123775f, -0.049422f, 0.143670f, 0.040515f, -0.151223f, 
		0.027199f, -0.189050f, -0.047165f, -0.096465f, -0.168789f, 0.083645f, 0.038996f, -0.057790f, 
		-0.080778f, 0.008491f, 0.020329f, -0.147281f, -0.072108f, 0.030248f, -0.073112f, 0.106400f, 
		0.044859f, -0.086258f, 0.012290f, 0.133690f, -0.129268f, 0.169397f, -0.044992f, 0.085623f, 
		-0.186096f, 0.193492f, -0.012978f, -0.124918f, 0.020295f, 0.044609f, 0.134495f, 0.017999f, 
		-0.169515f, -0.166242f, -0.187714f, -0.006456f, -0.129798f, -0.145451f, 0.126155f, 0.058545f, 
		-0.152946f, 0.078288f, 0.007208f, -0.001071f, -0.027410f, 0.166415f, -0.115327f, 0.004422f, 
		-0.187839f, -0.022019f, 0.057675f, 0.132936f, -0.183299f, 0.181718f, 0.074791f, 0.186684f, 
		-0.036920f, -0.097419f, 0.049525f, 0.082066f, 0.082971f, -0.079689f, -0.077814f, -0.045200f, 
		0.094151f, 0.106471f, -0.116304f, 0.012845f, 0.062463f, -0.006367f, 0.131481f, 0.114654f, 
		0.156434f, -0.116948f, -0.003815f, 0.041391f, -0.004719f, -0.162350f, -0.121241f, 0.099810f, 
		0.083108f, 0.188979f, 0.047642f, 0.000381f, 0.085039f, -0.152870f, -0.087957f, 0.043846f, 
		-0.043280f, 0.009064f, -0.058483f, -0.178092f, 0.134069f, 0.169572f, 0.116994f, 0.184980f, 
		0.154641f, 0.119137f, 0.112133f, -0.111831f, -0.084202f, -0.185513f, 0.191686f, 0.152310f, 
		-0.093188f, 0.038933f, 0.183362f, -0.038651f, 0.156221f, -0.170686f, 0.191234f, -0.125956f, 
		-0.061247f, -0.092700f, -0.076110f, 0.121859f, 0.017947f, 0.048311f, -0.087062f, -0.192482f, 
		-0.174853f, -0.038256f, 0.134029f, -0.119177f, 0.133141f, -0.189201f, 0.190741f, -0.089663f, 
		0.060926f, 0.139344f, 0.139949f, -0.082582f, 0.143973f, -0.162738f, -0.030133f, 0.072712f, 
		0.078177f, -0.181800f, -0.088634f, -0.129631f, -0.010262f, -0.106152f, -0.047217f, 0.042293f, 
		-0.080799f, 0.027121f, 0.044176f, -0.081997f, -0.109643f, -0.050474f, 0.004950f, 0.096967f, 
		0.078639f, 0.147553f, 0.025516f, -0.090953f, -0.185678f, -0.077480f, 0.022923f, 0.126096f, 
		0.006483f, -0.091733f, -0.022047f, 0.059234f, -0.136229f, 0.149656f, 0.093044f, -0.151531f, 
		0.119316f, 0.058903f, -0.046989f, -0.044748f, 0.140635f, -0.176166f, -0.166101f, -0.150453f, 
		-0.062851f, -0.120198f, -0.167807f, -0.085358f, -0.136635f, 0.126731f, -0.060029f, 0.102386f, 
		0.046949f, 0.151666f, 0.164238f, -0.129488f, -0.187364f, -0.089529f, -0.158941f, 0.101106f, 
		0.143906f, 0.135319f, 0.121948f, 0.096915f, 0.140034f, 0.057352f, -0.149697f, 0.098928f, 
		-0.065328f, 0.171041f, 0.174288f, -0.026056f, -0.094966f, -0.189742f, -0.017960f, 0.022074f, 
		0.151346f, 0.056791f, -0.158800f, -0.119181f, 0.065971f, 0.172443f, 0.135850f, 0.137550f, 
		-0.013750f, -0.080774f, 0.110832f, -0.020616f, 0.179440f, -0.123789f, 0.183553f, -0.180289f, 
		0.026301f, -0.168111f, -0.083097f, 0.036219f, 0.104040f, 0.071929f, -0.135630f, -0.130631f, 
		0.098912f, -0.097230f, -0.144070f, -0.193115f, 0.083854f, -0.152642f, -0.042459f, 0.032989f, 
		-0.028374f, -0.118642f, 0.175317f, 0.183828f, 0.005010f, -0.021332f, -0.154625f, 0.019632f, 
		0.134631f, 0.153501f, -0.049079f, -0.065249f, -0.073176f, 0.186902f, 0.055594f, 0.124049f, 
		-0.178039f, 0.148889f, -0.137806f, 0.051338f, 0.081318f, 0.068670f, -0.047047f, 0.124723f, 
		0.057322f, -0.052414f, -0.191628f, -0.137216f, 0.043908f, 0.166954f, -0.192222f, -0.179359f, 
		-0.078914f, -0.130599f, 0.139312f, -0.135266f, -0.156933f, -0.178244f, 0.184880f, 0.040618f, 
		0.117844f, -0.084971f, -0.170657f, -0.180814f, -0.058193f, 0.048219f, -0.114456f, -0.179777f, 
		-0.166179f, -0.124539f, -0.062621f, 0.171970f, -0.067409f, 0.021465f, 0.180169f, -0.183530f, 
		0.184472f, 0.165239f, -0.129005f, -0.116537f, 0.054347f, -0.146914f, 0.178949f, 0.162962f, 
		0.043542f, -0.153175f, -0.098554f, -0.136732f, 0.048494f, -0.138001f, -0.108264f, -0.023413f, 
		0.043208f, 0.006629f, 0.069070f, 0.153233f, -0.154201f, -0.128184f, -0.127296f, -0.118290f, 
		-0.084112f, -0.048619f, -0.109386f, -0.067857f, -0.129132f, 0.048140f, 0.102849f, 0.058740f, 
		-0.115393f, 0.038130f, 0.128557f, -0.081231f, 0.130375f, -0.014207f, 0.057846f, -0.010880f, 
		0.105383f, 0.119117f, -0.173849f, -0.173045f, 0.101125f, -0.115268f, -0.111184f, -0.148652f, 
		-0.085568f, -0.063458f, -0.138865f, 0.077338f, -0.181199f, -0.062014f, -0.059654f, -0.092753f, 
		0.172157f, -0.117945f, -0.104684f, -0.095874f, 0.186090f, 0.127237f, -0.118089f, 0.121242f, 
		-0.186503f, -0.101728f, 0.053021f, -0.090916f, -0.012691f, 0.179079f, -0.085269f, -0.002315f, 
		0.140037f, 0.138342f, 0.101374f, 0.046904f, -0.104433f, -0.016821f, 0.056937f, -0.084957f, 
		-0.104198f, 0.029932f, 0.093218f, -0.046926f, -0.153399f, 0.145465f, 0.118326f, -0.183471f, 
		0.157859f, 0.141418f, -0.103593f, -0.035594f, -0.137073f, -0.049938f, -0.024891f, 0.125180f, 
		-0.088408f, -0.034603f, 0.192809f, 0.033761f, -0.036800f, 0.073934f, 0.062222f, 0.064577f, 
		0.057120f, -0.076878f, -0.002929f, 0.107253f, 0.006113f, -0.011696f, -0.033844f, 0.185408f, 
		0.033443f, -0.185418f, 0.128011f, 0.110138f, -0.139163f, -0.161100f, 0.101661f, 0.134646f, 
		-0.056509f, 0.066444f, 0.099058f, -0.191248f, 0.057307f, -0.136506f, -0.041209f, -0.153995f, 
		-0.078031f, 0.129672f, -0.021029f, -0.003710f, 0.150861f, 0.166156f, -0.089144f, -0.110678f, 
		-0.142257f, 0.026202f, 0.097778f, -0.092754f, -0.026568f, 0.129434f, -0.177953f, -0.037902f, 
		0.118951f, 0.009064f, -0.193564f, 0.109716f, 0.039404f, 0.005385f, -0.090746f, -0.005909f, 
		0.136655f, 0.070103f, -0.021901f, -0.088538f, 0.092065f, 0.065917f, 0.012769f, -0.014171f, 
		0.183559f, -0.146817f, 0.176520f, 0.109950f, 0.103878f, 0.131144f, -0.027918f, 0.120608f, 
		0.107206f, -0.168695f, -0.025629f, -0.063300f, 0.181145f, -0.108658f, -0.082874f, -0.077986f, 
		-0.100513f, -0.062903f, -0.162620f, -0.104850f, 0.064030f, 0.032324f, 0.072125f, -0.163244f, 
		0.111126f, 0.168796f, 0.068722f, 0.042829f, 0.050126f, -0.028174f, -0.040792f, 0.142883f, 
		-0.091171f, -0.145264f, 0.119546f, -0.162390f, -0.056636f, -0.069883f, -0.030101f, 0.178303f, 
		0.175120f, 0.161536f, -0.024801f, -0.040906f, -0.154537f, 0.176077f, -0.046024f, -0.007930f, 
		-0.095895f, -0.088853f, 0.157472f, -0.100104f, 0.183837f, 0.016847f, -0.041482f, -0.096028f, 
		0.025813f, -0.014252f, 0.186383f, 0.037700f, 0.189969f, -0.159072f, -0.106724f, 0.002733f, 
		-0.155388f, 0.063299f, -0.069269f, -0.127274f, -0.065829f, -0.121845f, 0.186965f, 0.135569f, 
		-0.189534f, 0.156104f, -0.033090f, 0.019001f, -0.032867f, 0.164479f, 0.157692f, -0.005012f, 
		0.031802f, 0.182084f, 0.151534f, -0.152874f, -0.049334f, 0.139856f, 0.139240f, 0.051422f, 
		0.004072f, 0.024645f, -0.140759f, -0.089955f, -0.160859f, 0.111278f, -0.095881f, -0.102738f, 
		0.172584f, 0.129231f, 0.168746f, -0.141233f, 0.088249f, -0.026877f, 0.168642f, 0.147239f, 
		0.178371f, -0.089858f, 0.124847f, -0.003717f, -0.059768f, -0.083486f, -0.121336f, -0.166451f, 
		0.029236f, -0.061407f, -0.046096f, -0.124367f, -0.182232f, -0.166892f, -0.177153f, -0.027915f, 
		-0.182939f, 0.129254f, 0.142899f, -0.129133f, -0.177881f, -0.006603f, -0.083217f, -0.153268f, 
		-0.002992f, -0.189717f, 0.179389f, 0.086586f, -0.063543f, -0.141628f, 0.059738f, 0.162073f, 
		0.004790f, -0.127616f, -0.150895f, -0.060754f, 0.100060f, -0.085021f, -0.087380f, -0.017894f, 
		0.156330f, -0.082760f, 0.026389f, -0.143280f, -0.129279f, 0.145720f, 0.109896f, -0.095597f, 
		0.146040f, 0.109077f, -0.096319f, -0.090597f, 0.167862f, 0.054274f, -0.166623f, -0.146323f, 
		0.055736f, -0.061018f, -0.079177f, 0.118432f, -0.138243f, 0.021614f, 0.143432f, -0.064060f, 
		-0.174175f, -0.138139f, 0.119989f, -0.046173f, -0.073345f, 0.178682f, -0.178036f, -0.113078f, 
		-0.048431f, -0.113514f, 0.145525f, 0.157054f, 0.106885f, 0.013214f, 0.182950f, 0.192268f, 
		0.153911f, 0.150280f, 0.066168f, 0.045085f, -0.186534f, 0.150445f, 0.118927f, -0.129411f, 
		0.155760f, -0.092476f, -0.106246f, 0.152596f, -0.123790f, 0.070893f, 0.119305f, 0.026312f, 
		-0.068240f, 0.087226f, 0.149278f, -0.111299f, 0.172724f, -0.079316f, -0.048329f, 0.188554f, 
		0.149696f, 0.026127f, 0.090296f, -0.027163f, -0.077967f, -0.025238f, -0.095237f, 0.035102f, 
		0.085857f, 0.045231f, 0.167132f, -0.138880f, -0.130111f, -0.104744f, 0.048540f, 0.170209f, 
		0.162483f, 0.164790f, 0.057498f, -0.014748f, -0.044522f, 0.191020f, 0.030550f, -0.186596f, 
		0.114492f, 0.097868f, 0.171670f, 0.130940f, -0.186353f, -0.025817f, -0.149322f, -0.088560f, 
		-0.133033f, 0.137433f, 0.023733f, 0.098788f, -0.149227f, 0.046016f, -0.070086f, -0.173336f, 
		0.106361f, -0.129985f, -0.088698f, -0.191150f, -0.159370f, -0.189673f, 0.086684f, 0.089945f, 
		-0.088197f, -0.142891f, 0.103883f, 0.150445f, -0.130859f, 0.144522f, 0.059109f, -0.147828f, 
		0.066848f, -0.117133f, -0.158553f, -0.004384f, -0.091728f, -0.095529f, -0.030059f, 0.025087f, 
		-0.086503f, 0.022263f, 0.070106f, 0.064877f, -0.185790f, 0.061127f, 0.018082f, 0.083186f, 
		0.027486f, -0.134836f, 0.167678f, -0.056424f, -0.183113f, 0.121556f, -0.043820f, 0.110974f, 
		0.088192f, -0.051763f, -0.130707f, -0.138637f, -0.034489f, -0.142670f, -0.127702f, -0.108754f, 
		-0.136426f, 0.166595f, 0.168319f, 0.037828f, 0.129280f, -0.117688f, -0.053089f, -0.052422f, 
		0.169291f, -0.074172f, 0.172892f, -0.079354f, -0.143134f, -0.128164f, -0.018034f, 0.099427f, 
		0.048011f, 0.078799f, 0.012455f, 0.160948f, 0.192072f, -0.096268f, -0.168023f, -0.142155f, 
		0.157952f, -0.175996f, 0.104887f, 0.134679f, -0.055896f, 0.153445f, -0.117192f, -0.119706f, 
		-0.016878f, -0.120501f, 0.118692f, 0.124179f, -0.179569f, -0.088973f, 0.013946f, -0.169981f, 
		-0.187895f, -0.132224f, -0.170525f, 0.041797f, 0.097872f, 0.078001f, 0.047083f, 0.086589f, 
		0.072850f, -0.061132f, 0.082373f, -0.166884f, 0.089455f, 0.190734f, -0.077016f, 0.091254f, 
		-0.092940f, -0.171534f, -0.157848f, -0.131739f, 0.112559f, 0.141326f, -0.074962f, -0.088503f, 
		-0.069112f, 0.093440f, 0.005654f, -0.045777f, 0.117158f, -0.188669f, -0.099295f, 0.186273f, 
		-0.062037f, 0.081285f, -0.064494f, -0.121801f, -0.023404f, -0.183288f, 0.102110f, 0.013032f, 
		0.189367f, -0.055171f, -0.142865f, 0.141417f, -0.042214f, 0.096244f, 0.023604f, 0.093715f, 
		-0.039004f, -0.131774f, 0.015311f, -0.021553f, -0.118784f, -0.177499f, -0.019157f, -0.077241f, 
		0.060139f, -0.039420f, 0.038096f, -0.065109f, 0.018580f, 0.120275f, 0.053900f, -0.108832f, 
		-0.049152f, 0.191757f, 0.018428f, -0.116767f, 0.161892f, -0.007450f, -0.146927f, -0.183101f, 
		-0.017834f, 0.147110f, 0.038391f, -0.159505f, 0.181834f, 0.182875f, 0.083584f, -0.065890f, 
		-0.111489f, -0.157259f, 0.189979f, -0.085887f, 0.171287f, -0.188350f, -0.090880f, 0.043248f, 
		-0.172695f, -0.095355f, -0.148846f, 0.046413f, 0.075314f, 0.187933f, 0.143811f, -0.182250f, 
		-0.009056f, 0.066522f, 0.189041f, 0.147222f, -0.159132f, -0.090326f, 0.158510f, 0.002403f, 
		-0.129513f, -0.023249f, -0.154525f, 0.113676f, 0.029104f, -0.001544f, 0.143255f, 0.078051f, 
		0.124963f, -0.065601f, 0.032441f, 0.052138f, -0.191873f, 0.039580f, -0.027591f, -0.134875f, 
		0.114094f, -0.067175f, -0.168108f, 0.148219f, 0.089337f, -0.168906f, 0.142483f, -0.047193f, 
		-0.181322f, 0.073830f, 0.183943f, 0.049716f, 0.153756f, 0.185097f, 0.187189f, -0.039244f, 
		-0.192328f, 0.143500f, 0.154482f, -0.129266f, -0.107527f, -0.042109f, 0.099194f, 0.137846f, 
		-0.044389f, -0.117573f, -0.153517f, 0.000862f, 0.020359f, 0.048513f, 0.145861f, 0.126739f, 
		-0.027963f, 0.056544f, 0.028811f, -0.070402f, -0.168038f, 0.065359f, 0.134012f, -0.174387f, 
		-0.085018f, 0.125286f, -0.028485f, -0.191443f, 0.143465f, 0.189650f, -0.101073f, 0.166364f, 
		0.032602f, 0.033379f, -0.101300f, -0.150181f, -0.102368f, 0.095402f, 0.091218f, 0.134464f, 
		0.126955f, -0.127963f, 0.065862f, -0.040433f, 0.129169f, -0.057288f, 0.179321f, -0.065262f, 
		0.192644f, -0.099347f, -0.164881f, 0.188877f, -0.144364f, -0.139816f, 0.190135f, 0.156778f, 
		0.084121f, -0.057735f, -0.150143f, -0.138873f, -0.030065f, -0.130563f, -0.171444f, -0.020706f, 
		0.050491f, -0.029278f, -0.106839f, 0.187578f, -0.108490f, -0.039225f, 0.114222f, 0.063177f, 
		-0.078127f, 0.010992f, 0.102727f, -0.022992f, 0.013973f, 0.100989f, 0.064333f, -0.156781f, 
		-0.092458f, 0.133742f, 0.024533f, -0.110255f, -0.147729f, -0.155337f, 0.071327f, 0.177704f, 
		-0.058923f, -0.046041f, -0.020823f, -0.160358f, 0.193039f, -0.173180f, -0.186864f, 0.112149f, 
		-0.116122f, 0.180932f, -0.156255f, 0.144451f, 0.125851f, 0.176097f, 0.117085f, 0.175354f, 
		0.191738f, 0.056318f, -0.050629f, -0.155055f, 0.027825f, -0.106894f, 0.030459f, -0.028010f, 
		0.153339f, -0.091066f, -0.015839f, -0.141032f, -0.082578f, -0.099217f, 0.127642f, 0.174991f, 
		0.012626f, -0.090499f, -0.051623f, -0.093022f, 0.073337f, -0.125245f, -0.140813f, -0.191227f, 
		0.149071f, -0.128998f, 0.190755f, -0.045266f, 0.128035f, 0.180587f, 0.006987f, -0.002436f, 
		-0.074737f, 0.074021f, 0.181657f, -0.140195f, -0.034184f, -0.037554f, -0.025341f, -0.168948f, 
		-0.039868f, 0.191934f, -0.119275f, -0.054782f, 0.125084f, -0.180895f, 0.185660f, -0.104302f, 
		-0.079356f, -0.088390f, 0.123329f, 0.147952f, -0.119005f, -0.069936f, 0.058338f, 0.074005f, 
		0.131470f, 0.080357f, -0.017328f, -0.072275f, 0.076551f, 0.105186f, 0.157477f, 0.095629f, 
		-0.163923f, 0.107536f, -0.107418f, -0.096499f, -0.132865f, -0.134232f, 0.186792f, 0.132338f, 
		-0.133189f, -0.144488f, -0.162349f, 0.164502f, -0.127727f, 0.062695f, -0.090758f, 0.098950f, 
		0.094264f, 0.147798f, 0.084653f, -0.102604f, -0.096891f, -0.081635f, -0.101069f, -0.186334f, 
		0.121605f, 0.144600f, -0.059852f, -0.141960f, 0.025215f, -0.026837f, 0.149099f, 0.072776f, 
		0.118254f, 0.050707f, 0.120182f, -0.106032f, -0.159323f, -0.057300f, 0.074116f, 0.191381f, 
		-0.151287f, 0.192701f, -0.163997f, 0.046364f, -0.189899f, -0.150884f, -0.012111f, 0.156953f, 
		-0.013421f, 0.183103f, 0.174348f, 0.107954f, -0.171603f, 0.069059f, 0.118402f, 0.140719f, 
		-0.057912f, -0.020101f, -0.030155f, -0.156269f, 0.073889f, -0.034856f, 0.160773f, 0.191119f, 
		-0.081139f, -0.171315f, -0.190960f, -0.125430f, 0.171199f, 0.173229f, 0.087454f, 0.026476f, 
		0.076960f, -0.116053f, 0.092337f, 0.183400f, 0.016205f, 0.088740f, -0.072193f, 0.191110f
	};
	// Hidden Biases (64)
	constexpr inline float B1[64] = {
		0.010000f, 0.010000f, 0.010000f, 0.010000f, 0.010000f, 0.010000f, 0.010000f, 0.010000f, 
		0.010000f, 0.010000f, 0.010000f, 0.010000f, 0.010000f, 0.010000f, 0.010000f, 0.010000f, 
		0.010000f, 0.010000f, 0.010000f, 0.010000f, 0.010000f, 0.010000f, 0.010000f, 0.010000f, 
		0.010000f, 0.010000f, 0.010000f, 0.010000f, 0.010000f, 0.010000f, 0.010000f, 0.010000f, 
		0.010000f, 0.010000f, 0.010000f, 0.010000f, 0.010000f, 0.010000f, 0.010000f, 0.010000f, 
		0.010000f, 0.010000f, 0.010000f, 0.010000f, 0.010000f, 0.010000f, 0.010000f, 0.010000f, 
		0.010000f, 0.010000f, 0.010000f, 0.010000f, 0.010000f, 0.010000f, 0.010000f, 0.010000f, 
		0.010000f, 0.010000f, 0.010000f, 0.010000f, 0.010000f, 0.010000f, 0.010000f, 0.010000f
	};
	// Hidden -> Output (Weights: 32x64)
	constexpr inline float W2[2048] = {
		-0.220345f, 0.053497f, 0.170301f, -0.089430f, -0.071368f, 0.131158f, 0.248887f, 0.068137f, 
		-0.160151f, -0.136925f, -0.095097f, 0.194534f, 0.138510f, 0.019710f, -0.147354f, -0.073177f, 
		0.125512f, -0.198398f, -0.185188f, -0.113617f, -0.055657f, 0.188960f, -0.206153f, 0.131435f, 
		0.153779f, 0.102885f, -0.238796f, 0.021618f, -0.138334f, 0.085124f, -0.226725f, -0.169715f, 
		-0.107144f, -0.181327f, -0.169208f, 0.087159f, -0.098974f, -0.041900f, 0.178734f, -0.172955f, 
		0.066433f, 0.056030f, 0.070517f, 0.169885f, 0.110016f, 0.001869f, -0.091813f, 0.238271f, 
		0.023914f, 0.171481f, -0.048998f, -0.005837f, 0.070579f, 0.109189f, 0.051594f, -0.108810f, 
		-0.159378f, -0.025028f, 0.059703f, 0.061440f, -0.219367f, 0.153026f, -0.048475f, -0.112523f, 
		-0.104002f, 0.089558f, 0.130837f, -0.243617f, 0.001532f, -0.077255f, 0.242863f, -0.080385f, 
		-0.010486f, -0.146813f, -0.075576f, 0.234200f, -0.169689f, -0.017593f, 0.222157f, -0.172759f, 
		0.000056f, 0.093731f, 0.005728f, 0.064262f, 0.147781f, 0.165661f, 0.077530f, -0.182003f, 
		0.032040f, -0.035579f, -0.243704f, 0.161819f, -0.221290f, -0.103856f, -0.149645f, 0.018144f, 
		-0.145429f, -0.142073f, -0.223048f, -0.247775f, 0.060247f, -0.047944f, -0.138763f, 0.199263f, 
		0.168822f, -0.079825f, -0.144299f, -0.036151f, 0.176736f, -0.199015f, -0.178997f, 0.025294f, 
		-0.166401f, -0.086835f, 0.101258f, 0.037030f, -0.050534f, -0.143350f, -0.167270f, -0.158370f, 
		-0.199165f, -0.162405f, -0.140147f, 0.188071f, -0.088732f, 0.208475f, 0.013705f, -0.213114f, 
		0.130319f, -0.175143f, -0.076964f, 0.175645f, 0.207816f, 0.079498f, 0.213257f, 0.151568f, 
		0.101422f, -0.008956f, -0.201437f, 0.084132f, -0.008306f, -0.098171f, 0.139318f, 0.061242f, 
		-0.205799f, -0.048901f, 0.190630f, 0.032758f, -0.230370f, -0.019919f, 0.234100f, 0.158279f, 
		-0.126585f, -0.206840f, 0.244733f, 0.247479f, 0.221973f, -0.067464f, 0.015016f, -0.105540f, 
		-0.136961f, 0.112833f, -0.201831f, 0.243710f, 0.153744f, 0.091761f, 0.206375f, -0.203852f, 
		0.134953f, 0.041272f, -0.127640f, -0.046666f, 0.171771f, -0.006018f, -0.113889f, 0.038650f, 
		0.165223f, -0.195832f, 0.199971f, -0.025494f, -0.197788f, 0.155175f, -0.181264f, -0.033149f, 
		-0.058491f, 0.172955f, 0.197853f, 0.047706f, 0.130754f, 0.227868f, -0.150004f, 0.068739f, 
		-0.102672f, -0.015956f, -0.115945f, 0.137422f, 0.119354f, -0.036222f, 0.015360f, 0.158093f, 
		-0.019681f, -0.163117f, 0.072425f, 0.182733f, -0.052557f, -0.165671f, -0.004667f, 0.100817f, 
		0.113673f, -0.117838f, 0.181583f, 0.118559f, -0.121476f, -0.221176f, 0.062714f, 0.214797f, 
		-0.077744f, -0.014113f, -0.018161f, 0.038145f, 0.085550f, -0.123021f, 0.133645f, -0.045702f, 
		-0.110332f, 0.194188f, -0.163732f, 0.227538f, -0.157740f, -0.225369f, 0.210198f, -0.233935f, 
		-0.210238f, -0.080718f, 0.089643f, 0.041625f, -0.192654f, 0.246652f, -0.027893f, -0.243127f, 
		0.192716f, -0.211000f, -0.090711f, 0.166574f, -0.164762f, 0.173526f, 0.055120f, 0.142004f, 
		-0.154874f, -0.222605f, -0.109294f, 0.155333f, -0.098512f, 0.202661f, -0.169085f, -0.071609f, 
		0.084578f, -0.057431f, -0.117906f, 0.118188f, -0.156178f, -0.197592f, 0.007882f, 0.035964f, 
		0.140170f, 0.184547f, 0.229756f, 0.204304f, -0.163801f, -0.168162f, -0.081162f, 0.197801f, 
		-0.031722f, 0.222803f, 0.020650f, 0.121872f, 0.049394f, -0.145544f, -0.147463f, -0.191551f, 
		-0.008581f, -0.052543f, 0.053653f, -0.010936f, -0.142832f, -0.233052f, 0.192756f, 0.171884f, 
		0.057289f, 0.169543f, 0.156576f, 0.076931f, 0.117259f, 0.180740f, -0.161350f, -0.096768f, 
		-0.219205f, 0.120874f, 0.246929f, 0.009148f, -0.127308f, 0.080073f, 0.232852f, 0.081901f, 
		0.040743f, -0.051485f, 0.023178f, 0.116314f, 0.131307f, -0.188875f, -0.010607f, 0.225683f, 
		-0.079033f, 0.159351f, -0.222859f, -0.200255f, -0.166489f, -0.215710f, -0.219393f, 0.043966f, 
		-0.041025f, -0.055452f, -0.154179f, -0.049860f, 0.244579f, 0.037525f, 0.134297f, 0.065383f, 
		-0.154103f, 0.024322f, 0.078831f, 0.144780f, -0.086779f, -0.070195f, -0.076371f, -0.063740f, 
		0.217448f, -0.137542f, 0.047231f, -0.076579f, -0.074996f, 0.098414f, 0.083680f, -0.135411f, 
		0.128050f, -0.061374f, 0.125591f, -0.105422f, -0.187944f, -0.108298f, -0.006223f, -0.217283f, 
		-0.223940f, -0.006425f, 0.185487f, -0.123898f, 0.219522f, -0.065201f, 0.079644f, 0.151338f, 
		-0.032791f, 0.108494f, -0.159905f, -0.159719f, -0.155326f, -0.196994f, 0.063158f, 0.006411f, 
		0.151454f, -0.212050f, 0.069949f, 0.129237f, 0.066671f, 0.210525f, -0.059530f, -0.144326f, 
		-0.042914f, 0.123259f, 0.091313f, -0.048912f, 0.016956f, 0.124700f, -0.058610f, -0.191217f, 
		0.241354f, -0.094472f, -0.032351f, -0.148318f, -0.227568f, -0.097521f, -0.112770f, 0.068238f, 
		0.043155f, 0.103244f, 0.246222f, -0.103445f, -0.091511f, 0.042430f, 0.191000f, -0.099892f, 
		0.224673f, 0.092634f, 0.214784f, 0.087352f, -0.108899f, 0.208519f, -0.209511f, -0.113163f, 
		0.043351f, 0.056044f, 0.168876f, -0.194011f, 0.215024f, 0.006293f, -0.007548f, 0.066435f, 
		-0.141600f, 0.224935f, -0.213999f, -0.130337f, 0.137933f, 0.080766f, -0.186561f, 0.015596f, 
		0.103670f, -0.129931f, -0.215681f, 0.039146f, -0.164786f, 0.080279f, 0.000406f, -0.205661f, 
		-0.166190f, -0.247743f, -0.064601f, -0.055726f, 0.002761f, -0.050601f, 0.027871f, -0.094686f, 
		-0.075490f, 0.047595f, 0.117581f, 0.120109f, -0.205166f, -0.066072f, -0.109549f, -0.230282f, 
		-0.200595f, 0.099478f, 0.221899f, 0.027677f, 0.082701f, 0.004234f, -0.073771f, -0.194573f, 
		-0.007576f, -0.044785f, -0.189934f, 0.075141f, -0.023375f, -0.163737f, -0.163192f, 0.179207f, 
		0.143838f, -0.204484f, 0.220799f, 0.010253f, 0.062368f, 0.188024f, -0.049021f, -0.031664f, 
		0.093233f, -0.073046f, -0.168389f, -0.010797f, 0.171547f, 0.105762f, 0.162814f, 0.058361f, 
		-0.093350f, 0.088533f, -0.000209f, -0.076962f, -0.042384f, 0.054347f, -0.147595f, -0.193820f, 
		-0.025282f, 0.218699f, -0.044257f, -0.185805f, -0.208801f, -0.188381f, 0.184465f, -0.056274f, 
		0.134291f, 0.086177f, -0.141543f, -0.081275f, -0.248506f, -0.199734f, -0.194645f, -0.013185f, 
		0.058341f, -0.087583f, -0.017424f, 0.128951f, -0.022540f, -0.219859f, 0.130115f, -0.211480f, 
		-0.048655f, -0.134641f, -0.241360f, 0.241735f, -0.025703f, -0.223747f, -0.047647f, -0.217833f, 
		0.145803f, -0.114885f, 0.185732f, 0.137401f, -0.017770f, -0.068896f, -0.243439f, 0.057500f, 
		-0.244862f, 0.107672f, -0.120252f, -0.087989f, -0.082080f, 0.189630f, 0.249388f, -0.086945f, 
		-0.123516f, -0.122973f, 0.225274f, -0.119337f, -0.132058f, -0.173452f, -0.212034f, -0.208328f, 
		-0.142923f, 0.235366f, -0.074305f, -0.188062f, -0.177041f, 0.236579f, -0.122065f, 0.095973f, 
		0.148377f, -0.052067f, -0.055911f, -0.050411f, -0.043434f, 0.000821f, -0.196580f, -0.022178f, 
		-0.014568f, 0.078999f, 0.113224f, -0.189698f, 0.033439f, 0.025653f, -0.191413f, -0.081727f, 
		0.142012f, 0.167665f, 0.031229f, -0.083259f, -0.031203f, 0.167895f, -0.029959f, -0.008193f, 
		0.164427f, -0.107223f, 0.019027f, 0.229233f, 0.045938f, 0.226732f, 0.155440f, 0.051205f, 
		0.160120f, -0.135952f, -0.173127f, -0.041155f, 0.153302f, 0.213766f, 0.022014f, 0.226465f, 
		0.006540f, 0.131731f, 0.151767f, 0.002388f, -0.061088f, 0.104069f, -0.177610f, 0.011209f, 
		0.080812f, 0.035164f, 0.197962f, 0.247674f, -0.042212f, -0.112777f, -0.027293f, 0.022248f, 
		0.192127f, -0.168569f, -0.075995f, 0.141236f, -0.030032f, -0.092409f, -0.204566f, 0.226460f, 
		-0.003929f, -0.170926f, 0.004443f, 0.245940f, -0.094908f, -0.080020f, -0.140104f, -0.189991f, 
		-0.137590f, 0.127190f, 0.037798f, 0.242394f, 0.036970f, -0.235123f, 0.108968f, -0.207873f, 
		-0.083748f, 0.072278f, 0.051548f, -0.192391f, 0.106357f, 0.064917f, 0.057201f, -0.195635f, 
		-0.062411f, 0.114871f, -0.237927f, -0.071551f, -0.204637f, -0.134288f, -0.019967f, 0.086635f, 
		0.077278f, 0.183351f, -0.103464f, -0.238125f, 0.117794f, -0.158207f, 0.119225f, 0.002566f, 
		-0.047404f, -0.127553f, -0.017711f, -0.129686f, 0.146048f, -0.025431f, -0.097413f, 0.033529f, 
		0.016364f, 0.174055f, 0.109532f, -0.183290f, 0.072683f, -0.013241f, 0.004839f, 0.145518f, 
		-0.006652f, -0.033264f, 0.092357f, -0.219850f, 0.129218f, -0.069357f, -0.023365f, 0.137839f, 
		-0.017326f, 0.172082f, -0.139448f, 0.180206f, 0.060435f, -0.180865f, 0.033163f, 0.131509f, 
		-0.099353f, -0.019127f, -0.229876f, -0.158613f, -0.241422f, -0.147794f, -0.007920f, -0.038002f, 
		-0.217819f, -0.222186f, 0.011848f, -0.179334f, 0.201811f, -0.092277f, 0.076966f, -0.243251f, 
		0.076161f, -0.165429f, 0.105210f, 0.063691f, -0.075331f, -0.207985f, -0.108718f, 0.246390f, 
		-0.240199f, -0.014364f, -0.226371f, 0.237241f, -0.134668f, 0.145218f, -0.118617f, 0.052758f, 
		0.063523f, 0.055332f, 0.132311f, -0.088585f, 0.151964f, 0.017293f, 0.074494f, -0.138696f, 
		0.217399f, 0.212664f, 0.048338f, 0.028833f, 0.205974f, 0.063597f, 0.041794f, 0.229158f, 
		0.072158f, 0.214991f, -0.109216f, 0.037780f, 0.045856f, -0.232366f, -0.219494f, -0.013127f, 
		0.074810f, -0.210314f, 0.013441f, 0.171613f, 0.140192f, -0.041604f, 0.216213f, 0.058834f, 
		-0.162343f, 0.131924f, 0.121827f, 0.071374f, -0.224643f, -0.009788f, -0.192031f, -0.186198f, 
		-0.179503f, 0.088624f, -0.081433f, -0.011807f, 0.136952f, 0.083019f, 0.232091f, -0.232069f, 
		0.030077f, 0.024716f, -0.004471f, -0.014948f, 0.057477f, 0.027580f, 0.054831f, 0.049526f, 
		0.195199f, -0.161889f, -0.181725f, -0.216557f, 0.071010f, -0.042177f, 0.146412f, -0.071504f, 
		-0.075780f, 0.123467f, 0.185930f, 0.118949f, -0.194936f, -0.078410f, 0.206094f, -0.116691f, 
		-0.046659f, -0.199159f, -0.206440f, 0.122135f, 0.227902f, 0.103677f, -0.067473f, -0.218245f, 
		-0.149248f, -0.144374f, 0.176324f, -0.051008f, 0.176451f, -0.176573f, 0.201757f, 0.030205f, 
		0.104852f, -0.248302f, 0.207320f, 0.245696f, -0.223190f, -0.120495f, -0.187074f, 0.072941f, 
		-0.035400f, -0.165714f, -0.011547f, -0.075132f, 0.170290f, 0.157989f, -0.046169f, -0.236625f, 
		0.204059f, -0.233385f, -0.138917f, 0.110965f, 0.051427f, -0.237283f, 0.124771f, -0.061728f, 
		0.087446f, 0.089153f, -0.088166f, 0.168086f, 0.066614f, -0.031507f, -0.145954f, 0.232355f, 
		0.134636f, -0.075417f, -0.181924f, 0.154744f, -0.138801f, -0.198624f, -0.004278f, -0.152134f, 
		-0.179755f, 0.233740f, -0.108223f, -0.155722f, -0.123319f, -0.125517f, 0.064346f, 0.002972f, 
		-0.009509f, 0.014127f, 0.021848f, 0.159419f, -0.122325f, -0.192784f, -0.166802f, -0.043977f, 
		0.028557f, 0.225772f, -0.148928f, -0.219696f, -0.194831f, -0.226576f, 0.019954f, -0.175108f, 
		-0.122069f, 0.172439f, -0.205752f, 0.177386f, -0.146192f, 0.135402f, -0.056957f, 0.110453f, 
		-0.041235f, 0.219478f, 0.037432f, -0.146354f, 0.173809f, 0.023936f, -0.009908f, -0.065540f, 
		-0.092039f, -0.192883f, -0.211782f, 0.140182f, 0.098281f, 0.175954f, -0.033463f, -0.016206f, 
		-0.055949f, 0.190430f, 0.036690f, -0.004364f, 0.140774f, 0.243761f, 0.075817f, -0.119876f, 
		0.011053f, 0.126037f, 0.115060f, 0.059799f, 0.114350f, -0.066490f, -0.060084f, -0.200187f, 
		0.024261f, 0.033279f, -0.091330f, 0.203697f, -0.129346f, -0.056041f, -0.018421f, -0.076155f, 
		0.108527f, -0.172920f, 0.225109f, 0.138183f, 0.004666f, 0.033364f, -0.243320f, -0.111189f, 
		0.154110f, -0.053707f, 0.177330f, 0.203225f, 0.230542f, 0.012760f, 0.142970f, 0.168673f, 
		-0.174379f, -0.022766f, 0.162511f, -0.084784f, -0.037728f, 0.115973f, -0.041575f, -0.010050f, 
		-0.049669f, 0.193617f, -0.022299f, -0.035230f, -0.027597f, -0.203218f, 0.055888f, -0.130820f, 
		-0.016111f, 0.099191f, -0.072411f, -0.042540f, -0.203383f, -0.030032f, 0.132121f, 0.155161f, 
		-0.085537f, -0.016238f, -0.210196f, -0.190189f, 0.149517f, -0.036695f, -0.023677f, 0.018441f, 
		-0.151379f, -0.009029f, -0.062480f, 0.085299f, -0.026808f, 0.103049f, 0.080823f, -0.210405f, 
		0.156808f, -0.000722f, -0.088187f, -0.019972f, -0.102308f, -0.139107f, -0.123331f, 0.212458f, 
		-0.182590f, -0.055086f, -0.168940f, 0.069459f, 0.119965f, -0.236760f, 0.220667f, 0.045443f, 
		-0.077119f, 0.045536f, -0.095041f, -0.038368f, -0.245220f, 0.226958f, 0.011999f, -0.219840f, 
		0.181324f, 0.146353f, -0.173444f, -0.041702f, 0.235554f, -0.215260f, -0.014051f, 0.033302f, 
		-0.094146f, 0.067005f, -0.207301f, 0.087399f, -0.039955f, 0.185126f, 0.002568f, -0.198544f, 
		0.175938f, -0.177721f, -0.060208f, 0.167462f, -0.244400f, 0.014714f, 0.132771f, 0.217476f, 
		0.177271f, 0.097322f, 0.117713f, -0.221462f, -0.096814f, -0.173235f, 0.239715f, 0.149708f, 
		-0.142540f, 0.229598f, 0.178267f, 0.066982f, -0.092737f, -0.041470f, -0.211110f, 0.040660f, 
		0.170291f, -0.160542f, 0.035926f, -0.205139f, 0.067646f, 0.048521f, -0.007472f, 0.217534f, 
		0.213350f, -0.125000f, 0.092194f, 0.037128f, -0.100016f, -0.172405f, 0.039444f, -0.047052f, 
		0.006829f, -0.067279f, -0.119961f, 0.109947f, 0.100269f, -0.140240f, 0.046493f, 0.030853f, 
		-0.227918f, -0.097137f, -0.102580f, -0.194993f, -0.120661f, 0.241198f, -0.235699f, 0.010501f, 
		0.213444f, 0.139490f, 0.180561f, 0.132398f, -0.154229f, 0.208264f, -0.132558f, 0.099789f, 
		-0.158536f, -0.162590f, 0.012847f, -0.151058f, 0.144251f, 0.180705f, -0.138152f, -0.095989f, 
		0.070696f, -0.080673f, 0.002663f, 0.063728f, -0.057086f, 0.099418f, -0.025842f, 0.248782f, 
		0.081658f, 0.225568f, 0.240743f, -0.048755f, 0.235099f, 0.208147f, 0.056639f, 0.195726f, 
		0.217809f, 0.044911f, 0.119835f, 0.082027f, 0.206794f, 0.185141f, -0.103463f, 0.055656f, 
		-0.223022f, -0.113869f, 0.085888f, 0.012980f, 0.089143f, -0.102538f, -0.043671f, 0.174177f, 
		0.029025f, -0.013085f, -0.207308f, -0.171374f, -0.038929f, 0.182564f, -0.065405f, 0.041531f, 
		-0.129277f, 0.068259f, -0.223198f, 0.114732f, -0.161655f, -0.161730f, 0.238124f, -0.118648f, 
		-0.071496f, -0.229066f, 0.091702f, -0.070165f, -0.242488f, 0.241962f, -0.042699f, 0.069306f, 
		0.170392f, 0.035229f, 0.025625f, -0.157902f, 0.046455f, -0.131478f, 0.128917f, -0.125645f, 
		-0.039426f, 0.011427f, -0.070353f, 0.079071f, 0.032753f, 0.039276f, 0.004016f, -0.027171f, 
		-0.198840f, 0.153465f, 0.210759f, 0.009179f, 0.007673f, 0.240789f, 0.047705f, 0.047960f, 
		-0.126612f, 0.146850f, 0.126173f, -0.241340f, 0.050358f, 0.075353f, 0.116326f, -0.043633f, 
		-0.129296f, -0.206867f, -0.236756f, 0.016864f, 0.100392f, -0.097877f, 0.141550f, -0.093670f, 
		0.070592f, -0.205323f, -0.160311f, 0.197708f, 0.069258f, -0.220938f, -0.237467f, 0.070593f, 
		-0.224230f, -0.031730f, 0.094780f, -0.194132f, -0.065573f, 0.048588f, 0.153532f, 0.211340f, 
		0.075786f, -0.157349f, -0.010800f, 0.079413f, -0.242300f, 0.156134f, 0.017879f, 0.217469f, 
		-0.178972f, 0.073530f, 0.245951f, 0.171081f, -0.167459f, 0.069059f, 0.130743f, 0.006348f, 
		0.041148f, -0.211480f, -0.030724f, -0.044103f, 0.159582f, -0.124831f, -0.081465f, -0.154623f, 
		-0.165414f, 0.202760f, -0.173790f, -0.229626f, 0.191607f, 0.025154f, 0.048277f, 0.169089f, 
		-0.098845f, -0.179409f, 0.163967f, -0.047233f, -0.241542f, 0.185178f, 0.024714f, -0.162765f, 
		-0.237706f, 0.081210f, 0.249720f, -0.079998f, 0.229222f, -0.074849f, -0.069977f, 0.148532f, 
		-0.036238f, -0.128388f, -0.188609f, -0.127966f, 0.095103f, 0.071973f, 0.238466f, 0.042550f, 
		0.113879f, 0.111219f, -0.180608f, 0.100902f, -0.182548f, 0.022154f, -0.040754f, -0.094182f, 
		0.095299f, 0.235844f, 0.212436f, -0.232309f, -0.203936f, 0.231977f, 0.178676f, 0.151444f, 
		0.222380f, -0.034791f, 0.091478f, 0.232405f, -0.242990f, -0.144024f, -0.174761f, -0.153547f, 
		0.130704f, 0.004286f, 0.054517f, -0.218075f, 0.045925f, -0.155272f, 0.249014f, -0.069963f, 
		-0.195014f, -0.124318f, -0.048552f, -0.193453f, -0.245032f, 0.175787f, 0.059475f, -0.164126f, 
		-0.233997f, -0.213673f, -0.197809f, 0.156420f, 0.213836f, 0.235491f, -0.225651f, 0.169814f, 
		0.163195f, -0.090446f, 0.094604f, -0.152908f, 0.005264f, 0.038339f, -0.184643f, 0.085256f, 
		-0.051208f, -0.180506f, -0.050789f, -0.107117f, 0.072924f, 0.086404f, -0.100695f, -0.187639f, 
		-0.149879f, -0.116942f, 0.102874f, -0.215819f, 0.123371f, -0.186917f, 0.206081f, -0.194054f, 
		0.004058f, -0.084603f, 0.001233f, 0.006362f, -0.045350f, 0.081754f, 0.069644f, -0.220371f, 
		-0.115474f, 0.032431f, 0.134323f, -0.100237f, -0.097334f, -0.248913f, -0.097721f, -0.158492f, 
		0.176118f, 0.092026f, -0.217479f, 0.132548f, 0.227702f, 0.248492f, -0.214060f, 0.192005f, 
		0.150091f, 0.186997f, -0.004929f, -0.073862f, -0.034847f, -0.128896f, -0.031431f, -0.211257f, 
		-0.110641f, 0.177581f, -0.223257f, -0.112856f, 0.182355f, -0.247151f, -0.068300f, 0.074693f, 
		0.234995f, -0.070861f, 0.068961f, 0.028493f, 0.118896f, 0.171966f, -0.100695f, 0.138360f, 
		-0.052259f, -0.006373f, 0.102395f, 0.244067f, -0.234679f, 0.161769f, 0.052015f, 0.167089f, 
		-0.248554f, -0.158996f, 0.070515f, -0.066280f, -0.053166f, 0.000380f, -0.130892f, -0.005078f, 
		0.179937f, 0.077095f, 0.219077f, -0.063069f, -0.173872f, -0.031679f, -0.193817f, 0.175090f, 
		-0.029157f, -0.116052f, 0.100146f, -0.021228f, -0.048564f, -0.117315f, 0.237698f, -0.004702f, 
		-0.247849f, -0.147704f, -0.134253f, -0.105205f, -0.042983f, -0.054914f, -0.133696f, 0.124977f, 
		-0.081659f, -0.133185f, -0.041910f, -0.163069f, -0.079035f, 0.083397f, 0.017417f, 0.023353f, 
		0.160120f, -0.202100f, 0.241416f, 0.052990f, -0.096591f, 0.064279f, 0.223417f, 0.225715f, 
		0.066332f, -0.094653f, 0.031052f, 0.005141f, 0.102313f, -0.200312f, -0.083826f, -0.029447f, 
		-0.005563f, -0.155029f, -0.099876f, 0.156027f, 0.082166f, 0.080226f, -0.177176f, -0.118801f, 
		0.000285f, -0.166277f, -0.024493f, 0.248560f, 0.094052f, 0.223792f, 0.120638f, 0.147806f, 
		-0.027724f, 0.113487f, 0.038905f, -0.135143f, 0.109979f, 0.191723f, -0.182450f, 0.234568f, 
		0.208204f, -0.232431f, 0.248842f, -0.042450f, -0.059937f, 0.228254f, -0.167318f, 0.162441f, 
		-0.219182f, 0.188472f, -0.231579f, -0.089309f, -0.083194f, 0.025686f, -0.183686f, 0.046211f, 
		-0.132265f, -0.078039f, 0.080704f, -0.130215f, -0.150445f, -0.024086f, -0.004931f, -0.031229f, 
		0.210527f, -0.123675f, 0.168066f, 0.141954f, 0.020942f, 0.092507f, 0.029618f, 0.082173f, 
		-0.067662f, -0.227917f, 0.013929f, -0.189702f, 0.226609f, -0.186208f, 0.040326f, 0.164943f, 
		-0.072830f, -0.175153f, 0.007481f, -0.158246f, 0.100911f, 0.243797f, 0.069830f, -0.160161f, 
		-0.001048f, 0.117051f, -0.183579f, 0.052187f, -0.069756f, -0.183846f, -0.244649f, -0.249990f, 
		0.119281f, 0.149915f, 0.227348f, -0.159751f, 0.056970f, 0.023391f, 0.232778f, -0.063999f, 
		-0.072495f, -0.169522f, 0.024367f, -0.235074f, -0.194037f, 0.077740f, -0.070496f, -0.021734f, 
		-0.249839f, 0.135005f, 0.172017f, 0.249579f, 0.053006f, -0.149520f, 0.133318f, -0.088068f, 
		0.088060f, 0.155744f, -0.181515f, -0.093491f, 0.079912f, -0.044152f, 0.135748f, -0.000404f, 
		-0.145825f, -0.197280f, -0.191199f, 0.243920f, -0.224863f, 0.142399f, 0.246175f, 0.081373f, 
		-0.020876f, -0.237137f, 0.016897f, 0.037465f, -0.030288f, -0.154274f, -0.071357f, -0.054853f, 
		-0.146721f, -0.244772f, 0.146904f, -0.244846f, 0.018019f, -0.121735f, -0.072719f, -0.100470f, 
		-0.098918f, -0.112067f, -0.097236f, 0.160782f, -0.127247f, -0.110426f, -0.126509f, -0.050915f, 
		-0.231585f, 0.005231f, 0.018113f, 0.049152f, 0.236759f, -0.159687f, 0.076779f, -0.095228f, 
		0.245333f, -0.016383f, 0.063695f, -0.069084f, -0.084295f, -0.116798f, -0.014327f, 0.059569f, 
		0.171726f, -0.166624f, -0.029142f, -0.228937f, -0.104175f, -0.240276f, 0.026021f, 0.044601f, 
		0.119196f, 0.094582f, -0.071857f, 0.109589f, 0.229933f, -0.032473f, 0.031595f, 0.064987f, 
		0.187152f, 0.161022f, 0.205031f, 0.222131f, -0.204672f, -0.182279f, 0.098496f, -0.175508f, 
		0.244075f, -0.245261f, -0.137263f, -0.105774f, -0.185552f, 0.003327f, 0.218199f, 0.060220f, 
		0.243319f, -0.123118f, -0.101664f, 0.049021f, -0.142190f, 0.000541f, 0.245504f, -0.046837f, 
		0.174593f, 0.078379f, -0.231945f, 0.028192f, -0.228502f, -0.051155f, -0.150139f, -0.085447f, 
		-0.104493f, 0.135400f, -0.194434f, -0.050162f, 0.237643f, 0.018863f, 0.098603f, 0.219023f, 
		-0.031000f, -0.243209f, -0.103139f, -0.056739f, -0.157425f, 0.175817f, 0.058103f, -0.215127f, 
		0.010851f, 0.228411f, 0.077645f, -0.127987f, -0.010036f, 0.085751f, -0.002671f, -0.119078f, 
		0.069524f, -0.127636f, 0.077916f, -0.148684f, 0.051790f, 0.076968f, -0.203036f, -0.032718f, 
		0.104630f, -0.092792f, -0.030169f, 0.102032f, 0.011072f, 0.211844f, -0.224003f, 0.158755f, 
		0.103160f, 0.212066f, -0.119987f, -0.031169f, 0.142126f, 0.026386f, 0.104753f, 0.202034f, 
		-0.215683f, 0.167058f, -0.072876f, 0.112711f, -0.124060f, 0.213812f, -0.217119f, -0.137236f, 
		0.075050f, -0.241571f, -0.134598f, 0.162240f, -0.008361f, 0.060384f, -0.103873f, 0.092359f, 
		-0.048717f, 0.117794f, 0.051148f, -0.194785f, 0.108741f, 0.068763f, 0.075321f, 0.163544f, 
		-0.086013f, 0.149844f, 0.199264f, 0.053530f, 0.059805f, -0.181192f, 0.246334f, 0.135936f, 
		-0.053570f, 0.245928f, 0.135549f, -0.239178f, 0.048765f, -0.196449f, -0.166483f, 0.211556f, 
		0.006040f, 0.191861f, -0.193729f, 0.114632f, 0.016711f, -0.249318f, -0.016180f, -0.196216f, 
		-0.025840f, 0.212750f, -0.016832f, -0.072023f, 0.060088f, -0.163004f, -0.215208f, -0.140265f, 
		0.080697f, -0.046733f, -0.183367f, -0.191467f, -0.167308f, -0.158827f, 0.004188f, 0.124973f, 
		-0.181990f, 0.075879f, -0.215365f, 0.157426f, 0.025558f, 0.150307f, -0.179255f, -0.165126f, 
		-0.044642f, -0.046449f, -0.065967f, -0.205813f, -0.236808f, -0.233409f, 0.073082f, -0.020548f, 
		-0.058250f, 0.053216f, 0.094115f, 0.050941f, -0.131384f, -0.134648f, -0.010787f, 0.068948f, 
		-0.220134f, 0.232645f, 0.086459f, 0.158315f, 0.072302f, -0.116449f, 0.238679f, -0.011079f, 
		-0.079094f, 0.089502f, 0.176353f, 0.120236f, 0.175303f, -0.225182f, 0.171305f, 0.153658f, 
		-0.184795f, 0.117642f, 0.033359f, 0.139554f, 0.211778f, -0.141407f, 0.166872f, -0.000714f, 
		-0.138288f, -0.180199f, 0.107394f, 0.128320f, 0.235828f, 0.096729f, 0.029518f, -0.173162f, 
		0.071161f, -0.201844f, 0.072542f, -0.160249f, 0.176368f, -0.021339f, 0.074056f, 0.092376f, 
		0.060634f, 0.179449f, -0.048782f, -0.086325f, 0.205543f, -0.200039f, -0.127559f, -0.055945f, 
		0.107487f, -0.097562f, -0.049602f, -0.230504f, -0.171012f, -0.221261f, 0.119008f, 0.135290f, 
		-0.056700f, 0.005733f, -0.054497f, 0.074410f, -0.178537f, 0.013444f, -0.099083f, -0.023186f, 
		0.016709f, -0.151326f, -0.039807f, 0.167889f, -0.133402f, 0.005835f, -0.238147f, 0.144901f, 
		0.093797f, 0.095788f, 0.133033f, -0.181836f, -0.103654f, -0.096911f, -0.211777f, -0.179792f, 
		0.102773f, -0.037439f, -0.063460f, -0.166664f, 0.216501f, -0.207476f, 0.066994f, -0.103973f, 
		0.121832f, 0.139241f, 0.040603f, 0.132368f, 0.247854f, 0.141802f, -0.024862f, 0.170209f, 
		-0.148977f, -0.041799f, 0.110095f, -0.030041f, 0.112030f, 0.173022f, 0.125631f, 0.129597f, 
		-0.108218f, -0.177670f, -0.100023f, -0.227544f, 0.160887f, -0.192663f, 0.020233f, -0.194983f, 
		0.198693f, -0.207324f, -0.170187f, -0.032580f, -0.073859f, 0.142760f, 0.058985f, 0.201763f, 
		-0.220642f, -0.053316f, 0.216456f, 0.183618f, 0.248048f, -0.103172f, -0.034941f, 0.236177f, 
		0.192542f, 0.153843f, 0.215135f, -0.046119f, -0.054540f, 0.175007f, -0.051837f, 0.187113f, 
		-0.080303f, 0.093598f, -0.021564f, -0.053634f, -0.079779f, 0.141834f, 0.144287f, -0.247203f, 
		-0.174526f, -0.224367f, 0.222746f, 0.128515f, 0.235173f, 0.095980f, 0.236008f, -0.126686f, 
		0.060455f, 0.022326f, 0.074651f, -0.190196f, -0.189532f, -0.061499f, 0.068358f, 0.135531f, 
		-0.095359f, 0.211092f, 0.211426f, -0.174351f, -0.240280f, -0.240014f, -0.183947f, 0.204645f, 
		-0.232891f, 0.180876f, 0.215357f, -0.151943f, 0.177467f, 0.045724f, -0.192669f, -0.075288f, 
		-0.091869f, 0.081432f, -0.011630f, -0.238854f, -0.161067f, -0.239437f, 0.184074f, -0.094025f, 
		-0.230576f, -0.159916f, -0.024824f, -0.103788f, -0.110708f, -0.151257f, 0.158669f, -0.096111f, 
		-0.001350f, 0.124515f, 0.223020f, -0.173054f, -0.166370f, 0.063319f, -0.129189f, 0.236341f, 
		0.148974f, -0.021114f, -0.035428f, 0.110430f, 0.021450f, -0.069820f, 0.000368f, -0.068195f, 
		0.011848f, 0.136215f, -0.151377f, -0.160846f, -0.078547f, -0.120432f, -0.122880f, -0.001401f, 
		-0.100145f, 0.072189f, 0.011385f, -0.111865f, -0.214798f, 0.116275f, -0.086250f, -0.117173f, 
		0.181323f, 0.208385f, -0.061413f, -0.030691f, -0.239623f, -0.142733f, 0.235381f, -0.021851f, 
		-0.241888f, 0.167651f, 0.242152f, -0.174784f, 0.170868f, -0.024715f, -0.134692f, -0.175520f, 
		0.104459f, 0.168717f, 0.165162f, -0.089459f, 0.149286f, 0.123252f, -0.203849f, 0.111463f, 
		0.050795f, -0.152744f, 0.217945f, 0.039827f, -0.066992f, 0.206975f, 0.153124f, -0.126369f, 
		-0.118319f, 0.177313f, 0.247893f, -0.069897f, -0.071118f, 0.067027f, 0.069098f, 0.236818f
	};
	// Output Biases (32)
	constexpr inline float B2[32] = {
		0.010000f, 0.010000f, 0.010000f, 0.010000f, 0.010000f, 0.010000f, 0.010000f, 0.010000f, 
		0.010000f, 0.010000f, 0.010000f, 0.010000f, 0.010000f, 0.010000f, 0.010000f, 0.010000f, 
		0.010000f, 0.010000f, 0.010000f, 0.010000f, 0.010000f, 0.010000f, 0.010000f, 0.010000f, 
		0.010000f, 0.010000f, 0.010000f, 0.010000f, 0.010000f, 0.010000f, 0.010000f, 0.010000f
	};
}

#endif
