#ifndef WEIGHTS_H
#define WEIGHTS_H

// Automatically generated weights

namespace weights
{
	// Input -> Hidden (Weights: 64x96)
	static const float W1[6144] = {
		-0.145337f, -0.040794f, 0.049365f, 0.040290f, 0.170575f, 0.184408f, -0.126262f, -0.125199f, 
		-0.008570f, -0.138151f, 0.065645f, -0.149715f, -0.080522f, -0.147962f, 0.124915f, 0.082289f, 
		-0.160700f, 0.145292f, 0.033152f, -0.098172f, 0.109385f, -0.107865f, 0.116879f, -0.144896f, 
		0.074378f, -0.094077f, 0.164492f, -0.130143f, 0.018458f, 0.139604f, -0.066261f, 0.170742f, 
		0.031030f, 0.074637f, 0.134542f, -0.160742f, 0.060054f, -0.068804f, 0.134557f, -0.048378f, 
		0.132609f, -0.069574f, 0.137130f, -0.071498f, -0.124479f, -0.187995f, -0.192029f, 0.042984f, 
		-0.019854f, -0.087244f, 0.095292f, 0.145434f, 0.013122f, -0.042432f, -0.091728f, -0.065731f, 
		0.023674f, -0.183431f, 0.192599f, -0.172871f, 0.092044f, 0.099376f, -0.051269f, -0.172970f, 
		0.090226f, -0.161737f, 0.164486f, -0.162068f, 0.101253f, 0.190589f, 0.014190f, 0.035954f, 
		-0.000486f, -0.017301f, 0.040090f, -0.134975f, -0.171784f, -0.028898f, -0.178647f, 0.046024f, 
		-0.006309f, 0.143207f, 0.119596f, -0.175268f, 0.188442f, 0.126590f, -0.172170f, 0.129569f, 
		0.164713f, -0.142403f, 0.045327f, -0.006864f, -0.187591f, 0.167930f, -0.122910f, -0.037075f, 
		0.152284f, -0.117894f, -0.001568f, -0.144468f, -0.113553f, 0.071020f, -0.011209f, 0.082298f, 
		0.081855f, -0.018384f, -0.126489f, -0.075001f, -0.139774f, 0.056005f, -0.072716f, -0.103476f, 
		0.191304f, 0.088318f, -0.088216f, 0.127039f, 0.182599f, 0.149664f, -0.027553f, 0.184490f, 
		-0.028428f, 0.074501f, -0.187568f, -0.062975f, 0.065458f, -0.126420f, 0.124381f, 0.125084f, 
		0.169072f, -0.001074f, 0.060420f, 0.013640f, -0.133883f, 0.177063f, 0.130099f, -0.187446f, 
		0.080971f, -0.191491f, 0.138768f, -0.155697f, -0.002016f, -0.157399f, -0.100265f, -0.128135f, 
		-0.110803f, 0.156783f, 0.011693f, -0.102307f, -0.170446f, -0.068776f, -0.132311f, 0.001220f, 
		-0.018969f, -0.172941f, -0.114688f, -0.193589f, 0.074047f, 0.181963f, 0.182343f, -0.091486f, 
		-0.027396f, 0.143447f, 0.034203f, -0.074605f, -0.133516f, 0.058953f, -0.174490f, -0.110527f, 
		0.132219f, 0.038339f, 0.123438f, -0.118571f, 0.039977f, 0.154604f, 0.168224f, 0.141708f, 
		-0.025960f, 0.095588f, 0.042795f, 0.186467f, -0.040468f, 0.167385f, 0.141738f, -0.010901f, 
		-0.180021f, 0.189446f, -0.174367f, -0.108446f, 0.127994f, -0.019625f, 0.060917f, 0.181308f, 
		0.085984f, 0.086010f, 0.120672f, -0.049947f, -0.016000f, 0.108300f, 0.070405f, 0.170497f, 
		-0.112988f, -0.084869f, 0.101275f, 0.107502f, 0.115909f, -0.158193f, -0.140227f, -0.153491f, 
		0.158353f, -0.096050f, 0.112241f, -0.046427f, 0.040525f, 0.124336f, 0.020154f, -0.153310f, 
		-0.185352f, -0.024450f, 0.166093f, 0.095618f, 0.086488f, 0.142166f, 0.039466f, 0.048488f, 
		0.099213f, 0.022080f, -0.050686f, -0.081267f, -0.053322f, -0.022431f, -0.128631f, 0.176117f, 
		-0.140812f, -0.027289f, 0.085275f, 0.040542f, 0.183288f, 0.052199f, 0.121491f, 0.154864f, 
		-0.063692f, -0.080317f, -0.166601f, 0.015198f, -0.053068f, 0.088472f, -0.034223f, 0.091864f, 
		0.155246f, 0.127926f, 0.186515f, -0.038794f, 0.107728f, 0.070324f, 0.178340f, 0.135024f, 
		0.023940f, 0.134553f, -0.179458f, -0.149175f, -0.170907f, 0.179434f, -0.113090f, 0.078556f, 
		-0.108835f, -0.056067f, -0.080578f, -0.061282f, -0.192242f, -0.110469f, 0.147036f, 0.127606f, 
		-0.170408f, -0.186633f, 0.103347f, -0.104787f, -0.035768f, 0.030775f, 0.135989f, -0.168712f, 
		-0.191404f, 0.049126f, -0.005811f, 0.097232f, 0.096781f, 0.140134f, -0.051514f, 0.068121f, 
		0.189540f, -0.080583f, 0.141491f, 0.007355f, -0.116204f, 0.170550f, -0.028470f, 0.053367f, 
		-0.130386f, -0.174877f, -0.106447f, -0.105385f, -0.001119f, 0.056489f, 0.029883f, 0.175675f, 
		0.157435f, 0.137462f, -0.030512f, -0.084247f, -0.153289f, -0.006164f, 0.036756f, 0.008018f, 
		-0.145695f, -0.093565f, -0.080311f, -0.113055f, 0.160004f, 0.082160f, 0.098781f, 0.171992f, 
		-0.112776f, 0.174383f, 0.104927f, -0.049422f, 0.082716f, 0.135598f, -0.101390f, 0.158111f, 
		-0.013021f, -0.066428f, 0.179887f, 0.095228f, -0.179211f, -0.054847f, -0.032255f, 0.104293f, 
		0.175052f, -0.093126f, 0.116853f, -0.081916f, 0.177912f, 0.106447f, 0.042718f, 0.140169f, 
		0.163643f, -0.071872f, -0.174395f, 0.161489f, 0.026894f, -0.050647f, -0.153483f, 0.134405f, 
		0.165215f, -0.032180f, 0.000208f, -0.158328f, -0.074958f, 0.049539f, 0.068788f, 0.041441f, 
		-0.065365f, 0.012145f, 0.177352f, 0.161602f, -0.161744f, 0.133504f, -0.022377f, -0.083116f, 
		-0.175212f, -0.188387f, 0.070158f, 0.152483f, 0.134015f, 0.063898f, -0.188906f, -0.001769f, 
		0.061864f, 0.094790f, 0.167685f, -0.075739f, -0.005467f, -0.042199f, 0.146827f, 0.042713f, 
		0.078587f, 0.129260f, 0.144141f, 0.050610f, -0.143639f, 0.142447f, 0.088495f, -0.132210f, 
		0.128468f, 0.104143f, 0.098289f, 0.083133f, 0.192438f, -0.183301f, 0.050799f, 0.074035f, 
		0.026326f, -0.000238f, -0.017436f, 0.179530f, 0.135616f, 0.126811f, -0.121778f, 0.017642f, 
		0.181683f, 0.109367f, -0.070028f, 0.143660f, 0.141662f, 0.187442f, -0.137591f, -0.168600f, 
		0.028378f, -0.147457f, -0.079165f, 0.035837f, -0.015836f, 0.086414f, -0.082123f, -0.111297f, 
		0.008500f, 0.112137f, 0.096577f, 0.069588f, -0.017795f, 0.100573f, 0.053869f, 0.052261f, 
		0.098076f, -0.114781f, -0.097536f, 0.118831f, 0.165832f, -0.112019f, 0.047492f, -0.057047f, 
		0.038464f, 0.031259f, -0.041848f, -0.103979f, -0.003461f, 0.077419f, 0.165958f, -0.098463f, 
		-0.011920f, 0.187915f, 0.073916f, 0.098466f, 0.190265f, 0.113175f, 0.050503f, 0.043133f, 
		-0.165423f, -0.086775f, -0.115925f, -0.065473f, 0.115775f, 0.147941f, 0.168972f, -0.133296f, 
		-0.120710f, -0.105143f, 0.130935f, -0.003371f, 0.137483f, -0.148254f, -0.077874f, 0.116611f, 
		0.110263f, 0.037344f, 0.048570f, 0.091229f, 0.164230f, -0.172407f, -0.074730f, -0.161388f, 
		0.147177f, 0.009507f, 0.033713f, -0.075194f, -0.140048f, 0.175924f, 0.094132f, -0.034484f, 
		0.078634f, 0.073288f, -0.037547f, -0.139349f, -0.147226f, 0.143421f, -0.003863f, -0.030788f, 
		0.123540f, 0.164537f, 0.034377f, -0.054660f, -0.093364f, 0.172810f, -0.087242f, -0.106654f, 
		0.081512f, 0.007013f, 0.148084f, -0.096568f, 0.058366f, -0.054788f, -0.045509f, 0.113521f, 
		0.188720f, -0.002668f, -0.191139f, 0.152331f, 0.130696f, 0.152345f, 0.092076f, -0.097997f, 
		-0.087033f, 0.015388f, -0.029996f, -0.165342f, 0.186457f, 0.007527f, -0.031202f, -0.030753f, 
		-0.104521f, -0.154590f, 0.130260f, -0.175815f, -0.172865f, 0.070494f, -0.039554f, -0.102319f, 
		0.091298f, 0.117454f, 0.076565f, 0.035661f, -0.060898f, 0.046038f, 0.046151f, 0.161592f, 
		-0.134160f, 0.023792f, -0.059285f, -0.189698f, -0.116880f, 0.130720f, 0.191432f, -0.096667f, 
		0.142998f, -0.050246f, 0.030215f, -0.110628f, -0.142470f, -0.173435f, 0.188051f, -0.148888f, 
		-0.135692f, -0.045085f, -0.022608f, 0.129172f, 0.149141f, 0.174550f, -0.083870f, -0.045721f, 
		-0.060219f, 0.073824f, -0.108908f, 0.140465f, -0.188002f, 0.067272f, 0.146828f, -0.005360f, 
		0.112789f, -0.115837f, -0.083163f, 0.084498f, -0.140894f, -0.187934f, 0.094252f, -0.165567f, 
		0.006785f, 0.130608f, 0.029041f, -0.102398f, 0.029852f, -0.071414f, 0.093504f, 0.136106f, 
		0.039940f, -0.154423f, -0.158468f, 0.004967f, 0.147003f, 0.101180f, 0.182132f, -0.168368f, 
		0.061324f, -0.065151f, -0.034688f, 0.154462f, 0.012841f, 0.069613f, -0.127215f, 0.063974f, 
		-0.152034f, 0.141113f, 0.159935f, -0.005891f, -0.082132f, -0.028045f, -0.008875f, -0.091293f, 
		0.061691f, -0.047912f, -0.039489f, -0.002388f, -0.090116f, 0.000452f, 0.016263f, 0.049678f, 
		0.102368f, 0.176498f, -0.177333f, 0.034505f, 0.131311f, -0.113295f, -0.143208f, 0.119983f, 
		-0.068545f, 0.118278f, 0.157562f, -0.074066f, -0.011488f, -0.108447f, 0.184838f, 0.141046f, 
		0.113955f, -0.061197f, -0.168836f, -0.043282f, 0.053964f, 0.039561f, -0.170114f, -0.028435f, 
		0.070967f, -0.177698f, 0.161103f, 0.162887f, 0.017599f, 0.112620f, -0.112139f, -0.174982f, 
		-0.030151f, -0.053140f, 0.114200f, 0.153397f, 0.184034f, 0.127192f, -0.145159f, 0.029077f, 
		-0.075914f, 0.126873f, -0.104659f, 0.073889f, -0.104535f, -0.151311f, -0.127716f, -0.147212f, 
		-0.061103f, 0.068831f, 0.193281f, -0.174092f, -0.083461f, -0.043682f, -0.048309f, -0.183478f, 
		0.157138f, 0.143722f, -0.014638f, 0.026503f, -0.165734f, -0.057199f, -0.048137f, -0.141995f, 
		-0.010305f, 0.145148f, 0.041083f, -0.043441f, -0.173411f, 0.147865f, 0.181933f, -0.066601f, 
		-0.174400f, -0.110425f, 0.164592f, -0.035083f, -0.128701f, 0.145923f, 0.056961f, -0.169425f, 
		0.028395f, 0.055706f, -0.191404f, 0.121708f, 0.034628f, 0.166219f, -0.055577f, 0.168223f, 
		-0.021461f, -0.188624f, -0.180900f, 0.178761f, 0.014990f, 0.077516f, -0.085827f, 0.143794f, 
		0.018820f, 0.105882f, 0.162161f, -0.083348f, -0.052147f, 0.101606f, 0.162675f, 0.000998f, 
		0.006439f, 0.008072f, -0.167789f, 0.098734f, -0.036963f, 0.152525f, 0.000161f, -0.029582f, 
		-0.118785f, -0.044475f, 0.147440f, -0.117412f, -0.140233f, 0.124400f, 0.122774f, -0.009695f, 
		0.147545f, -0.149608f, -0.060837f, 0.081631f, -0.049749f, 0.063004f, -0.050973f, 0.169770f, 
		-0.067585f, 0.131375f, -0.119511f, 0.128085f, 0.155278f, 0.058592f, -0.000447f, -0.182077f, 
		-0.022727f, -0.054022f, -0.029653f, 0.140205f, -0.140986f, -0.106460f, -0.167932f, -0.148214f, 
		-0.105205f, 0.044597f, -0.145778f, 0.102752f, -0.001894f, -0.081257f, 0.061310f, 0.159886f, 
		-0.131048f, -0.010576f, 0.184130f, -0.115129f, 0.047159f, 0.133033f, -0.100809f, -0.166239f, 
		-0.191311f, 0.129756f, -0.018963f, -0.026059f, -0.067338f, 0.114854f, -0.067391f, 0.026619f, 
		0.129986f, -0.179216f, 0.101829f, 0.153350f, -0.077880f, -0.045339f, -0.043470f, -0.182197f, 
		0.169577f, 0.054017f, -0.144090f, -0.079755f, 0.185821f, 0.049350f, -0.059182f, 0.031962f, 
		-0.023041f, -0.113182f, 0.134653f, 0.140106f, 0.003671f, 0.104619f, -0.139815f, 0.080853f, 
		-0.085384f, 0.184846f, 0.111621f, 0.036934f, 0.086788f, -0.002406f, -0.037775f, -0.126820f, 
		0.087008f, 0.078096f, -0.054296f, -0.039645f, -0.184994f, -0.052680f, -0.050544f, -0.036991f, 
		-0.160847f, -0.077227f, 0.105491f, -0.076716f, 0.026812f, 0.087088f, 0.162130f, -0.113503f, 
		-0.011847f, 0.168172f, 0.155898f, 0.088562f, 0.059999f, -0.091883f, 0.138812f, 0.192578f, 
		0.188218f, -0.060112f, -0.094011f, -0.072030f, 0.046791f, -0.080679f, 0.026046f, 0.153895f, 
		0.163667f, 0.141831f, -0.055670f, -0.080843f, -0.051151f, 0.060077f, -0.039930f, -0.120381f, 
		-0.008005f, -0.019082f, -0.058680f, -0.070261f, 0.042928f, -0.075282f, -0.089898f, -0.038650f, 
		0.183938f, 0.115522f, 0.150556f, 0.105588f, 0.030286f, 0.145569f, 0.022399f, -0.081735f, 
		0.177512f, 0.178585f, 0.041813f, -0.175198f, 0.152690f, 0.072386f, -0.157396f, -0.107116f, 
		-0.182783f, -0.076074f, -0.125302f, 0.011379f, 0.103080f, -0.128886f, 0.042175f, -0.023358f, 
		-0.124967f, 0.069623f, -0.069075f, -0.074299f, 0.157567f, -0.020655f, 0.144022f, -0.100766f, 
		0.002951f, 0.126619f, 0.130833f, -0.103816f, -0.045370f, -0.082996f, -0.082048f, 0.056910f, 
		0.187101f, -0.098508f, -0.015891f, -0.136009f, -0.052812f, -0.145098f, -0.116485f, -0.114948f, 
		-0.165425f, -0.000305f, -0.168737f, 0.106844f, 0.025431f, -0.026850f, 0.073871f, -0.158202f, 
		0.098830f, -0.190576f, 0.165925f, 0.117718f, 0.038496f, -0.176507f, -0.135015f, -0.093833f, 
		0.130581f, 0.103004f, 0.014405f, 0.021994f, -0.055495f, 0.058156f, 0.141193f, -0.136815f, 
		-0.084144f, -0.096908f, -0.154749f, 0.088270f, 0.008575f, 0.140463f, -0.114509f, -0.061169f, 
		0.003227f, -0.089201f, 0.026709f, 0.141284f, 0.163913f, -0.029139f, 0.165662f, 0.110256f, 
		0.168520f, -0.064710f, 0.110113f, 0.162381f, -0.157420f, 0.097943f, -0.122739f, 0.022185f, 
		-0.166365f, -0.099740f, 0.018248f, -0.045112f, -0.186742f, -0.186521f, 0.121809f, 0.019747f, 
		0.028444f, -0.088617f, -0.162121f, -0.119294f, -0.071526f, -0.073486f, -0.021817f, 0.010899f, 
		-0.042055f, 0.015514f, -0.050438f, -0.036819f, -0.069361f, -0.088255f, -0.029528f, -0.130634f, 
		-0.059329f, 0.051600f, -0.148486f, -0.107134f, 0.134236f, 0.190977f, -0.112528f, -0.071081f, 
		0.140976f, 0.137086f, 0.144643f, -0.058039f, -0.181822f, 0.135254f, -0.008771f, -0.082060f, 
		-0.114806f, -0.035316f, 0.147545f, -0.041178f, 0.052384f, -0.019237f, 0.009708f, 0.111706f, 
		-0.053971f, 0.144265f, -0.045583f, 0.035446f, -0.082110f, 0.158169f, -0.189726f, 0.078080f, 
		0.142322f, 0.121136f, -0.185220f, 0.147825f, 0.153978f, -0.069555f, -0.106023f, -0.190579f, 
		0.051995f, 0.122507f, -0.148392f, 0.137191f, -0.062629f, 0.061263f, -0.014588f, -0.175857f, 
		-0.052801f, -0.078990f, -0.141511f, 0.159400f, 0.000131f, -0.121883f, -0.064185f, 0.129082f, 
		-0.052910f, 0.183540f, -0.108028f, 0.003575f, -0.123413f, 0.069235f, -0.111298f, -0.039234f, 
		0.148587f, -0.088756f, 0.119023f, -0.072777f, 0.020585f, -0.084408f, -0.113960f, -0.048031f, 
		0.103964f, -0.108647f, -0.178919f, -0.119105f, 0.144929f, -0.087413f, -0.024512f, -0.046700f, 
		0.108805f, 0.083005f, 0.052222f, 0.190318f, -0.122413f, -0.126970f, -0.131579f, 0.171291f, 
		-0.042111f, 0.058274f, -0.025211f, -0.188342f, -0.191869f, 0.040921f, 0.110924f, -0.000566f, 
		0.073164f, 0.118443f, 0.045853f, 0.009816f, 0.023441f, -0.052933f, -0.137733f, 0.059050f, 
		-0.052459f, -0.059687f, 0.115050f, 0.191646f, -0.071076f, -0.181292f, 0.100692f, 0.029656f, 
		0.027418f, 0.018019f, -0.131585f, -0.065463f, 0.041201f, 0.051834f, 0.056749f, 0.190473f, 
		0.114642f, 0.182041f, 0.101253f, 0.157915f, -0.174909f, 0.086316f, 0.046301f, 0.083221f, 
		0.067095f, -0.118734f, 0.021300f, 0.062227f, 0.189167f, 0.078339f, -0.024253f, 0.176780f, 
		0.015288f, 0.060546f, -0.125565f, -0.004521f, -0.025825f, -0.042277f, -0.118761f, -0.058122f, 
		0.138690f, -0.056989f, -0.016734f, 0.153195f, 0.129654f, 0.151330f, 0.114908f, 0.162689f, 
		0.094472f, -0.112727f, -0.082230f, 0.048565f, 0.057853f, 0.005156f, -0.174468f, 0.075032f, 
		-0.085959f, 0.108479f, 0.145301f, -0.166701f, 0.135212f, -0.166607f, 0.114408f, 0.026769f, 
		-0.001255f, -0.159014f, -0.115078f, -0.182620f, -0.038245f, 0.006610f, -0.052393f, 0.037486f, 
		-0.192612f, -0.093909f, 0.040724f, 0.091173f, 0.008224f, 0.127332f, 0.103782f, 0.139548f, 
		-0.033047f, 0.003395f, 0.102999f, -0.036482f, 0.017003f, 0.140083f, -0.058288f, -0.026758f, 
		-0.145554f, -0.015410f, 0.017388f, 0.046220f, -0.034939f, -0.020457f, 0.183551f, 0.008056f, 
		-0.169256f, 0.035787f, -0.066284f, -0.083668f, -0.012064f, -0.004345f, 0.148030f, -0.162370f, 
		-0.156396f, 0.177770f, -0.132963f, 0.019227f, 0.155180f, -0.120434f, 0.076780f, 0.140256f, 
		-0.191966f, -0.123519f, 0.163071f, 0.166779f, -0.161733f, 0.071191f, 0.144554f, -0.178200f, 
		-0.026913f, 0.018974f, 0.019397f, 0.168259f, -0.174189f, -0.150829f, -0.025170f, -0.085864f, 
		-0.073504f, 0.021317f, -0.013371f, -0.181806f, -0.149711f, 0.150999f, 0.124306f, -0.186197f, 
		-0.075921f, -0.077299f, 0.092158f, 0.080484f, -0.164733f, 0.129341f, -0.143922f, -0.088628f, 
		-0.001618f, 0.153144f, 0.148838f, 0.070545f, 0.004671f, -0.073428f, -0.048376f, -0.092081f, 
		0.025033f, -0.019900f, 0.121660f, -0.186403f, -0.118320f, -0.148780f, 0.139910f, -0.133214f, 
		-0.001285f, 0.060668f, -0.154014f, 0.079538f, -0.105851f, -0.168169f, 0.192400f, -0.078472f, 
		-0.047442f, 0.029611f, 0.152926f, -0.016445f, -0.137132f, 0.181872f, -0.074455f, 0.019568f, 
		-0.191198f, 0.028239f, 0.001740f, -0.076628f, -0.025596f, 0.191263f, 0.021417f, -0.177058f, 
		-0.016929f, -0.188828f, 0.068148f, -0.008638f, -0.165894f, -0.038746f, -0.031467f, 0.041743f, 
		-0.066939f, 0.081000f, -0.068856f, 0.112421f, 0.036211f, -0.020247f, 0.142140f, -0.121575f, 
		-0.094259f, 0.044469f, 0.107033f, -0.021338f, 0.046919f, -0.076614f, 0.161010f, -0.021611f, 
		-0.059799f, 0.077223f, 0.000080f, -0.054645f, -0.142887f, -0.047492f, 0.105919f, 0.015820f, 
		0.150704f, 0.111745f, 0.146241f, 0.190016f, -0.044045f, 0.135171f, 0.152956f, 0.025026f, 
		0.052297f, -0.163172f, -0.185597f, -0.183935f, -0.134280f, -0.131862f, -0.006517f, 0.094027f, 
		-0.147436f, 0.114710f, 0.112493f, -0.165917f, 0.109901f, 0.169493f, 0.000152f, -0.002414f, 
		-0.083630f, -0.057686f, 0.144978f, 0.095483f, 0.091187f, -0.088667f, -0.073487f, 0.120650f, 
		-0.075275f, 0.081525f, 0.129639f, 0.132443f, -0.112326f, -0.014853f, 0.153364f, 0.023363f, 
		-0.070084f, 0.138459f, 0.094709f, 0.062940f, 0.003914f, 0.184083f, 0.121423f, 0.153993f, 
		0.162857f, -0.110143f, 0.102142f, -0.034494f, 0.097614f, -0.076655f, -0.019688f, -0.120749f, 
		0.047129f, 0.040878f, 0.016330f, -0.108404f, 0.029778f, -0.174913f, 0.153032f, 0.022111f, 
		-0.009533f, -0.072501f, 0.188671f, -0.150013f, 0.038732f, 0.048679f, -0.097910f, 0.013769f, 
		-0.060995f, 0.071087f, 0.039437f, -0.133358f, 0.148169f, 0.098441f, -0.117983f, 0.056115f, 
		0.007398f, -0.144068f, 0.162529f, -0.063160f, -0.134240f, -0.002858f, 0.179015f, 0.169681f, 
		0.119234f, 0.179128f, 0.055158f, -0.186248f, -0.109386f, -0.065194f, 0.167437f, -0.014876f, 
		-0.057157f, 0.122787f, 0.092882f, -0.088547f, -0.005893f, 0.163478f, -0.126785f, -0.054535f, 
		0.160205f, 0.061157f, 0.100529f, -0.073967f, -0.143861f, -0.110772f, -0.007577f, 0.032180f, 
		0.149911f, 0.059440f, 0.046700f, 0.038197f, 0.158128f, -0.140993f, -0.157952f, -0.075448f, 
		-0.148458f, -0.002083f, 0.064825f, 0.191623f, 0.122499f, 0.044969f, -0.151753f, 0.188715f, 
		-0.054978f, -0.191400f, -0.129288f, 0.185054f, -0.047611f, -0.096065f, -0.120866f, 0.134987f, 
		-0.012137f, 0.152333f, 0.157433f, 0.088512f, -0.159731f, -0.128766f, 0.067110f, 0.051315f, 
		0.175231f, -0.157820f, 0.059184f, 0.102171f, -0.142506f, -0.114396f, -0.133831f, -0.171448f, 
		0.006843f, -0.045282f, -0.083648f, -0.032401f, -0.120669f, -0.098262f, -0.134573f, -0.186443f, 
		-0.169108f, -0.081697f, 0.012873f, 0.066842f, 0.098900f, -0.121772f, -0.079763f, -0.157133f, 
		0.004926f, -0.048854f, 0.091526f, 0.129699f, -0.178988f, -0.117284f, 0.168894f, -0.049489f, 
		0.153182f, 0.147048f, -0.086847f, 0.069539f, 0.072631f, -0.126789f, 0.164784f, -0.067034f, 
		-0.084824f, 0.051567f, 0.137345f, 0.111154f, -0.161218f, -0.008841f, -0.163646f, 0.081187f, 
		0.084852f, -0.181635f, -0.151132f, 0.072006f, -0.147251f, 0.113889f, -0.034216f, 0.066587f, 
		0.085555f, -0.143227f, 0.126702f, -0.182487f, -0.016782f, -0.156053f, -0.089328f, 0.122602f, 
		-0.044878f, 0.081385f, -0.102531f, -0.190626f, -0.055390f, 0.008877f, 0.089625f, -0.121046f, 
		-0.038435f, 0.171864f, -0.149636f, -0.170487f, 0.034799f, -0.070735f, -0.096155f, -0.160704f, 
		0.150557f, -0.019211f, 0.165886f, -0.104536f, 0.060728f, -0.050325f, 0.006343f, -0.069686f, 
		-0.166048f, -0.060434f, 0.159095f, -0.034797f, 0.003031f, 0.140031f, -0.038407f, -0.067383f, 
		0.032362f, 0.096423f, -0.026067f, 0.032399f, -0.042624f, -0.090884f, -0.169310f, 0.130670f, 
		-0.045100f, 0.164405f, 0.126602f, 0.105032f, -0.110952f, 0.187888f, -0.073658f, 0.135396f, 
		0.133917f, -0.051685f, -0.090727f, 0.193001f, -0.172524f, -0.016438f, 0.018557f, 0.167375f, 
		0.101694f, -0.129802f, 0.183279f, 0.169414f, -0.148756f, 0.022925f, 0.014759f, -0.045873f, 
		0.176044f, 0.055635f, -0.062672f, -0.026885f, -0.117244f, 0.026269f, -0.177992f, 0.000901f, 
		-0.067467f, -0.032067f, 0.166489f, 0.009271f, -0.094372f, -0.170931f, -0.119481f, 0.075442f, 
		0.068798f, 0.058493f, 0.102728f, -0.027915f, -0.014280f, -0.104431f, -0.030440f, -0.035373f, 
		0.106176f, -0.148800f, -0.076472f, 0.039015f, -0.169032f, -0.084773f, -0.173858f, 0.102084f, 
		0.146540f, 0.051710f, -0.175927f, 0.121016f, 0.052324f, -0.193523f, 0.020415f, -0.135369f, 
		-0.093072f, -0.027756f, 0.154254f, -0.109406f, -0.018863f, 0.115537f, -0.024764f, -0.135479f, 
		0.149384f, 0.159862f, 0.001872f, -0.091739f, -0.119461f, -0.086176f, -0.191075f, 0.060641f, 
		-0.067756f, 0.055189f, 0.077241f, -0.157445f, 0.056387f, 0.188007f, -0.054104f, 0.131420f, 
		0.174483f, 0.004660f, -0.171219f, 0.157578f, -0.159909f, 0.151496f, 0.007412f, -0.121836f, 
		-0.133524f, 0.171736f, 0.186833f, 0.006723f, -0.129490f, -0.071491f, -0.147182f, 0.024402f, 
		-0.053786f, -0.093589f, -0.036648f, -0.039979f, 0.006734f, 0.055644f, 0.006165f, 0.028775f, 
		-0.093118f, 0.142349f, -0.139827f, 0.007985f, -0.124132f, 0.041981f, -0.090921f, -0.148832f, 
		-0.051257f, 0.103495f, -0.093654f, 0.024586f, 0.018321f, 0.148242f, 0.145999f, -0.178156f, 
		0.077772f, 0.183455f, -0.120631f, 0.051530f, -0.081361f, 0.031203f, -0.012685f, 0.124943f, 
		-0.144383f, 0.115305f, -0.035779f, -0.026308f, -0.147417f, 0.057022f, 0.098013f, -0.073394f, 
		-0.020621f, -0.168178f, 0.190782f, -0.009045f, 0.081536f, 0.102353f, -0.013195f, 0.193286f, 
		-0.110977f, 0.080087f, 0.108876f, -0.149684f, -0.048520f, 0.167041f, -0.150171f, 0.155831f, 
		0.112313f, -0.097486f, 0.157564f, -0.150292f, -0.007878f, 0.006441f, 0.125003f, -0.047093f, 
		-0.139878f, 0.160134f, -0.101544f, -0.189614f, -0.089018f, 0.070686f, 0.021337f, -0.134756f, 
		-0.090474f, -0.185484f, -0.086152f, 0.002213f, 0.115048f, 0.115183f, 0.190732f, 0.078972f, 
		0.185200f, 0.141998f, -0.135629f, -0.075751f, -0.075021f, 0.066744f, 0.106570f, 0.167214f, 
		-0.034763f, -0.081168f, -0.013327f, 0.172771f, 0.114222f, -0.170359f, -0.062238f, -0.038337f, 
		-0.050270f, -0.046383f, -0.120453f, 0.131600f, 0.192971f, -0.089035f, -0.136979f, -0.066302f, 
		-0.081844f, 0.022459f, -0.038800f, 0.064914f, 0.098270f, -0.093963f, -0.110730f, -0.137142f, 
		-0.176682f, 0.075944f, 0.184972f, 0.124679f, 0.107745f, -0.147804f, 0.123512f, -0.181740f, 
		-0.149894f, -0.118003f, 0.105469f, -0.156062f, -0.006580f, -0.060266f, -0.103166f, -0.054878f, 
		0.185072f, -0.022713f, 0.033297f, -0.114744f, -0.077019f, 0.073851f, 0.034464f, -0.027120f, 
		-0.170894f, 0.145641f, 0.024558f, 0.132025f, -0.192506f, 0.023641f, 0.098940f, 0.148829f, 
		0.048985f, -0.018650f, -0.036128f, -0.078123f, -0.014456f, -0.117115f, 0.155495f, -0.109301f, 
		-0.045545f, 0.158232f, -0.175148f, -0.016790f, -0.125072f, 0.125060f, 0.123975f, 0.074519f, 
		-0.136356f, -0.154337f, 0.121260f, -0.004135f, 0.142248f, 0.033922f, 0.003501f, 0.033503f, 
		0.144172f, 0.172962f, 0.149187f, 0.070307f, -0.164123f, 0.089057f, 0.066776f, 0.158081f, 
		-0.172235f, -0.166195f, -0.089537f, -0.116747f, -0.183988f, -0.106943f, 0.109931f, 0.062186f, 
		-0.091812f, 0.068660f, 0.059643f, 0.113742f, 0.103649f, 0.103504f, -0.161580f, -0.132376f, 
		0.069933f, -0.150573f, -0.047872f, -0.115030f, -0.093484f, -0.035892f, 0.063722f, -0.066734f, 
		0.015403f, 0.008066f, -0.096429f, -0.043827f, 0.067211f, -0.026004f, -0.178128f, -0.143326f, 
		-0.187505f, -0.108509f, 0.118381f, 0.084045f, -0.157737f, 0.090951f, 0.124346f, 0.026662f, 
		0.122839f, -0.144375f, 0.044429f, -0.157415f, 0.080695f, -0.154975f, -0.059167f, 0.116411f, 
		-0.059891f, -0.012010f, 0.162070f, 0.079151f, 0.152390f, 0.114141f, -0.047054f, 0.021739f, 
		-0.080078f, 0.148481f, 0.190125f, 0.109712f, -0.052160f, -0.033970f, 0.086298f, -0.075818f, 
		-0.175317f, -0.010155f, 0.028584f, -0.092047f, -0.182056f, -0.076643f, 0.059907f, -0.170228f, 
		-0.051659f, -0.075680f, 0.096474f, 0.143489f, 0.193097f, 0.177429f, -0.026224f, 0.049230f, 
		0.146573f, 0.017037f, 0.111504f, -0.142474f, -0.082764f, 0.187696f, -0.038797f, 0.090839f, 
		-0.167612f, -0.179183f, 0.068412f, -0.040196f, -0.036456f, -0.156036f, -0.064739f, 0.076966f, 
		0.183534f, 0.161344f, 0.101776f, -0.074216f, 0.029531f, -0.126770f, 0.191509f, -0.191426f, 
		-0.105572f, -0.027638f, -0.173026f, -0.193225f, -0.102198f, 0.099149f, -0.166591f, -0.008789f, 
		-0.070682f, -0.088401f, 0.061157f, -0.047502f, -0.125611f, 0.056511f, -0.090189f, -0.176485f, 
		-0.000538f, 0.132554f, -0.151707f, 0.126801f, 0.029233f, -0.104697f, -0.047388f, -0.049622f, 
		-0.137243f, -0.033110f, 0.041064f, 0.093498f, 0.079033f, -0.004820f, -0.019433f, -0.186594f, 
		-0.112536f, -0.005997f, -0.076705f, -0.049255f, 0.027757f, 0.039381f, 0.021198f, -0.096236f, 
		-0.153813f, -0.158876f, 0.064072f, -0.159727f, 0.043491f, -0.150377f, -0.084373f, -0.066533f, 
		-0.157837f, -0.113330f, 0.100081f, 0.043330f, -0.014891f, -0.120875f, -0.043306f, 0.093871f, 
		-0.084233f, -0.127203f, 0.182958f, 0.023768f, -0.000114f, -0.171299f, 0.017003f, 0.037079f, 
		0.008891f, -0.164888f, 0.176271f, 0.006338f, 0.039336f, 0.186607f, 0.189111f, -0.040079f, 
		0.097892f, -0.039693f, 0.070657f, 0.145310f, -0.007997f, 0.060686f, 0.138462f, 0.143205f, 
		-0.059129f, -0.065086f, 0.179697f, 0.000223f, 0.133130f, 0.018870f, 0.002763f, 0.124565f, 
		0.053964f, 0.039548f, 0.192062f, -0.145727f, 0.119326f, -0.171198f, 0.107490f, 0.088017f, 
		0.024398f, -0.002335f, -0.053084f, 0.158535f, -0.085403f, 0.050905f, -0.089806f, 0.003709f, 
		0.021156f, -0.078007f, -0.069479f, -0.073680f, 0.153215f, -0.029080f, -0.153330f, 0.105570f, 
		-0.024110f, 0.122886f, -0.091735f, 0.157176f, -0.067576f, -0.027344f, -0.164198f, 0.154255f, 
		-0.167835f, 0.181974f, -0.137735f, 0.101672f, 0.107691f, -0.061933f, -0.010500f, -0.152298f, 
		0.190578f, -0.151937f, -0.146943f, -0.182609f, 0.122409f, 0.145845f, -0.137114f, -0.073796f, 
		-0.063316f, 0.048602f, -0.022027f, 0.192336f, -0.024795f, -0.174592f, -0.040786f, 0.142030f, 
		-0.003228f, 0.068236f, 0.059038f, -0.007111f, -0.172480f, 0.188229f, 0.047850f, -0.078817f, 
		0.100458f, 0.121715f, -0.126336f, -0.085692f, -0.020452f, 0.068152f, 0.183728f, -0.083332f, 
		0.140341f, -0.073733f, 0.143385f, 0.035232f, 0.158576f, -0.005394f, -0.129706f, -0.150060f, 
		-0.180148f, 0.039528f, 0.084792f, 0.008068f, -0.141733f, -0.123543f, -0.082228f, -0.182726f, 
		0.174680f, 0.029597f, 0.018528f, 0.153365f, 0.111244f, -0.161013f, -0.174910f, -0.192723f, 
		-0.021113f, 0.178246f, -0.153733f, 0.059183f, 0.180094f, -0.102238f, -0.190077f, -0.126180f, 
		0.017077f, -0.125363f, -0.021813f, 0.077226f, -0.168558f, -0.110185f, -0.114397f, -0.036503f, 
		0.166830f, 0.105058f, -0.048551f, -0.156146f, -0.159615f, -0.190472f, -0.047196f, 0.134647f, 
		-0.122854f, 0.021684f, 0.004527f, -0.068365f, 0.015030f, 0.068259f, -0.006046f, 0.181439f, 
		0.082160f, 0.044402f, -0.005891f, -0.043902f, -0.162205f, 0.184326f, 0.038419f, 0.046468f, 
		0.110121f, 0.134467f, 0.073270f, -0.042263f, -0.043645f, 0.070771f, 0.092787f, -0.112110f, 
		0.119227f, 0.126000f, -0.054196f, -0.017532f, 0.147031f, -0.150472f, 0.088063f, 0.000761f, 
		-0.176400f, -0.113800f, 0.042715f, 0.057245f, -0.034243f, 0.019622f, 0.018734f, 0.160961f, 
		-0.070913f, -0.108688f, -0.020944f, -0.146795f, -0.038774f, -0.147582f, 0.071391f, 0.065178f, 
		-0.001818f, -0.115196f, 0.039793f, 0.126282f, 0.086640f, -0.078685f, 0.149959f, 0.027722f, 
		0.057453f, 0.104170f, -0.189056f, 0.016647f, 0.103646f, 0.140579f, -0.173758f, -0.097430f, 
		-0.161665f, -0.056423f, -0.150000f, 0.177323f, -0.073685f, 0.185856f, -0.143884f, -0.007112f, 
		0.138768f, -0.105986f, 0.158910f, 0.084701f, -0.154161f, -0.029603f, -0.149859f, 0.130948f, 
		-0.032432f, -0.134253f, 0.184449f, 0.137745f, -0.127330f, -0.116055f, 0.193170f, -0.041312f, 
		-0.075173f, 0.184588f, -0.127905f, 0.107072f, 0.128596f, -0.138197f, -0.193517f, -0.184472f, 
		0.124191f, -0.091376f, 0.186322f, 0.036887f, 0.140936f, -0.052513f, 0.068956f, -0.140543f, 
		0.069373f, 0.171878f, -0.100822f, -0.048365f, -0.052872f, 0.172708f, -0.016888f, 0.171868f, 
		0.111818f, -0.023849f, -0.018135f, -0.039218f, 0.004405f, 0.116904f, -0.083038f, -0.155908f, 
		-0.140917f, -0.049976f, -0.164065f, 0.015335f, -0.025069f, -0.096256f, 0.058192f, -0.038894f, 
		-0.067506f, -0.182836f, -0.011504f, 0.099412f, 0.052543f, 0.130174f, -0.084812f, 0.008677f, 
		-0.102078f, -0.058655f, -0.124447f, 0.001143f, 0.027460f, -0.158210f, -0.112056f, 0.086583f, 
		0.088482f, -0.089491f, 0.123042f, 0.184817f, -0.152588f, -0.053224f, -0.155718f, 0.077170f, 
		-0.037579f, 0.092725f, 0.074986f, -0.167679f, -0.088966f, -0.033366f, -0.171598f, 0.048338f, 
		0.001470f, 0.089645f, 0.051835f, -0.100923f, 0.177690f, -0.041044f, 0.051868f, 0.110685f, 
		0.008362f, 0.116588f, -0.065038f, 0.006419f, -0.144631f, 0.035113f, 0.113740f, -0.094535f, 
		-0.011522f, -0.048078f, 0.137191f, 0.124032f, -0.101099f, 0.062381f, 0.047690f, 0.080735f, 
		-0.187129f, 0.173915f, 0.134117f, -0.072213f, 0.123540f, -0.002429f, -0.046504f, -0.165872f, 
		0.161795f, 0.065355f, -0.009592f, -0.037660f, -0.033022f, 0.028483f, 0.096626f, 0.138541f, 
		-0.085291f, -0.095416f, -0.053824f, 0.177228f, 0.144476f, -0.140664f, -0.179726f, 0.190605f, 
		0.104550f, -0.029651f, 0.072913f, -0.123436f, -0.002383f, 0.063772f, -0.078287f, -0.178891f, 
		-0.074715f, 0.048925f, -0.107530f, 0.043123f, 0.079433f, 0.150762f, 0.183363f, 0.014789f, 
		-0.149756f, 0.074790f, -0.120563f, -0.151932f, -0.158140f, -0.045868f, -0.042290f, 0.158023f, 
		0.136393f, -0.098512f, 0.151885f, -0.156425f, -0.024229f, 0.017232f, 0.104835f, 0.154420f, 
		0.168982f, -0.017833f, -0.072155f, 0.005058f, -0.031352f, -0.014430f, -0.139488f, 0.011493f, 
		0.050782f, -0.080884f, -0.144671f, 0.139450f, 0.178390f, -0.032785f, -0.028591f, -0.032460f, 
		-0.115677f, 0.160819f, -0.140851f, -0.152604f, -0.023565f, 0.012250f, -0.190720f, -0.120665f, 
		0.132116f, 0.002718f, -0.068559f, 0.190370f, 0.134879f, -0.187610f, 0.135837f, 0.002359f, 
		-0.128323f, -0.037508f, 0.002488f, -0.162288f, 0.136920f, -0.153114f, 0.117678f, -0.061087f, 
		-0.143740f, 0.024778f, 0.170172f, -0.095833f, 0.137799f, 0.096332f, 0.166507f, -0.140398f, 
		0.023896f, -0.097364f, -0.153167f, 0.181704f, -0.042345f, -0.089552f, 0.012327f, 0.049193f, 
		-0.125603f, 0.083533f, -0.043574f, -0.000432f, -0.118140f, 0.107934f, 0.059974f, 0.054418f, 
		-0.146831f, 0.060449f, -0.129254f, -0.180556f, 0.177341f, 0.182394f, 0.011337f, -0.138159f, 
		-0.100116f, -0.074641f, -0.026905f, 0.047694f, -0.110904f, -0.137589f, -0.034575f, 0.172268f, 
		-0.165470f, 0.019796f, -0.126196f, 0.016027f, -0.134474f, -0.112144f, 0.098736f, -0.081388f, 
		0.133486f, -0.096386f, -0.057294f, 0.026855f, -0.170807f, 0.033926f, -0.136799f, 0.118129f, 
		-0.103411f, -0.125256f, 0.118636f, -0.116398f, 0.074258f, 0.006126f, 0.103535f, 0.153828f, 
		-0.057201f, -0.131190f, -0.037585f, 0.171739f, -0.066755f, -0.161068f, 0.142142f, 0.078299f, 
		-0.014261f, 0.000032f, 0.047519f, -0.125378f, 0.096018f, 0.127227f, 0.106785f, 0.044850f, 
		-0.074328f, -0.077672f, 0.145687f, 0.143177f, 0.184584f, 0.045836f, -0.091899f, 0.128577f, 
		0.157899f, -0.032363f, 0.109145f, 0.193130f, 0.029231f, -0.083314f, -0.088832f, 0.182177f, 
		-0.164414f, -0.030995f, -0.067667f, -0.075887f, -0.023961f, -0.071918f, 0.174496f, -0.193078f, 
		0.043879f, 0.167675f, 0.127902f, 0.028270f, 0.015786f, 0.138006f, -0.105995f, -0.049239f, 
		-0.050223f, -0.033410f, 0.149828f, -0.138535f, 0.016885f, 0.173682f, -0.091067f, -0.062128f, 
		0.067916f, 0.056695f, -0.038544f, 0.136227f, -0.103397f, 0.156693f, -0.143267f, -0.087711f, 
		-0.143155f, -0.116000f, 0.059841f, 0.110006f, -0.176757f, -0.052496f, 0.015198f, -0.039537f, 
		-0.169825f, 0.120911f, -0.043547f, 0.088998f, -0.050247f, -0.148058f, -0.018449f, 0.091847f, 
		-0.013202f, -0.116888f, 0.002467f, 0.092512f, 0.160208f, -0.111915f, 0.162602f, -0.145218f, 
		0.077827f, 0.137624f, -0.117204f, -0.188062f, -0.155014f, -0.026965f, 0.142581f, 0.174534f, 
		-0.058706f, 0.118109f, -0.085596f, 0.119202f, -0.134956f, -0.157709f, 0.116129f, -0.110981f, 
		-0.018461f, -0.184589f, -0.039748f, -0.104183f, 0.140846f, -0.133683f, -0.174400f, -0.005974f, 
		0.064244f, -0.191439f, 0.142009f, -0.109464f, -0.019632f, -0.092198f, -0.025838f, 0.119312f, 
		0.018778f, 0.062866f, 0.025185f, -0.066344f, -0.030585f, 0.029514f, -0.029355f, 0.135215f, 
		-0.024168f, -0.182481f, -0.169504f, 0.147333f, -0.154888f, 0.007272f, 0.097814f, 0.141063f, 
		-0.117804f, 0.132413f, -0.114781f, 0.020924f, 0.021915f, -0.111734f, -0.171426f, -0.146307f, 
		-0.180202f, -0.011444f, 0.156374f, -0.007546f, 0.172961f, -0.158057f, 0.144346f, 0.046216f, 
		-0.155640f, -0.147782f, 0.148296f, 0.082968f, -0.077472f, 0.053197f, 0.054881f, 0.189600f, 
		0.090645f, 0.189234f, -0.094310f, -0.074138f, -0.179019f, -0.099537f, -0.113566f, 0.176253f, 
		0.193271f, -0.015538f, 0.155602f, -0.136715f, -0.120907f, -0.064792f, 0.029051f, 0.069325f, 
		0.033282f, -0.172571f, -0.172040f, -0.150454f, 0.017900f, -0.172616f, 0.083024f, -0.119732f, 
		-0.087101f, 0.144760f, -0.075713f, -0.164241f, -0.134175f, -0.092392f, -0.146549f, -0.101962f, 
		-0.120621f, -0.139873f, -0.157158f, 0.002756f, -0.064437f, 0.018466f, 0.009405f, 0.157571f, 
		0.037932f, 0.163829f, -0.156961f, -0.048828f, 0.147918f, -0.147132f, 0.080787f, -0.109069f, 
		-0.010278f, 0.011350f, -0.072248f, -0.004520f, -0.083536f, 0.052433f, -0.086916f, -0.116209f, 
		-0.087950f, 0.087467f, -0.012012f, -0.074448f, 0.041103f, -0.073848f, 0.008426f, -0.125987f, 
		0.074960f, 0.018989f, 0.084489f, -0.060505f, -0.115637f, 0.181333f, 0.140120f, -0.112438f, 
		-0.146127f, -0.146884f, 0.004354f, 0.153381f, 0.016060f, 0.134188f, -0.049660f, 0.092322f, 
		-0.116804f, -0.093892f, -0.145572f, 0.190819f, -0.002356f, -0.042322f, 0.164430f, -0.143577f, 
		-0.075095f, -0.013603f, -0.170269f, -0.090850f, -0.034625f, -0.005086f, 0.131457f, -0.086254f, 
		-0.115909f, 0.110118f, -0.010608f, -0.132577f, -0.033000f, 0.193422f, 0.086797f, -0.163150f, 
		0.017598f, 0.127069f, -0.053362f, -0.112844f, 0.022878f, 0.122811f, 0.064733f, 0.001427f, 
		0.123854f, 0.098557f, -0.151399f, 0.044214f, -0.039854f, 0.033015f, -0.162264f, -0.189681f, 
		-0.045083f, 0.110164f, 0.001266f, 0.030649f, -0.066745f, 0.153908f, -0.145979f, 0.130834f, 
		0.128934f, 0.024653f, -0.083079f, 0.075099f, -0.007035f, 0.088382f, 0.028892f, -0.065017f, 
		-0.124175f, -0.020139f, -0.114129f, 0.096201f, 0.074575f, 0.051091f, 0.057569f, -0.040325f, 
		-0.178584f, 0.069470f, 0.071905f, 0.042334f, 0.039382f, 0.048458f, -0.012765f, 0.037889f, 
		-0.108348f, -0.168209f, -0.051950f, -0.098149f, 0.002453f, 0.078953f, -0.186381f, 0.017663f, 
		0.180304f, 0.114957f, 0.075001f, 0.179598f, 0.099760f, -0.143354f, -0.162017f, -0.015679f, 
		-0.166939f, 0.011513f, 0.128499f, 0.128407f, 0.102995f, -0.139431f, 0.061521f, 0.042126f, 
		-0.104700f, 0.095476f, -0.073332f, -0.070454f, 0.181655f, -0.160983f, 0.162741f, -0.084271f, 
		-0.096374f, 0.033231f, 0.053729f, 0.016220f, -0.085103f, 0.182647f, 0.143076f, 0.145847f, 
		0.093669f, 0.013763f, -0.076051f, -0.116527f, -0.140294f, -0.152546f, 0.156653f, -0.097985f, 
		0.086665f, -0.067267f, 0.021715f, -0.188983f, -0.030571f, -0.035500f, -0.132480f, 0.037277f, 
		-0.038344f, 0.099922f, -0.151977f, 0.088358f, -0.150808f, 0.024469f, 0.126817f, 0.103850f, 
		0.177502f, -0.010044f, 0.129761f, -0.069928f, 0.045781f, -0.074719f, 0.138658f, -0.161766f, 
		0.145800f, -0.131520f, 0.188231f, -0.128707f, 0.174834f, -0.170895f, -0.016299f, -0.118093f, 
		-0.002298f, -0.176702f, -0.079729f, -0.169445f, -0.117308f, 0.022418f, -0.029634f, 0.008643f, 
		-0.092412f, -0.134281f, 0.038059f, -0.136664f, 0.068013f, 0.047592f, 0.072057f, -0.093445f, 
		0.158391f, -0.175429f, -0.114197f, -0.008841f, -0.029043f, -0.085927f, -0.107847f, -0.153252f, 
		0.006342f, -0.128386f, 0.063846f, -0.073908f, -0.140020f, -0.177812f, -0.011504f, 0.044015f, 
		0.105181f, -0.156350f, -0.096379f, 0.101262f, 0.164767f, -0.154023f, -0.006451f, -0.184915f, 
		0.085012f, 0.090772f, -0.074188f, -0.049906f, -0.181717f, 0.128257f, 0.093650f, 0.147506f, 
		-0.131782f, -0.010723f, 0.001989f, -0.131468f, -0.049298f, 0.023285f, 0.075992f, -0.145008f, 
		0.012447f, 0.048661f, -0.011330f, -0.125419f, -0.010071f, 0.079288f, -0.107273f, -0.139023f, 
		0.067869f, 0.113520f, -0.008014f, -0.170348f, -0.055150f, 0.191302f, -0.149791f, -0.162062f, 
		0.065775f, -0.122237f, 0.148576f, -0.097572f, -0.145724f, -0.071872f, -0.109230f, 0.131097f, 
		0.138038f, -0.144634f, -0.010743f, 0.165847f, 0.164613f, 0.049770f, 0.161454f, -0.145394f, 
		0.094288f, 0.149457f, 0.159068f, 0.114483f, -0.075617f, -0.094264f, 0.176147f, -0.117617f, 
		0.161939f, 0.004090f, -0.061896f, -0.168039f, 0.134224f, 0.029535f, 0.003608f, 0.046705f, 
		-0.056599f, -0.162103f, -0.110129f, -0.049539f, 0.049673f, 0.153280f, -0.033437f, 0.185743f, 
		0.038199f, -0.035774f, -0.002126f, 0.119377f, 0.037202f, -0.083980f, -0.071285f, 0.032675f, 
		-0.187799f, -0.186191f, -0.130870f, -0.160838f, 0.192990f, -0.148350f, 0.119794f, -0.088845f, 
		-0.058967f, 0.075004f, -0.165019f, 0.106469f, -0.136193f, 0.094686f, 0.096213f, 0.101486f, 
		-0.030008f, 0.127814f, 0.048598f, -0.156511f, 0.060770f, 0.122138f, -0.155761f, 0.056663f, 
		0.108129f, -0.039824f, -0.090069f, 0.186708f, -0.000907f, 0.182367f, 0.084199f, -0.045294f, 
		-0.075651f, 0.081246f, -0.087828f, -0.013383f, 0.085685f, -0.109164f, 0.039598f, 0.034570f, 
		-0.138770f, -0.171720f, 0.051053f, -0.162736f, 0.007038f, 0.013871f, -0.039941f, 0.104403f, 
		-0.167399f, 0.091856f, -0.110277f, 0.181639f, 0.133328f, -0.130103f, -0.124784f, -0.058026f, 
		-0.180743f, -0.021972f, -0.169826f, -0.049142f, 0.028728f, -0.056944f, -0.100686f, 0.088773f, 
		-0.052602f, 0.012035f, 0.096998f, 0.175481f, -0.133090f, 0.023510f, 0.004003f, -0.130642f, 
		0.109067f, 0.111867f, 0.043558f, 0.053536f, -0.170259f, -0.067678f, 0.036114f, -0.063775f, 
		0.046314f, 0.059364f, 0.058932f, -0.067427f, -0.101825f, -0.141128f, 0.141562f, 0.051516f, 
		0.175821f, -0.114984f, 0.051629f, -0.008940f, 0.008987f, -0.038974f, -0.037590f, 0.096562f, 
		-0.174826f, 0.180214f, -0.184068f, -0.127625f, -0.096170f, 0.190914f, 0.113020f, 0.185695f, 
		-0.016855f, 0.144265f, 0.026927f, -0.073094f, -0.110079f, -0.008885f, 0.000475f, 0.133268f, 
		-0.141469f, 0.085959f, 0.005965f, -0.109031f, 0.147669f, -0.010515f, -0.071695f, 0.131920f, 
		0.151019f, 0.024280f, 0.158898f, 0.057348f, 0.190277f, 0.145332f, 0.001934f, -0.046726f, 
		0.065639f, 0.001425f, 0.155049f, -0.086460f, 0.143206f, 0.010528f, 0.161873f, -0.049742f, 
		0.024542f, -0.052958f, 0.057252f, 0.003308f, 0.041273f, 0.022264f, 0.072922f, -0.163150f, 
		-0.179066f, 0.005439f, 0.014491f, -0.077862f, -0.038705f, 0.180250f, -0.070994f, 0.162847f, 
		-0.153595f, 0.102858f, -0.090018f, -0.111695f, 0.104627f, -0.031595f, -0.181822f, 0.086585f, 
		-0.072588f, -0.161632f, -0.162644f, 0.156054f, -0.124215f, 0.162492f, -0.149290f, 0.157443f, 
		-0.082450f, 0.162863f, -0.093406f, -0.075302f, -0.045348f, 0.176975f, -0.178820f, 0.088093f, 
		0.059110f, -0.022274f, -0.184147f, -0.145048f, 0.182285f, 0.050984f, -0.159640f, -0.099080f, 
		-0.074097f, -0.170111f, -0.022415f, 0.176040f, -0.122325f, 0.014258f, -0.108994f, -0.016658f, 
		-0.183488f, 0.193025f, 0.098648f, 0.093455f, 0.161140f, 0.108711f, 0.009604f, 0.000394f, 
		0.029675f, 0.093458f, 0.149931f, -0.117372f, 0.118267f, -0.089135f, 0.184475f, 0.025672f, 
		0.088771f, -0.188508f, -0.090480f, -0.029789f, 0.134961f, -0.170731f, -0.049645f, 0.082567f, 
		0.117351f, -0.073809f, 0.022937f, -0.068865f, 0.098245f, -0.076885f, -0.060920f, -0.050986f, 
		0.033912f, 0.130247f, -0.150535f, 0.159682f, 0.052069f, -0.015191f, 0.126509f, -0.115255f, 
		0.125715f, 0.162448f, -0.007339f, -0.170832f, -0.087711f, 0.143923f, 0.151559f, -0.083302f, 
		0.145562f, -0.042559f, -0.091826f, 0.001227f, 0.074723f, 0.072823f, 0.006933f, -0.108448f, 
		0.091181f, 0.150479f, 0.028706f, 0.062791f, 0.107725f, 0.123207f, 0.191855f, -0.028892f, 
		-0.186627f, 0.085849f, 0.017535f, 0.021992f, 0.192460f, -0.190778f, 0.116120f, 0.028609f, 
		-0.110529f, 0.140220f, -0.147610f, 0.078128f, -0.105095f, -0.141400f, 0.011994f, -0.014513f, 
		0.188622f, 0.110283f, -0.145869f, -0.139700f, -0.084825f, 0.141096f, 0.018789f, -0.011558f, 
		-0.130701f, 0.057171f, 0.007300f, 0.171862f, 0.185095f, 0.179984f, 0.126349f, -0.164761f, 
		0.029546f, -0.189924f, -0.107834f, -0.097142f, 0.127050f, -0.097202f, 0.164741f, -0.052453f, 
		0.156255f, 0.097223f, -0.180631f, -0.095021f, 0.150058f, 0.118824f, 0.023258f, -0.079572f, 
		0.044911f, 0.133352f, -0.100269f, 0.156396f, -0.166084f, -0.119021f, -0.154367f, 0.035731f, 
		-0.065709f, -0.083360f, -0.051319f, -0.048770f, -0.111525f, 0.116394f, -0.086751f, 0.066337f, 
		-0.092026f, -0.076409f, 0.021296f, 0.073701f, -0.131867f, 0.097848f, 0.056574f, 0.089557f, 
		0.002783f, -0.082909f, -0.055798f, -0.009932f, 0.171659f, -0.125409f, -0.051810f, 0.079794f, 
		-0.104794f, 0.010263f, 0.151196f, 0.051161f, -0.182550f, -0.015185f, 0.155378f, 0.151308f, 
		-0.083751f, 0.147981f, 0.115916f, 0.142214f, 0.135605f, -0.001742f, -0.029990f, -0.056749f, 
		-0.136838f, -0.077266f, 0.040200f, -0.022645f, 0.028926f, -0.139787f, -0.160234f, 0.124087f, 
		0.077809f, 0.127677f, 0.025759f, -0.058052f, -0.031705f, -0.069983f, -0.053637f, -0.009890f, 
		-0.084960f, -0.086870f, 0.049563f, -0.151546f, 0.074581f, 0.082155f, -0.144802f, -0.105376f, 
		-0.066229f, -0.138370f, 0.102710f, 0.135696f, -0.111621f, -0.065798f, -0.151165f, 0.132642f, 
		-0.135560f, -0.055663f, -0.012596f, 0.148996f, -0.000974f, 0.017526f, -0.115657f, -0.007646f, 
		0.053296f, -0.175679f, -0.072993f, 0.164012f, 0.050344f, -0.048472f, -0.134828f, -0.086936f, 
		0.156423f, -0.116626f, 0.143968f, 0.042016f, 0.147786f, -0.089236f, -0.114610f, 0.162591f, 
		-0.070510f, 0.113109f, -0.042811f, -0.086958f, 0.131451f, -0.011772f, -0.175270f, 0.019431f, 
		-0.102038f, -0.139012f, -0.113838f, -0.189392f, -0.177300f, -0.158632f, -0.018788f, 0.159407f, 
		-0.178518f, -0.099881f, -0.085601f, -0.098296f, -0.067470f, 0.076546f, -0.081510f, 0.030010f, 
		-0.105023f, 0.046103f, -0.050584f, -0.032462f, 0.074566f, -0.051852f, 0.115171f, -0.097641f, 
		-0.104741f, -0.129918f, -0.012912f, 0.015135f, 0.108681f, 0.126012f, -0.173837f, 0.046316f, 
		-0.172082f, -0.074701f, -0.179269f, 0.186643f, 0.129891f, 0.101085f, -0.151013f, -0.173196f, 
		0.042701f, -0.104988f, -0.135613f, -0.182443f, 0.181098f, 0.190561f, 0.065938f, -0.049029f, 
		-0.158084f, -0.054410f, -0.192478f, 0.069213f, -0.009896f, -0.005897f, 0.115003f, -0.042910f, 
		-0.054621f, -0.016545f, -0.032337f, -0.185317f, -0.008197f, 0.141006f, 0.168189f, -0.086945f, 
		-0.046366f, -0.053238f, 0.078403f, 0.106491f, 0.123848f, 0.000920f, -0.065057f, 0.021431f, 
		0.046203f, -0.122414f, -0.181356f, 0.003536f, 0.167543f, -0.051456f, -0.020272f, -0.168552f, 
		0.152905f, -0.071400f, -0.021881f, 0.088562f, 0.028179f, 0.026379f, 0.104382f, 0.038850f, 
		0.016372f, 0.111356f, -0.019409f, 0.110256f, 0.118132f, -0.066737f, 0.060560f, 0.087885f, 
		0.108713f, 0.108751f, 0.103726f, 0.108823f, -0.065137f, 0.154906f, 0.038902f, -0.167425f, 
		0.149444f, -0.132257f, 0.137012f, -0.058326f, -0.018165f, 0.159388f, -0.061291f, -0.181857f, 
		0.128359f, -0.104224f, 0.033264f, -0.186135f, -0.032017f, -0.087591f, -0.189047f, -0.163926f, 
		-0.010424f, 0.134169f, -0.124400f, -0.071164f, -0.188784f, -0.136494f, 0.008237f, -0.039606f, 
		-0.154116f, -0.083612f, -0.025373f, -0.069582f, 0.090773f, -0.113299f, -0.080845f, -0.169432f, 
		-0.063419f, -0.137410f, -0.014688f, 0.104176f, 0.021073f, 0.042729f, 0.009984f, -0.182419f, 
		-0.025080f, -0.007107f, -0.124660f, 0.025759f, 0.030532f, -0.051701f, 0.055559f, 0.167911f, 
		-0.090848f, -0.175107f, -0.169316f, -0.074005f, 0.088743f, 0.110407f, -0.164880f, 0.166554f, 
		-0.046185f, 0.176818f, 0.168134f, 0.009821f, 0.188066f, -0.096008f, 0.112286f, 0.033942f, 
		-0.160308f, -0.055026f, 0.145490f, 0.071036f, -0.171867f, 0.138927f, -0.011670f, 0.137846f, 
		0.071466f, 0.065223f, 0.096381f, -0.181780f, 0.054269f, 0.084339f, 0.152670f, 0.172912f, 
		-0.171316f, -0.050385f, -0.149371f, 0.189058f, 0.123418f, -0.098729f, 0.124462f, 0.057783f, 
		-0.136985f, 0.128114f, 0.104223f, 0.188109f, 0.138915f, -0.033850f, 0.001604f, -0.119130f, 
		0.187588f, -0.003332f, -0.112616f, 0.026467f, 0.017917f, -0.078075f, 0.101317f, -0.044325f, 
		0.018925f, -0.034944f, -0.031842f, 0.101467f, -0.103880f, -0.165586f, 0.009783f, -0.072346f, 
		0.125588f, -0.154293f, -0.181942f, -0.172130f, -0.084355f, -0.161474f, 0.020265f, 0.035360f, 
		0.129612f, -0.018870f, 0.059546f, 0.159617f, -0.157675f, -0.137682f, 0.151331f, -0.011130f, 
		0.095922f, -0.121745f, 0.163920f, 0.180356f, -0.079111f, -0.166965f, -0.059305f, 0.088161f, 
		-0.135325f, 0.071160f, -0.060631f, -0.105805f, -0.019571f, 0.094582f, 0.132069f, -0.084751f, 
		-0.031882f, 0.041282f, 0.072592f, -0.143583f, 0.047352f, -0.158345f, -0.098314f, 0.088438f, 
		-0.106405f, -0.093925f, 0.158710f, 0.077804f, -0.136137f, 0.038906f, -0.042336f, -0.171376f, 
		0.122006f, 0.193014f, -0.182196f, -0.173565f, 0.009184f, 0.127313f, -0.048384f, 0.081087f, 
		0.053523f, -0.123946f, 0.030360f, 0.125647f, 0.026187f, 0.042935f, 0.165906f, 0.101100f, 
		0.006175f, 0.129393f, 0.175562f, 0.128246f, -0.181398f, 0.070318f, 0.164665f, -0.057776f, 
		0.191241f, -0.105339f, 0.026293f, 0.049946f, -0.087620f, -0.132641f, -0.164661f, 0.159658f, 
		-0.024773f, -0.157153f, -0.008120f, -0.092990f, 0.163014f, 0.052892f, -0.178291f, 0.081065f, 
		0.006670f, 0.094802f, 0.173044f, -0.140874f, -0.032619f, -0.001755f, -0.110938f, 0.013466f, 
		0.036901f, 0.113789f, -0.144418f, 0.187267f, -0.079944f, -0.072425f, 0.012390f, -0.050522f, 
		-0.131886f, 0.095924f, 0.049153f, -0.101269f, 0.156059f, 0.147234f, -0.071889f, -0.031981f, 
		-0.109215f, 0.107650f, 0.056886f, -0.043771f, 0.084022f, 0.009134f, 0.093256f, -0.173672f, 
		0.107840f, 0.050379f, -0.142202f, 0.172723f, 0.131974f, -0.131814f, -0.152412f, 0.121861f, 
		0.142596f, 0.082607f, -0.163663f, 0.152506f, -0.062055f, -0.055867f, 0.109839f, 0.101151f, 
		0.093147f, -0.022511f, 0.082714f, 0.025241f, 0.055341f, -0.126258f, 0.171065f, 0.018034f, 
		-0.162038f, 0.177020f, 0.069358f, 0.091161f, 0.016843f, -0.012562f, -0.190947f, 0.050357f, 
		0.111414f, 0.142042f, -0.113345f, 0.016970f, 0.056146f, 0.153243f, 0.034755f, -0.130644f, 
		0.046426f, -0.006375f, -0.125238f, -0.050901f, -0.043058f, -0.033204f, 0.184710f, -0.106002f, 
		0.193037f, 0.018850f, 0.125871f, -0.113359f, 0.010574f, -0.099011f, -0.013908f, 0.033287f, 
		0.020928f, -0.017128f, -0.179593f, 0.034689f, 0.143471f, 0.068326f, 0.114840f, 0.124744f, 
		0.051144f, -0.104615f, -0.193621f, -0.098374f, -0.119343f, -0.068712f, 0.049575f, -0.075133f, 
		0.140722f, -0.143511f, 0.136281f, 0.082142f, -0.057897f, -0.144078f, -0.174186f, -0.173017f, 
		0.181545f, -0.139479f, 0.055284f, 0.086219f, -0.177712f, -0.177744f, 0.014637f, 0.172843f, 
		-0.057836f, 0.182889f, -0.170614f, -0.157058f, -0.184912f, 0.116092f, -0.009498f, 0.053868f, 
		0.006332f, -0.168546f, -0.027852f, -0.040008f, 0.020087f, -0.077092f, -0.118216f, -0.030440f, 
		-0.010337f, 0.095382f, 0.191827f, -0.129331f, 0.189775f, 0.031993f, 0.030301f, -0.103854f, 
		-0.165298f, 0.152198f, 0.096359f, -0.104644f, -0.177751f, -0.147819f, 0.016755f, 0.151615f, 
		0.139776f, 0.174854f, 0.037487f, 0.101762f, -0.176281f, 0.136710f, -0.131438f, 0.181643f, 
		0.015120f, 0.116203f, 0.040720f, 0.180508f, 0.114202f, 0.066436f, 0.177347f, 0.003671f, 
		-0.045004f, -0.132568f, 0.190636f, 0.091199f, 0.152269f, -0.136034f, 0.079599f, 0.179386f, 
		-0.191639f, -0.044104f, -0.008699f, 0.065026f, -0.087654f, 0.053260f, 0.125116f, -0.174588f, 
		-0.144860f, 0.028918f, 0.100592f, 0.078460f, 0.055906f, -0.108057f, 0.001211f, 0.044764f, 
		-0.118587f, -0.039894f, 0.055980f, -0.122572f, -0.176472f, 0.071682f, -0.112291f, 0.039525f, 
		-0.109173f, 0.141294f, -0.051849f, 0.146251f, 0.098719f, -0.063358f, 0.106263f, 0.117011f, 
		0.109347f, 0.138396f, -0.135778f, 0.163287f, -0.052672f, 0.055300f, -0.100567f, -0.011720f, 
		-0.160186f, 0.026637f, 0.127159f, 0.169976f, -0.014762f, -0.060560f, 0.148176f, 0.130525f, 
		0.077825f, 0.140570f, -0.005912f, 0.184391f, -0.104283f, 0.007998f, -0.189395f, -0.186508f, 
		0.086505f, -0.161844f, 0.042966f, 0.051932f, -0.153682f, -0.162942f, -0.113230f, -0.156158f, 
		-0.183949f, 0.169077f, 0.039253f, 0.095562f, -0.031691f, 0.105467f, -0.005090f, 0.073733f, 
		-0.101575f, -0.152984f, -0.111477f, -0.032986f, -0.088152f, -0.106381f, 0.143446f, 0.083451f, 
		0.019781f, 0.149368f, -0.085530f, -0.092310f, 0.075712f, 0.006006f, 0.125497f, 0.037021f, 
		-0.015127f, -0.060948f, -0.057532f, 0.133282f, 0.071727f, 0.153783f, -0.151477f, -0.018208f, 
		0.029201f, -0.041585f, -0.046255f, 0.159916f, 0.190415f, -0.159419f, -0.112509f, -0.039214f, 
		0.097630f, -0.193503f, 0.123753f, -0.158633f, 0.148280f, 0.024032f, 0.153206f, 0.033522f, 
		0.015220f, 0.007140f, -0.142453f, 0.132038f, -0.058908f, -0.027392f, 0.161374f, -0.057899f, 
		0.190422f, -0.058757f, 0.185664f, 0.108545f, 0.050733f, -0.031400f, 0.115228f, -0.100833f, 
		0.090817f, 0.187860f, -0.025853f, -0.189490f, 0.168288f, -0.185560f, 0.148389f, 0.057960f, 
		0.116016f, 0.170400f, -0.106510f, 0.024197f, -0.024824f, -0.153124f, 0.070302f, 0.103832f, 
		0.158052f, 0.022983f, 0.132500f, 0.129955f, -0.134466f, -0.023527f, 0.038370f, 0.148371f, 
		0.051383f, 0.090118f, -0.080327f, -0.147989f, 0.117526f, -0.033392f, 0.062091f, 0.183160f, 
		-0.045218f, -0.066043f, -0.017589f, -0.171541f, 0.183456f, 0.005013f, 0.039130f, 0.136750f, 
		-0.182634f, -0.153876f, 0.178979f, -0.078242f, 0.061532f, -0.018041f, 0.066343f, -0.169037f, 
		0.168424f, -0.056291f, -0.038165f, -0.100471f, 0.163680f, 0.076296f, 0.152482f, 0.156322f, 
		0.132904f, 0.046736f, -0.068300f, 0.146066f, 0.182241f, -0.043121f, 0.078992f, 0.133198f, 
		0.030869f, 0.167361f, -0.017826f, 0.177276f, 0.102737f, -0.094326f, 0.087114f, -0.162722f, 
		0.006709f, 0.051345f, -0.009060f, -0.011785f, 0.102571f, 0.083243f, 0.014473f, 0.009183f, 
		-0.124024f, -0.163936f, 0.190729f, -0.082760f, -0.129810f, -0.070176f, -0.132234f, 0.185024f, 
		-0.052451f, -0.079715f, 0.002055f, 0.129641f, 0.180342f, 0.056465f, 0.112042f, -0.115563f, 
		0.011087f, -0.008046f, 0.068705f, -0.175931f, -0.002478f, -0.060831f, -0.176757f, -0.040480f, 
		0.185772f, 0.102605f, -0.068739f, -0.032247f, -0.039534f, 0.163023f, -0.165931f, -0.163775f, 
		-0.032009f, -0.172006f, -0.127373f, -0.186151f, -0.029286f, -0.192215f, -0.127132f, 0.083372f, 
		0.136108f, 0.162341f, -0.045678f, 0.165845f, 0.053041f, -0.175246f, -0.187740f, 0.101408f, 
		-0.040484f, 0.147354f, -0.160090f, -0.094103f, 0.167887f, 0.174585f, -0.186753f, 0.091871f, 
		-0.118101f, 0.000290f, -0.004506f, 0.117988f, -0.118189f, 0.067232f, -0.069937f, 0.012456f, 
		-0.169693f, -0.088287f, 0.069006f, 0.018190f, -0.022323f, 0.082332f, 0.128364f, 0.023627f, 
		0.139857f, 0.147440f, -0.165723f, 0.098693f, -0.056759f, -0.019249f, -0.046205f, 0.106404f, 
		0.111761f, 0.039892f, 0.191742f, -0.176036f, -0.121303f, 0.072390f, 0.176519f, -0.138906f, 
		0.179563f, 0.123840f, 0.167958f, 0.187719f, 0.125200f, -0.077775f, -0.131527f, -0.011766f, 
		0.186478f, -0.089442f, 0.143990f, 0.011410f, 0.189599f, 0.124788f, 0.076074f, 0.078295f, 
		-0.185485f, 0.030729f, -0.063014f, -0.028628f, -0.143237f, -0.004243f, -0.012697f, -0.035833f, 
		-0.190127f, -0.046680f, -0.187250f, 0.088673f, -0.179785f, 0.023825f, -0.013327f, 0.072014f, 
		-0.011402f, 0.169482f, -0.161834f, 0.010733f, 0.087945f, 0.167290f, -0.127688f, 0.156157f, 
		0.016482f, -0.002151f, -0.051058f, -0.148597f, 0.109192f, -0.160262f, -0.172502f, 0.158148f, 
		-0.010649f, 0.069719f, 0.031495f, -0.112024f, 0.050580f, -0.167225f, 0.190514f, -0.003126f, 
		-0.090097f, -0.118774f, -0.041159f, -0.118425f, 0.063602f, 0.143806f, 0.119760f, -0.112891f, 
		0.065912f, -0.043204f, 0.077648f, -0.073140f, -0.135995f, 0.156344f, 0.005256f, -0.153548f, 
		-0.105920f, 0.068003f, 0.185305f, 0.019165f, -0.116448f, -0.112598f, -0.160846f, 0.016982f, 
		-0.148780f, -0.017896f, -0.184977f, -0.043471f, -0.036219f, 0.080170f, 0.025230f, -0.186812f, 
		0.025711f, 0.124320f, -0.170040f, 0.024980f, 0.052055f, 0.088649f, 0.155661f, 0.023953f, 
		-0.100974f, -0.143291f, -0.111252f, -0.038267f, -0.052490f, -0.132340f, 0.079569f, 0.125149f, 
		-0.053694f, -0.159159f, 0.083876f, -0.062591f, 0.186460f, -0.077467f, 0.041859f, 0.137200f, 
		0.081656f, -0.012368f, 0.145337f, -0.154298f, -0.119263f, 0.118218f, -0.171606f, 0.098737f, 
		-0.172584f, -0.050950f, -0.022614f, 0.014715f, -0.076545f, 0.168065f, -0.000308f, -0.075750f, 
		0.073898f, -0.033611f, 0.091822f, 0.156866f, -0.183114f, 0.027868f, -0.015454f, 0.018309f, 
		-0.011241f, -0.169367f, 0.121712f, 0.107475f, 0.005226f, -0.134626f, 0.035888f, -0.085484f, 
		0.039222f, -0.134346f, -0.016631f, 0.141306f, 0.154925f, -0.074427f, -0.124632f, -0.044171f, 
		0.190979f, 0.005323f, 0.003763f, -0.165891f, 0.047945f, -0.032183f, -0.155795f, -0.117161f, 
		0.051360f, 0.061267f, -0.119519f, -0.014032f, 0.094807f, -0.075769f, 0.147012f, 0.100112f, 
		0.001599f, 0.004187f, 0.157026f, -0.116117f, -0.157895f, 0.124800f, -0.175391f, 0.046621f, 
		0.079985f, -0.047454f, 0.009182f, -0.162912f, 0.080138f, -0.064098f, 0.140741f, -0.076087f, 
		-0.047413f, -0.110833f, -0.000542f, -0.060392f, 0.016639f, 0.184826f, -0.171702f, -0.170903f, 
		-0.152606f, 0.067920f, 0.060930f, -0.188864f, -0.020438f, 0.003951f, -0.114405f, -0.095627f, 
		0.109915f, 0.167483f, -0.128876f, 0.027910f, -0.151480f, 0.182333f, -0.074579f, -0.094416f, 
		0.094266f, 0.115137f, 0.003570f, -0.019467f, -0.103835f, -0.082838f, 0.173285f, -0.030023f, 
		0.158945f, -0.155225f, 0.064637f, -0.044282f, -0.027377f, -0.162820f, 0.016461f, 0.152458f, 
		-0.021105f, 0.017288f, -0.130708f, 0.176937f, 0.075256f, 0.106072f, 0.005807f, -0.170385f, 
		0.144895f, -0.120192f, 0.144336f, -0.095168f, -0.064753f, 0.107251f, -0.184849f, 0.120892f, 
		-0.137773f, -0.005190f, 0.063203f, 0.155920f, -0.187056f, 0.162157f, 0.097284f, -0.002073f, 
		0.132997f, 0.055270f, -0.177812f, 0.022794f, -0.014220f, 0.123642f, -0.041615f, -0.082334f, 
		0.041569f, -0.157626f, -0.155562f, 0.090932f, -0.094193f, 0.053229f, 0.119940f, -0.192843f, 
		0.017015f, 0.108334f, 0.183489f, 0.192265f, -0.121930f, -0.045284f, -0.086935f, -0.188827f, 
		0.015075f, -0.115362f, 0.096814f, 0.003605f, 0.175086f, 0.080386f, 0.082441f, 0.115819f, 
		-0.178265f, 0.192654f, 0.108313f, 0.175848f, -0.074514f, 0.034803f, 0.167588f, -0.014491f, 
		-0.118940f, 0.047684f, 0.182799f, 0.071184f, 0.106280f, 0.111818f, 0.030552f, 0.143033f, 
		0.087692f, 0.168978f, -0.156658f, 0.164948f, 0.061706f, -0.172407f, 0.062165f, -0.172887f, 
		0.028232f, -0.091896f, -0.098182f, -0.077925f, 0.105800f, 0.014765f, -0.068312f, -0.074660f, 
		0.071214f, -0.161455f, 0.062033f, -0.178861f, -0.012404f, -0.121410f, 0.092844f, -0.015272f, 
		0.091034f, 0.126560f, -0.182496f, 0.132249f, -0.096422f, 0.128352f, 0.055714f, 0.028264f, 
		-0.063035f, -0.167241f, -0.186559f, 0.038788f, 0.065713f, 0.072815f, 0.184087f, -0.047002f, 
		-0.046447f, 0.170121f, 0.170332f, -0.178703f, -0.166925f, 0.014552f, 0.151751f, -0.151533f, 
		0.150217f, -0.116639f, 0.014750f, 0.038046f, -0.070320f, 0.041767f, -0.008028f, -0.164587f, 
		-0.102523f, -0.100260f, -0.188560f, -0.037482f, -0.023778f, 0.114396f, -0.071415f, -0.149926f, 
		-0.140320f, -0.045808f, -0.186053f, 0.055414f, -0.013789f, 0.059908f, 0.068689f, -0.185726f, 
		0.089655f, 0.099252f, -0.181904f, 0.137217f, -0.098481f, 0.155062f, 0.179023f, -0.121392f, 
		-0.066889f, 0.001604f, -0.094604f, 0.188930f, -0.081482f, 0.052671f, 0.016996f, -0.003789f, 
		-0.148311f, 0.080647f, 0.078439f, 0.012039f, 0.080971f, -0.054056f, -0.108041f, 0.063657f, 
		-0.080384f, -0.133197f, -0.132486f, 0.107502f, -0.037757f, -0.113424f, 0.105214f, -0.101936f, 
		-0.007838f, 0.085048f, 0.080834f, -0.002163f, -0.028857f, 0.004442f, 0.136189f, -0.180940f, 
		0.155251f, 0.073090f, 0.181958f, 0.151694f, 0.091488f, 0.115944f, -0.182018f, 0.090315f, 
		-0.130302f, 0.079316f, -0.008746f, -0.146300f, -0.087886f, -0.065563f, 0.189569f, -0.146117f, 
		0.056838f, -0.151382f, 0.184252f, -0.028716f, 0.024863f, 0.107774f, -0.180561f, -0.117684f, 
		0.018236f, -0.039899f, 0.009658f, 0.144156f, -0.089277f, -0.032199f, 0.143556f, -0.162381f, 
		-0.102707f, -0.114033f, -0.177657f, -0.046705f, -0.147930f, -0.097744f, 0.133923f, -0.051789f, 
		0.046815f, 0.073391f, 0.048848f, 0.128483f, -0.188139f, 0.078926f, -0.150519f, -0.002966f, 
		0.188475f, 0.004104f, 0.055332f, -0.095653f, -0.056376f, 0.177995f, 0.130888f, 0.127775f, 
		-0.118415f, -0.129793f, -0.114984f, -0.176405f, 0.057946f, -0.004917f, -0.168763f, 0.160492f, 
		0.017305f, -0.115414f, -0.081589f, 0.157950f, -0.059145f, 0.162506f, -0.070883f, 0.023932f, 
		0.136881f, -0.058211f, -0.105355f, 0.134798f, -0.081981f, -0.045459f, -0.177579f, 0.158268f, 
		-0.131528f, 0.121669f, 0.143952f, -0.109092f, 0.088265f, -0.182366f, -0.051456f, -0.175673f, 
		0.013922f, -0.076891f, -0.034143f, -0.109925f, -0.133500f, -0.069668f, 0.058917f, 0.155314f, 
		0.061889f, -0.183124f, 0.045950f, -0.092315f, -0.164156f, 0.025703f, -0.000887f, 0.188741f, 
		-0.133701f, 0.127879f, -0.083195f, -0.069049f, 0.071351f, 0.049021f, 0.115326f, -0.157156f, 
		0.131942f, 0.136341f, 0.028065f, -0.176974f, -0.014427f, 0.084203f, 0.108474f, -0.186212f, 
		0.192469f, -0.161034f, -0.113325f, 0.132236f, 0.074023f, -0.178660f, -0.052681f, 0.067982f, 
		-0.024713f, -0.193534f, -0.155074f, -0.193611f, 0.047789f, -0.159365f, -0.176155f, -0.000177f, 
		0.160550f, 0.080580f, 0.019496f, -0.067143f, -0.016576f, -0.147567f, -0.017119f, -0.132198f, 
		-0.108106f, 0.032024f, -0.017342f, -0.116246f, -0.114955f, -0.057339f, 0.112770f, 0.127988f, 
		-0.009672f, -0.054008f, 0.117500f, 0.153774f, -0.140063f, -0.031695f, 0.066306f, -0.027584f, 
		0.166189f, -0.064542f, -0.026554f, -0.014863f, -0.179384f, -0.014401f, -0.097924f, 0.051069f, 
		-0.128157f, -0.167927f, 0.076225f, -0.149161f, 0.121387f, -0.000426f, -0.157208f, 0.001328f, 
		-0.111857f, -0.027610f, -0.100945f, -0.077809f, 0.110436f, -0.114343f, -0.056036f, 0.083529f, 
		-0.059085f, -0.187357f, -0.085066f, -0.178073f, 0.185001f, -0.095675f, 0.018952f, 0.005861f, 
		0.086042f, -0.113147f, 0.051670f, 0.106794f, -0.128099f, 0.057482f, 0.085761f, 0.079572f, 
		-0.162155f, -0.003731f, 0.181169f, 0.079944f, 0.113978f, -0.168774f, 0.129209f, 0.117518f, 
		-0.079316f, 0.141076f, -0.134660f, 0.097309f, 0.151414f, -0.147391f, 0.144527f, 0.120791f, 
		-0.061683f, -0.158037f, 0.189441f, 0.021312f, 0.141454f, -0.142727f, -0.056431f, 0.113741f, 
		-0.093119f, 0.168080f, 0.110738f, -0.073399f, -0.140226f, -0.097454f, -0.147029f, 0.089289f, 
		-0.163840f, 0.139163f, -0.170787f, -0.127529f, 0.179333f, 0.129599f, 0.010661f, -0.080359f, 
		0.179715f, -0.111751f, 0.168264f, 0.060969f, 0.020838f, -0.134729f, -0.182489f, -0.026040f, 
		0.034431f, -0.073408f, -0.034704f, 0.106300f, -0.074568f, -0.033280f, -0.175409f, 0.026842f, 
		0.150159f, -0.116399f, 0.159955f, -0.084774f, -0.163985f, 0.011290f, 0.004059f, 0.026400f, 
		0.086107f, -0.193258f, -0.162149f, -0.009366f, 0.068757f, 0.074510f, -0.164067f, 0.097822f, 
		0.176396f, 0.149064f, 0.144216f, -0.120277f, 0.025752f, -0.091357f, -0.115484f, 0.117665f, 
		0.149505f, -0.049378f, 0.097092f, 0.054077f, -0.044244f, 0.038309f, -0.190152f, -0.105871f, 
		-0.035103f, 0.184461f, -0.022791f, 0.010891f, -0.105843f, 0.079280f, -0.150901f, 0.006699f, 
		0.033069f, 0.132954f, -0.018923f, 0.098595f, -0.188698f, 0.077340f, -0.024282f, -0.180008f, 
		-0.090150f, 0.165434f, -0.039139f, 0.068096f, -0.028566f, -0.020586f, -0.106077f, -0.154440f, 
		0.114812f, 0.106544f, -0.164028f, -0.164516f, 0.127833f, -0.051345f, 0.109793f, -0.124865f, 
		-0.111274f, 0.019960f, -0.095118f, -0.107957f, -0.105011f, -0.004475f, 0.137269f, -0.055268f, 
		0.123048f, -0.009157f, -0.089234f, -0.049172f, -0.080480f, 0.099498f, -0.023586f, -0.171053f, 
		0.073227f, -0.122073f, -0.097930f, -0.170066f, 0.174413f, -0.117840f, 0.126929f, 0.093552f, 
		-0.075958f, -0.051575f, -0.186532f, -0.028460f, -0.085610f, 0.191363f, -0.076043f, 0.100806f, 
		-0.140242f, -0.109622f, 0.039959f, 0.082168f, 0.158743f, 0.040791f, -0.086265f, -0.028808f, 
		0.098742f, 0.106682f, 0.014826f, -0.006195f, -0.106363f, -0.096629f, -0.015309f, 0.176906f, 
		0.181574f, -0.092039f, -0.158552f, -0.121314f, 0.061766f, 0.115875f, 0.013062f, 0.110599f, 
		-0.187361f, -0.191562f, -0.002085f, 0.138140f, 0.086529f, 0.132268f, -0.133887f, 0.026620f, 
		-0.084566f, 0.047897f, 0.080248f, -0.013699f, -0.141855f, 0.047153f, 0.001850f, -0.012028f, 
		-0.171685f, 0.188104f, -0.140306f, -0.030674f, 0.092037f, 0.065302f, -0.124973f, -0.142932f, 
		-0.122526f, 0.019106f, 0.089381f, -0.001897f, -0.107087f, 0.172130f, -0.110757f, -0.061388f, 
		0.147321f, -0.087575f, 0.166930f, 0.187533f, -0.019132f, -0.172922f, 0.017152f, 0.106109f, 
		0.189970f, 0.160641f, 0.193234f, -0.013596f, 0.160893f, 0.011007f, -0.120248f, -0.090303f, 
		0.105827f, 0.146364f, 0.154418f, -0.037340f, -0.118039f, -0.124602f, -0.054776f, -0.126920f, 
		-0.095716f, -0.004711f, -0.050212f, 0.111358f, 0.143513f, 0.118393f, -0.182207f, -0.072835f, 
		0.180965f, -0.184784f, 0.130692f, 0.097352f, -0.011804f, -0.087773f, 0.008140f, -0.121813f, 
		-0.112579f, 0.051937f, -0.064809f, -0.055338f, 0.016287f, -0.159486f, 0.129255f, 0.016407f, 
		0.082322f, -0.140772f, 0.046046f, 0.103790f, -0.179656f, 0.180817f, 0.175619f, 0.183065f, 
		-0.041824f, -0.013518f, -0.179998f, -0.100304f, 0.094271f, 0.152355f, -0.098310f, -0.190449f, 
		-0.028787f, 0.017521f, -0.132497f, 0.055552f, 0.152050f, -0.065593f, -0.104547f, 0.185911f, 
		0.116769f, -0.017268f, -0.168001f, -0.138347f, -0.167095f, -0.192612f, 0.165672f, -0.062705f, 
		0.004706f, -0.169588f, -0.049867f, 0.069455f, -0.100765f, 0.083159f, 0.039082f, 0.184448f, 
		0.066046f, -0.035620f, 0.068237f, -0.007298f, 0.082267f, -0.069100f, 0.162053f, 0.176368f, 
		0.079994f, 0.174645f, 0.134202f, -0.166745f, 0.069453f, -0.110763f, 0.098918f, 0.158436f, 
		-0.043684f, 0.003801f, -0.007479f, -0.116749f, -0.013787f, 0.116557f, -0.023579f, -0.188152f, 
		-0.110349f, 0.077530f, -0.070597f, -0.028203f, 0.121668f, 0.094204f, 0.149702f, -0.003686f, 
		-0.169098f, -0.177714f, 0.115470f, -0.141969f, 0.133006f, 0.049642f, -0.124765f, 0.005456f, 
		0.143814f, -0.178290f, 0.192207f, 0.014188f, -0.094738f, 0.061201f, -0.169487f, 0.103499f, 
		0.116718f, 0.055028f, 0.154850f, 0.017229f, 0.025941f, 0.126826f, -0.087467f, 0.013595f, 
		0.120741f, -0.041342f, 0.107404f, 0.039313f, -0.025241f, 0.153384f, -0.187757f, 0.191268f, 
		0.086464f, -0.071480f, -0.140685f, 0.013086f, 0.006635f, -0.009023f, -0.006282f, 0.000328f, 
		0.164352f, -0.060233f, -0.076879f, -0.042873f, -0.030518f, -0.016497f, 0.107021f, 0.059744f, 
		-0.070440f, -0.033738f, -0.148999f, -0.012060f, -0.124935f, 0.006385f, 0.143736f, 0.011746f, 
		0.074198f, -0.033043f, 0.088435f, 0.059386f, 0.124504f, 0.101688f, -0.113342f, 0.170983f, 
		-0.188624f, 0.055233f, 0.088135f, -0.174785f, -0.062211f, 0.055915f, 0.127669f, 0.011930f, 
		-0.130615f, 0.165139f, -0.020242f, -0.000323f, -0.006275f, -0.013548f, -0.001947f, -0.102282f, 
		0.033175f, -0.179927f, 0.003487f, 0.151159f, -0.143295f, -0.026425f, 0.040183f, 0.077825f, 
		-0.028806f, 0.095972f, 0.054334f, -0.185542f, -0.185756f, 0.131894f, -0.018007f, 0.143130f, 
		-0.047141f, 0.010970f, 0.008855f, -0.036765f, 0.118558f, -0.112166f, 0.026032f, -0.152537f, 
		0.117795f, -0.125932f, 0.148225f, -0.071744f, 0.175449f, -0.080407f, 0.008086f, 0.171582f, 
		0.086321f, -0.022090f, -0.055113f, -0.065890f, 0.087052f, 0.183306f, -0.167879f, -0.029893f, 
		-0.149541f, -0.181441f, -0.186991f, -0.118725f, -0.087949f, 0.073501f, -0.058016f, 0.052774f, 
		0.187667f, -0.010306f, 0.191389f, 0.058972f, 0.150832f, 0.125799f, -0.132148f, 0.055673f, 
		-0.072665f, -0.110143f, 0.089254f, -0.193504f, -0.125862f, 0.137484f, -0.134451f, -0.036870f, 
		-0.029064f, -0.153819f, 0.144535f, 0.118163f, -0.077620f, -0.027942f, -0.007656f, -0.063300f, 
		-0.139365f, -0.132964f, 0.081938f, -0.029366f, -0.077463f, 0.046656f, -0.082399f, 0.186175f, 
		-0.089685f, 0.024077f, -0.084541f, 0.087903f, 0.128561f, -0.032185f, -0.124283f, -0.117548f, 
		-0.107158f, 0.104938f, -0.060703f, 0.145458f, 0.076138f, 0.073584f, 0.118141f, 0.042025f, 
		0.077159f, 0.145246f, 0.090184f, 0.115400f, -0.104751f, -0.049713f, -0.157143f, 0.170052f, 
		0.026684f, -0.032559f, 0.040095f, 0.082687f, 0.187611f, -0.079903f, 0.192410f, 0.119898f, 
		-0.044786f, -0.074371f, -0.046899f, 0.000713f, -0.008241f, 0.185677f, -0.132895f, 0.093032f, 
		-0.188049f, -0.075568f, -0.002607f, 0.069800f, 0.134455f, 0.083446f, 0.011609f, 0.177802f, 
		-0.090098f, 0.186683f, -0.002408f, -0.107379f, -0.174434f, -0.000160f, -0.188725f, -0.167588f, 
		0.054326f, 0.126253f, 0.053993f, -0.002535f, -0.169779f, -0.183149f, -0.177932f, -0.115053f, 
		-0.042795f, 0.016011f, 0.115130f, 0.131603f, 0.028104f, -0.075422f, 0.079478f, -0.167542f, 
		0.053601f, -0.064887f, 0.093365f, -0.100237f, 0.020975f, -0.047493f, 0.088625f, 0.120148f, 
		0.188667f, 0.104173f, 0.150760f, 0.092087f, -0.137803f, -0.183458f, -0.086054f, 0.178401f, 
		0.106936f, 0.190686f, 0.128684f, 0.105825f, 0.100942f, 0.007319f, 0.031893f, 0.023869f, 
		-0.073224f, -0.015377f, -0.059879f, 0.148624f, -0.186913f, -0.014204f, -0.098219f, -0.173139f, 
		-0.045124f, 0.131030f, -0.162693f, 0.168732f, 0.070028f, 0.182667f, 0.096816f, 0.103142f, 
		-0.114535f, -0.099320f, 0.036863f, -0.060042f, 0.033052f, 0.093880f, 0.037493f, 0.054597f, 
		0.121233f, 0.068700f, -0.109519f, 0.018721f, 0.116239f, 0.099517f, -0.066053f, 0.109591f, 
		-0.092777f, 0.077463f, 0.189723f, 0.130495f, -0.039244f, 0.165940f, -0.090043f, 0.099842f, 
		-0.081485f, -0.042915f, -0.029133f, -0.048076f, 0.085037f, -0.006449f, 0.165409f, 0.139428f, 
		0.166296f, 0.176362f, -0.140238f, -0.180351f, -0.054328f, -0.088902f, 0.068762f, 0.154632f, 
		-0.014506f, -0.163304f, 0.114095f, -0.092085f, -0.076832f, -0.037390f, 0.156988f, 0.116788f, 
		0.190165f, 0.171363f, -0.147256f, 0.119203f, -0.111279f, 0.001184f, 0.072152f, -0.111954f, 
		-0.173183f, -0.184618f, 0.149544f, -0.023131f, 0.184711f, -0.124453f, 0.155300f, -0.077645f, 
		-0.084979f, 0.128124f, -0.109046f, -0.005015f, 0.072077f, -0.071483f, 0.164210f, 0.192661f, 
		0.080560f, 0.073781f, 0.071743f, 0.013026f, -0.076637f, 0.171508f, 0.063415f, -0.010097f, 
		-0.059074f, -0.125823f, 0.087216f, -0.111303f, 0.189917f, -0.041493f, -0.091084f, 0.102767f, 
		-0.023883f, 0.141368f, 0.046454f, -0.158561f, -0.147983f, -0.127122f, -0.034962f, 0.066206f, 
		0.091264f, 0.061598f, -0.127518f, -0.059021f, 0.026913f, -0.129385f, -0.116780f, 0.180508f, 
		-0.139996f, 0.163900f, 0.039855f, 0.166866f, -0.096263f, 0.091013f, 0.044895f, -0.161001f, 
		0.049697f, 0.190375f, 0.014166f, -0.119894f, -0.072593f, 0.054539f, -0.105457f, -0.098642f, 
		0.179220f, 0.007396f, 0.097307f, 0.046312f, 0.035403f, 0.006666f, -0.157664f, 0.147719f, 
		-0.090009f, 0.054904f, 0.100681f, 0.064780f, 0.099125f, -0.074479f, 0.164080f, -0.175277f, 
		0.036958f, -0.046396f, 0.028581f, -0.191182f, 0.003576f, -0.014908f, 0.165963f, -0.015877f, 
		0.159748f, -0.156180f, 0.120744f, 0.066724f, 0.023941f, -0.095502f, 0.107846f, 0.190268f, 
		-0.087676f, -0.095373f, -0.117118f, 0.130644f, -0.121584f, 0.086679f, -0.151115f, 0.054161f, 
		0.006607f, -0.171566f, -0.093019f, -0.084666f, 0.126755f, -0.145570f, -0.129969f, -0.118990f, 
		0.040807f, 0.071912f, 0.139797f, -0.052156f, 0.033665f, 0.036318f, 0.050818f, 0.156272f, 
		-0.127977f, -0.141409f, -0.143275f, -0.109107f, -0.192656f, -0.123421f, -0.067280f, 0.135648f, 
		-0.114793f, -0.097799f, 0.129248f, -0.033268f, -0.082864f, -0.058921f, -0.096414f, 0.099852f, 
		-0.163117f, 0.100048f, -0.151699f, 0.185001f, -0.109371f, -0.044254f, 0.072051f, 0.026610f, 
		0.066791f, -0.125211f, 0.164822f, 0.094501f, 0.171899f, 0.094323f, 0.085563f, -0.014309f, 
		0.111304f, -0.174845f, -0.011216f, 0.168302f, -0.111409f, 0.061167f, -0.091652f, 0.022807f, 
		-0.076380f, -0.172621f, 0.172965f, 0.129444f, 0.139373f, -0.080013f, -0.154935f, -0.034709f, 
		-0.058496f, 0.128863f, 0.175192f, -0.070804f, -0.132465f, 0.088448f, 0.096219f, -0.036499f, 
		-0.071825f, -0.138865f, -0.009511f, 0.049577f, -0.042746f, 0.079067f, -0.164653f, -0.191015f, 
		0.000936f, 0.165699f, 0.060207f, -0.025442f, -0.117171f, 0.156939f, 0.057761f, 0.035564f, 
		0.116216f, -0.012369f, -0.034709f, 0.180230f, -0.044899f, -0.177275f, -0.086727f, -0.021725f, 
		-0.033747f, 0.094951f, -0.016472f, -0.059173f, 0.057960f, -0.075826f, -0.108985f, 0.028102f, 
		-0.142583f, -0.045725f, -0.013698f, -0.181941f, 0.005155f, 0.151723f, -0.190729f, 0.023428f, 
		0.009750f, 0.059631f, -0.130633f, 0.090451f, 0.162717f, 0.069509f, 0.005250f, -0.068522f, 
		-0.024195f, -0.158205f, 0.124310f, -0.154902f, 0.053315f, 0.061437f, 0.171538f, 0.122440f, 
		0.187392f, 0.153979f, -0.108157f, -0.081118f, -0.191219f, -0.147714f, 0.103038f, -0.021367f, 
		0.010628f, -0.106963f, -0.089217f, 0.024019f, -0.158399f, 0.118573f, -0.021906f, -0.138022f, 
		0.003803f, -0.148236f, -0.164125f, -0.124157f, -0.120572f, -0.040127f, 0.125794f, 0.112473f, 
		-0.034741f, -0.100831f, -0.153959f, 0.105709f, 0.044677f, 0.154181f, -0.051403f, -0.020705f, 
		0.092912f, 0.068438f, 0.025851f, -0.112364f, 0.160398f, -0.172047f, 0.032009f, -0.145859f, 
		0.183781f, -0.099426f, -0.141345f, -0.178923f, 0.159657f, 0.164567f, -0.139966f, -0.031443f, 
		-0.174567f, -0.032824f, -0.059126f, 0.140723f, 0.148199f, 0.023281f, 0.046154f, 0.025014f, 
		0.115360f, 0.078320f, 0.079501f, -0.171018f, -0.080440f, 0.148863f, 0.118506f, 0.081568f, 
		-0.022764f, -0.173947f, 0.011914f, -0.043329f, 0.074905f, -0.064914f, -0.170483f, -0.032010f, 
		0.081408f, 0.169062f, 0.182719f, -0.090989f, -0.021793f, -0.010741f, 0.110898f, 0.046008f, 
		0.106103f, -0.081180f, -0.030758f, 0.182836f, 0.059274f, 0.050518f, -0.022005f, -0.052162f, 
		-0.137511f, -0.162092f, 0.185224f, 0.142550f, -0.044286f, -0.026656f, -0.174882f, 0.097466f, 
		-0.087815f, -0.073836f, 0.157441f, 0.000657f, -0.158625f, -0.042584f, -0.137555f, 0.049028f, 
		-0.100536f, -0.137392f, -0.143638f, -0.056240f, -0.129258f, -0.032973f, 0.127896f, -0.184330f, 
		-0.084394f, -0.027283f, 0.030880f, 0.113794f, -0.013963f, 0.096519f, 0.058764f, 0.126427f, 
		-0.128506f, -0.169053f, -0.046753f, 0.131475f, -0.144886f, -0.041941f, 0.060120f, 0.152008f, 
		-0.045993f, -0.030798f, 0.053198f, 0.022373f, 0.130066f, -0.016938f, -0.028889f, 0.008813f, 
		0.097004f, -0.074197f, -0.031060f, 0.128508f, -0.040204f, 0.176595f, 0.038528f, -0.115409f, 
		0.016851f, -0.000270f, -0.172569f, 0.109408f, 0.056930f, 0.131708f, -0.160260f, 0.093367f, 
		0.060877f, -0.023253f, -0.160978f, -0.155403f, 0.087347f, 0.047988f, -0.193295f, 0.040910f, 
		-0.017112f, 0.082588f, 0.104985f, 0.027723f, -0.163319f, -0.121668f, -0.026282f, -0.154948f, 
		-0.064721f, -0.033037f, -0.114601f, 0.190274f, -0.074245f, 0.098036f, 0.191890f, 0.081404f, 
		-0.176858f, -0.097794f, 0.046010f, -0.073910f, -0.145038f, -0.155425f, 0.029343f, -0.170948f, 
		-0.096465f, -0.058340f, 0.063632f, 0.051761f, 0.106817f, -0.171533f, -0.080901f, 0.022029f, 
		0.153896f, 0.028048f, 0.015826f, 0.173119f, 0.036188f, 0.032989f, 0.051296f, 0.090324f, 
		-0.069473f, 0.028350f, -0.152019f, -0.107782f, -0.083550f, 0.033006f, 0.162678f, 0.042073f, 
		-0.060783f, 0.128420f, -0.041186f, 0.051976f, -0.045777f, 0.176417f, -0.180358f, 0.139732f, 
		0.081882f, -0.157879f, 0.186632f, 0.054459f, -0.007219f, 0.131944f, -0.056671f, 0.003409f, 
		0.023875f, -0.090198f, 0.088522f, -0.092304f, 0.007132f, 0.109343f, -0.011414f, 0.101806f, 
		-0.152061f, -0.153832f, 0.109090f, 0.068854f, 0.086222f, -0.127279f, 0.059988f, 0.110531f, 
		0.009554f, 0.149478f, 0.114638f, 0.180143f, -0.072269f, -0.102863f, -0.011124f, 0.140239f, 
		0.084872f, -0.072907f, -0.035449f, -0.093689f, -0.172181f, -0.030099f, -0.113349f, -0.104423f, 
		-0.037980f, 0.132943f, -0.167802f, 0.138902f, 0.140668f, 0.151127f, 0.173136f, 0.027289f, 
		-0.072001f, 0.052014f, 0.156124f, 0.028605f, 0.040759f, -0.146543f, 0.003488f, 0.102465f, 
		0.105407f, -0.031300f, -0.176944f, 0.123822f, 0.108651f, 0.077175f, -0.189115f, -0.078184f, 
		0.172035f, -0.004191f, 0.054260f, -0.067179f, -0.073449f, 0.175509f, 0.095021f, 0.179364f, 
		-0.150630f, -0.060887f, 0.046683f, -0.117584f, -0.014802f, 0.147389f, 0.067886f, -0.046958f, 
		-0.160335f, -0.111652f, -0.115567f, 0.160893f, -0.179787f, -0.180684f, 0.164087f, -0.087384f, 
		0.096246f, 0.038142f, 0.070282f, -0.122828f, -0.183495f, 0.013184f, 0.127223f, -0.027792f, 
		-0.010462f, -0.029778f, 0.060256f, 0.076885f, -0.021012f, -0.074811f, 0.069954f, 0.029546f, 
		0.168885f, -0.059215f, -0.175314f, 0.093012f, -0.106063f, -0.172074f, -0.049241f, -0.032073f, 
		0.010498f, -0.059747f, 0.066194f, -0.018426f, 0.178221f, -0.057514f, 0.084715f, -0.174425f, 
		-0.173728f, 0.086966f, -0.094490f, 0.155021f, 0.029783f, -0.067534f, 0.064175f, 0.075911f, 
		-0.164105f, 0.019378f, 0.036696f, -0.131235f, 0.136520f, 0.152308f, 0.059691f, 0.034124f, 
		0.191059f, 0.020689f, 0.152254f, -0.126868f, -0.004680f, 0.100720f, 0.050742f, -0.104548f, 
		0.121744f, -0.094660f, 0.079185f, -0.116706f, -0.128308f, -0.002769f, 0.144289f, 0.113759f, 
		0.126794f, -0.078107f, -0.055902f, 0.019519f, -0.101912f, 0.018961f, 0.118523f, 0.169738f, 
		-0.115366f, -0.155649f, 0.102790f, -0.184071f, 0.068850f, -0.169409f, -0.055805f, 0.123568f, 
		-0.188772f, 0.070143f, 0.088712f, 0.109967f, 0.048799f, -0.134476f, -0.192923f, -0.089782f, 
		-0.000569f, -0.103575f, -0.062959f, -0.000238f, 0.109396f, 0.112889f, -0.099571f, 0.089678f, 
		0.127289f, -0.151264f, -0.054077f, 0.183897f, 0.115225f, -0.066339f, 0.068127f, -0.072294f, 
		-0.113435f, -0.098261f, -0.163931f, 0.123843f, 0.078229f, 0.033775f, 0.017209f, -0.105899f, 
		-0.011405f, 0.041308f, 0.036828f, -0.192607f, 0.128082f, 0.055020f, 0.133856f, -0.122109f, 
		-0.120208f, 0.067040f, 0.010646f, 0.122997f, 0.093479f, 0.165461f, -0.112835f, -0.024786f, 
		-0.132368f, -0.169956f, 0.103742f, -0.098450f, -0.005002f, 0.143618f, -0.122676f, 0.157393f, 
		-0.147577f, -0.001316f, 0.109890f, 0.123869f, 0.138531f, -0.154986f, -0.128740f, 0.168760f
	};
	// Hidden Biases (64)
	static const float B1[64] = {
		0.010000f, 0.010000f, 0.010000f, 0.010000f, 0.010000f, 0.010000f, 0.010000f, 0.010000f, 
		0.010000f, 0.010000f, 0.010000f, 0.010000f, 0.010000f, 0.010000f, 0.010000f, 0.010000f, 
		0.010000f, 0.010000f, 0.010000f, 0.010000f, 0.010000f, 0.010000f, 0.010000f, 0.010000f, 
		0.010000f, 0.010000f, 0.010000f, 0.010000f, 0.010000f, 0.010000f, 0.010000f, 0.010000f, 
		0.010000f, 0.010000f, 0.010000f, 0.010000f, 0.010000f, 0.010000f, 0.010000f, 0.010000f, 
		0.010000f, 0.010000f, 0.010000f, 0.010000f, 0.010000f, 0.010000f, 0.010000f, 0.010000f, 
		0.010000f, 0.010000f, 0.010000f, 0.010000f, 0.010000f, 0.010000f, 0.010000f, 0.010000f, 
		0.010000f, 0.010000f, 0.010000f, 0.010000f, 0.010000f, 0.010000f, 0.010000f, 0.010000f
	};
	// Hidden -> Output (Weights: 32x64)
	static const float W2[2048] = {
		-0.248993f, -0.168587f, -0.091479f, -0.048545f, -0.138890f, 0.006280f, 0.185208f, 0.247672f, 
		-0.215139f, -0.122054f, -0.034166f, 0.001784f, 0.002480f, 0.191822f, 0.105645f, 0.111047f, 
		0.096378f, -0.142962f, 0.159701f, -0.203931f, 0.002985f, 0.210399f, -0.070063f, 0.141235f, 
		-0.030460f, 0.131645f, -0.121420f, -0.027139f, -0.085545f, 0.204571f, -0.043147f, 0.196130f, 
		0.018566f, 0.084295f, -0.192396f, 0.027685f, -0.180672f, 0.022112f, -0.090506f, -0.046199f, 
		-0.241757f, -0.058936f, 0.247238f, -0.024776f, 0.048344f, -0.129104f, 0.013398f, -0.022473f, 
		-0.236170f, 0.041994f, 0.172111f, -0.013860f, -0.188683f, 0.135324f, 0.225903f, 0.118105f, 
		0.169775f, 0.061964f, 0.082857f, -0.126317f, -0.077418f, -0.154917f, 0.209991f, 0.122045f, 
		0.099617f, 0.083603f, -0.034682f, -0.028405f, 0.182653f, -0.134981f, 0.202927f, 0.167206f, 
		0.035968f, 0.110318f, 0.163251f, -0.073633f, -0.090567f, 0.129662f, 0.077338f, -0.203334f, 
		-0.188945f, -0.002681f, 0.058727f, 0.138269f, 0.177136f, -0.137625f, 0.249301f, -0.136679f, 
		-0.234989f, 0.087648f, -0.244968f, -0.152260f, 0.062483f, -0.093287f, -0.032126f, 0.165446f, 
		-0.192013f, 0.054045f, -0.167480f, -0.061240f, 0.031135f, 0.193919f, 0.011247f, -0.148539f, 
		0.067417f, 0.214275f, -0.104794f, -0.150293f, 0.123306f, -0.151329f, 0.115873f, -0.108271f, 
		-0.121458f, 0.041485f, -0.131886f, 0.051544f, 0.066959f, 0.165575f, 0.138424f, -0.177496f, 
		-0.089900f, 0.078728f, -0.133853f, -0.095827f, 0.167141f, -0.214756f, 0.233681f, 0.010284f, 
		0.117795f, -0.010097f, 0.152871f, 0.079556f, 0.207372f, -0.107423f, -0.116809f, -0.203240f, 
		0.152936f, 0.050625f, 0.024503f, 0.034748f, -0.068239f, -0.086715f, -0.169573f, 0.205501f, 
		-0.187691f, 0.113869f, -0.170414f, -0.060317f, 0.138016f, 0.202453f, 0.119765f, 0.184655f, 
		0.244688f, -0.118562f, 0.003167f, -0.130104f, 0.016976f, -0.038904f, -0.237235f, 0.004603f, 
		0.076793f, -0.129419f, 0.173925f, 0.023005f, 0.239985f, 0.136531f, 0.232766f, -0.020486f, 
		0.051713f, -0.000220f, -0.041711f, 0.111855f, -0.055328f, 0.107957f, -0.134836f, 0.120157f, 
		-0.157662f, -0.158145f, -0.171332f, -0.119997f, -0.078512f, 0.220862f, 0.153775f, 0.210533f, 
		0.219938f, 0.084684f, 0.143534f, 0.220361f, 0.076386f, -0.117377f, 0.036707f, 0.138848f, 
		0.189036f, 0.198212f, 0.175631f, 0.223763f, 0.052704f, 0.147424f, 0.158319f, -0.236071f, 
		-0.001060f, -0.036013f, 0.027684f, -0.126104f, -0.135187f, 0.020212f, -0.111361f, -0.247687f, 
		0.081545f, -0.017291f, 0.163521f, -0.220133f, 0.178302f, -0.057811f, -0.175885f, 0.155738f, 
		-0.131282f, -0.195450f, -0.007451f, 0.082881f, 0.000352f, -0.117392f, 0.204997f, 0.150925f, 
		-0.160204f, 0.085663f, -0.175216f, -0.222907f, 0.143380f, -0.051850f, 0.081952f, -0.007378f, 
		0.007545f, 0.151502f, 0.089886f, -0.012686f, -0.174510f, -0.014815f, 0.186875f, 0.189130f, 
		0.006593f, 0.177708f, 0.121800f, -0.239214f, -0.144410f, -0.132102f, -0.145092f, -0.140279f, 
		-0.019547f, 0.002026f, 0.194036f, -0.025379f, -0.185312f, 0.157821f, -0.016710f, -0.133675f, 
		0.196545f, -0.068846f, 0.094600f, -0.142525f, 0.070592f, -0.211330f, 0.102554f, -0.081495f, 
		0.054887f, 0.076918f, 0.105105f, 0.008736f, -0.221941f, 0.109772f, 0.239149f, -0.217249f, 
		0.003223f, 0.080783f, -0.178727f, -0.118556f, -0.055578f, 0.121727f, 0.182960f, -0.091364f, 
		0.119493f, -0.021094f, -0.213552f, -0.124131f, 0.112137f, -0.121294f, 0.207826f, -0.014272f, 
		-0.189764f, 0.042387f, -0.117524f, 0.246331f, 0.087894f, -0.084303f, 0.179663f, -0.025093f, 
		0.129903f, 0.076723f, 0.074851f, 0.049299f, 0.141898f, -0.021529f, -0.206094f, 0.189090f, 
		-0.019814f, 0.073094f, 0.141917f, -0.136099f, -0.183056f, -0.055089f, -0.245263f, 0.183170f, 
		-0.021208f, -0.241070f, -0.013141f, 0.001010f, 0.002064f, 0.069589f, -0.106464f, -0.028019f, 
		0.213234f, 0.206838f, -0.184992f, -0.088268f, 0.105571f, 0.033037f, 0.114046f, -0.042932f, 
		-0.193245f, -0.100472f, -0.135444f, -0.039126f, 0.235215f, -0.029166f, -0.061469f, 0.187055f, 
		-0.072272f, -0.249329f, -0.227359f, -0.207754f, 0.016527f, -0.172437f, -0.106396f, 0.096911f, 
		0.218352f, -0.053994f, 0.011516f, 0.144375f, -0.114677f, 0.193348f, 0.064540f, -0.075633f, 
		0.097689f, 0.134155f, -0.035942f, 0.203327f, -0.083746f, 0.214718f, 0.024870f, -0.096644f, 
		-0.096273f, 0.228744f, -0.107270f, 0.247346f, -0.024034f, 0.075667f, -0.086495f, -0.235935f, 
		-0.143051f, 0.025233f, 0.207435f, -0.136700f, 0.144213f, -0.094615f, 0.221783f, 0.126009f, 
		-0.154452f, -0.225701f, -0.111009f, -0.197965f, -0.021782f, 0.068091f, -0.121814f, -0.208335f, 
		0.234629f, 0.110928f, -0.248602f, 0.245131f, 0.063679f, -0.209541f, 0.117352f, -0.217816f, 
		0.239313f, 0.050004f, -0.040702f, 0.179101f, -0.240078f, -0.235669f, 0.107578f, -0.005129f, 
		-0.069541f, 0.098102f, 0.177848f, -0.114934f, -0.113612f, 0.234349f, 0.026650f, 0.028033f, 
		-0.179013f, -0.133112f, 0.242600f, 0.007050f, 0.069403f, -0.106416f, -0.079503f, -0.224958f, 
		-0.230166f, -0.036339f, -0.070057f, 0.121999f, -0.247535f, -0.012303f, 0.111786f, 0.229548f, 
		-0.042895f, 0.226731f, -0.179585f, -0.056163f, -0.066520f, 0.005151f, 0.142876f, -0.072292f, 
		-0.192943f, 0.039637f, -0.245696f, -0.229135f, -0.124745f, 0.183420f, 0.119524f, 0.162307f, 
		0.242598f, 0.166979f, -0.051577f, -0.099909f, 0.029455f, -0.022004f, 0.028157f, 0.003335f, 
		-0.219458f, 0.115473f, 0.169315f, 0.126260f, -0.003831f, 0.237541f, -0.004550f, 0.144654f, 
		-0.130908f, -0.069305f, 0.146832f, -0.030095f, 0.158058f, -0.138982f, -0.057636f, -0.065547f, 
		0.051817f, 0.029743f, 0.009471f, 0.243883f, -0.045610f, 0.039319f, -0.231827f, -0.222685f, 
		-0.093018f, -0.146957f, 0.248765f, -0.085610f, -0.008855f, 0.052089f, -0.038512f, 0.214985f, 
		-0.102717f, -0.061330f, 0.186224f, 0.195754f, -0.112166f, -0.048019f, 0.141265f, 0.124956f, 
		-0.197276f, 0.034355f, 0.050632f, -0.024086f, 0.079998f, -0.074821f, -0.195043f, 0.166815f, 
		-0.134862f, 0.190730f, 0.053049f, 0.113122f, 0.127088f, -0.128167f, -0.030218f, 0.154132f, 
		-0.105596f, 0.154632f, 0.134005f, 0.240443f, -0.153032f, 0.024957f, -0.067716f, 0.012668f, 
		0.120575f, 0.101457f, -0.109997f, 0.098065f, 0.206402f, 0.193131f, 0.073466f, -0.229606f, 
		0.236018f, -0.006374f, -0.051501f, -0.130011f, -0.129590f, -0.040357f, -0.001351f, -0.045670f, 
		-0.212047f, 0.158643f, 0.032143f, -0.082526f, 0.120063f, -0.230847f, 0.160176f, -0.024145f, 
		0.066598f, 0.160369f, -0.104111f, 0.017345f, 0.170141f, 0.012692f, 0.031392f, -0.104924f, 
		-0.135455f, 0.184495f, -0.141777f, 0.150883f, -0.226514f, -0.150769f, -0.121710f, -0.242886f, 
		-0.021471f, -0.008439f, 0.004610f, -0.111781f, 0.103756f, -0.120770f, -0.109589f, 0.085835f, 
		-0.099133f, 0.197984f, -0.169818f, -0.083433f, 0.236949f, -0.105134f, -0.100753f, 0.127657f, 
		-0.126702f, 0.045255f, 0.096203f, -0.053891f, -0.238363f, 0.239606f, -0.190560f, -0.095720f, 
		-0.202933f, 0.108404f, 0.195664f, -0.242090f, -0.203033f, -0.064416f, -0.042221f, 0.181148f, 
		-0.174714f, 0.228016f, -0.023208f, 0.063246f, -0.222231f, 0.010224f, 0.198151f, -0.076980f, 
		0.052824f, -0.138832f, -0.165593f, -0.058969f, 0.088455f, -0.120751f, -0.197213f, -0.119339f, 
		0.196615f, -0.229001f, 0.097143f, -0.201266f, -0.140062f, -0.000798f, 0.104326f, -0.005211f, 
		-0.093885f, -0.059123f, -0.137620f, 0.176752f, -0.129932f, -0.194257f, 0.154281f, 0.072005f, 
		-0.212844f, 0.058988f, 0.159880f, 0.102196f, 0.104101f, -0.173823f, -0.228409f, 0.173296f, 
		-0.005660f, -0.158550f, 0.163753f, 0.129255f, -0.010048f, 0.019393f, -0.019403f, 0.215075f, 
		-0.143267f, -0.038163f, -0.197133f, 0.127157f, 0.142500f, -0.201132f, 0.160364f, -0.237908f, 
		-0.184581f, -0.099641f, -0.167316f, 0.133371f, -0.224927f, -0.086552f, -0.181992f, 0.084433f, 
		-0.061249f, 0.026199f, -0.154546f, 0.071740f, 0.199968f, 0.223021f, 0.198583f, -0.213615f, 
		0.222813f, 0.017533f, 0.065231f, 0.120512f, 0.087434f, -0.217873f, -0.048298f, -0.165454f, 
		0.187578f, -0.150238f, -0.201741f, -0.056798f, -0.247016f, -0.032862f, -0.248295f, -0.051548f, 
		0.083550f, 0.077603f, -0.228927f, -0.067906f, -0.094195f, -0.242355f, -0.027411f, 0.114425f, 
		0.099920f, -0.218972f, -0.243964f, 0.110963f, -0.021311f, -0.137428f, -0.184130f, 0.216460f, 
		-0.117118f, 0.246889f, 0.167886f, -0.109463f, 0.062453f, -0.063526f, 0.178715f, 0.113009f, 
		-0.186377f, 0.238649f, 0.190630f, -0.092849f, 0.132857f, 0.226469f, -0.201444f, -0.097913f, 
		0.185882f, -0.075459f, -0.102092f, -0.146559f, -0.146301f, 0.205598f, -0.238022f, -0.134073f, 
		0.161051f, 0.038010f, 0.057625f, -0.184977f, 0.134209f, 0.035733f, 0.212535f, -0.022924f, 
		0.018938f, -0.050619f, 0.134462f, 0.042386f, -0.043191f, 0.172607f, -0.088424f, -0.112656f, 
		-0.001715f, 0.211632f, -0.180113f, 0.130859f, -0.137667f, -0.180095f, -0.037963f, -0.168245f, 
		0.137208f, 0.130501f, -0.207942f, -0.044138f, -0.051912f, -0.167073f, -0.158117f, 0.135437f, 
		0.009893f, -0.073855f, -0.092410f, 0.033252f, 0.015722f, 0.022430f, 0.068104f, -0.163070f, 
		-0.066923f, -0.123879f, 0.159337f, -0.119441f, -0.189742f, -0.121327f, 0.117988f, -0.096020f, 
		0.036830f, -0.064700f, -0.052870f, 0.110663f, -0.214243f, -0.131494f, -0.013921f, 0.231684f, 
		0.149891f, 0.245852f, 0.131969f, -0.103219f, -0.122720f, -0.174546f, -0.038867f, -0.197320f, 
		0.173202f, 0.131974f, 0.140623f, -0.006953f, -0.209521f, -0.201207f, -0.097663f, -0.013422f, 
		0.118834f, 0.032540f, -0.061981f, -0.102696f, -0.242932f, -0.149963f, -0.130826f, 0.048016f, 
		-0.049256f, -0.076393f, -0.133716f, -0.132889f, -0.236400f, 0.239349f, -0.024118f, -0.043019f, 
		-0.001556f, -0.231921f, -0.239224f, 0.046702f, -0.171829f, 0.167127f, -0.218959f, -0.159694f, 
		0.081386f, 0.220642f, -0.197916f, -0.105583f, 0.233709f, -0.134348f, -0.107855f, 0.243838f, 
		-0.120627f, -0.075731f, 0.175682f, -0.118571f, 0.041429f, 0.089026f, -0.218185f, 0.191795f, 
		0.137041f, 0.233890f, -0.242928f, 0.069231f, 0.136434f, 0.179670f, -0.121494f, 0.008025f, 
		-0.181213f, -0.189599f, -0.178843f, 0.174370f, -0.169795f, -0.109645f, 0.117777f, -0.166232f, 
		0.078192f, -0.035699f, 0.039997f, -0.234798f, -0.175526f, 0.227119f, 0.093998f, 0.212816f, 
		-0.099297f, -0.009698f, 0.030142f, -0.135812f, -0.113780f, -0.067367f, 0.045790f, -0.048448f, 
		0.105932f, -0.120046f, -0.227060f, -0.096789f, 0.018599f, 0.030014f, -0.240591f, 0.076670f, 
		0.101726f, -0.037594f, -0.013173f, 0.145841f, 0.107472f, 0.200233f, -0.155494f, 0.107576f, 
		-0.065450f, -0.011866f, -0.145268f, 0.122712f, 0.205620f, -0.007160f, -0.222578f, -0.136079f, 
		0.213885f, 0.196513f, 0.132493f, -0.232051f, -0.042229f, -0.106773f, -0.153396f, -0.096496f, 
		0.174270f, -0.175408f, -0.085809f, -0.217061f, 0.189061f, 0.207550f, 0.247235f, 0.016237f, 
		-0.118142f, 0.225318f, -0.225781f, -0.148592f, -0.097800f, 0.031795f, 0.231649f, 0.209886f, 
		0.097477f, -0.244860f, 0.053818f, -0.105829f, -0.153622f, -0.213909f, -0.064102f, -0.157747f, 
		-0.056809f, 0.097529f, -0.007999f, -0.150970f, -0.095057f, -0.061252f, -0.153947f, -0.003376f, 
		-0.156507f, -0.198945f, 0.052344f, 0.213216f, -0.227325f, -0.138253f, 0.080777f, 0.188980f, 
		0.011709f, -0.176730f, 0.178981f, -0.071329f, 0.109396f, -0.248651f, -0.219021f, -0.088229f, 
		0.214809f, -0.221818f, -0.131489f, -0.083851f, 0.002661f, -0.070194f, 0.197148f, 0.003145f, 
		0.077614f, -0.139071f, -0.162273f, 0.163495f, 0.183247f, -0.211430f, 0.190336f, 0.095848f, 
		0.237173f, 0.077722f, 0.038357f, -0.176480f, 0.004147f, -0.107010f, -0.234724f, 0.118325f, 
		-0.240933f, 0.165055f, 0.044434f, -0.024896f, 0.026404f, -0.163335f, -0.041708f, 0.084535f, 
		-0.071046f, -0.054949f, -0.094748f, -0.061904f, -0.130853f, 0.053487f, -0.044747f, -0.218595f, 
		0.151587f, -0.131036f, 0.038395f, -0.165076f, 0.208322f, -0.072423f, 0.056518f, -0.230841f, 
		-0.052767f, -0.096810f, -0.208041f, -0.237124f, -0.176005f, -0.115709f, -0.093877f, 0.247281f, 
		0.153814f, 0.120578f, -0.084246f, 0.202275f, 0.122887f, -0.014660f, 0.212903f, 0.113361f, 
		-0.179406f, -0.165900f, 0.134393f, -0.073328f, -0.194011f, -0.093947f, 0.037857f, 0.090947f, 
		0.150968f, 0.057170f, -0.237434f, -0.105321f, 0.094410f, 0.100241f, -0.126504f, -0.188905f, 
		0.234406f, -0.137022f, 0.188080f, 0.085007f, -0.230637f, 0.018480f, -0.045936f, -0.208480f, 
		0.183278f, 0.187219f, 0.090835f, 0.083073f, -0.073192f, 0.163506f, 0.201960f, 0.156261f, 
		-0.016153f, -0.097010f, -0.092486f, 0.075128f, 0.232983f, -0.064687f, 0.104370f, -0.203430f, 
		-0.222409f, -0.168425f, -0.078881f, 0.134322f, 0.120555f, 0.143217f, -0.106399f, 0.048976f, 
		-0.074083f, -0.051548f, 0.173363f, -0.005744f, -0.185959f, -0.063484f, 0.019184f, 0.047017f, 
		0.187082f, -0.034557f, 0.032932f, 0.035988f, 0.219528f, 0.216958f, 0.214239f, -0.045405f, 
		0.105482f, -0.070001f, 0.244228f, -0.234268f, -0.041575f, -0.223008f, -0.043380f, -0.248091f, 
		0.151593f, -0.030293f, -0.154304f, -0.083187f, 0.054402f, 0.189109f, 0.221146f, 0.142815f, 
		-0.065867f, -0.104090f, -0.026204f, 0.173442f, -0.201661f, -0.190165f, -0.096265f, 0.131227f, 
		-0.187834f, 0.001648f, 0.040020f, 0.122515f, -0.018558f, 0.149834f, -0.097058f, -0.193484f, 
		-0.080185f, 0.012927f, -0.073720f, 0.040317f, -0.128906f, 0.007469f, -0.094629f, 0.031497f, 
		-0.005320f, 0.196350f, 0.149931f, 0.186721f, 0.165507f, 0.246892f, 0.073226f, -0.084054f, 
		-0.067676f, -0.132829f, -0.130386f, 0.204392f, -0.030387f, -0.011298f, 0.134950f, -0.135733f, 
		0.105532f, 0.167647f, -0.043417f, -0.212392f, -0.155277f, -0.144830f, -0.122678f, -0.090602f, 
		-0.004346f, 0.031418f, -0.152466f, -0.202045f, 0.091291f, -0.112590f, 0.010779f, 0.080511f, 
		0.184745f, -0.211034f, -0.026438f, 0.049652f, -0.115929f, 0.000374f, -0.011588f, 0.105826f, 
		-0.122315f, 0.236686f, -0.201217f, 0.242114f, -0.096573f, -0.215720f, -0.192347f, -0.192024f, 
		0.149720f, 0.022298f, 0.159994f, -0.155802f, -0.080109f, -0.102350f, 0.185002f, 0.127023f, 
		-0.204734f, 0.240173f, -0.040024f, -0.047045f, -0.220652f, 0.192470f, 0.164567f, 0.052029f, 
		0.115779f, 0.142503f, -0.122063f, 0.201779f, -0.207841f, 0.107046f, 0.135369f, 0.195608f, 
		0.005589f, -0.178645f, 0.075819f, -0.221482f, 0.111865f, 0.076977f, -0.084349f, -0.236805f, 
		-0.231413f, -0.009070f, 0.020535f, 0.011662f, -0.050396f, 0.075218f, -0.203896f, -0.239438f, 
		-0.124169f, 0.049183f, 0.041453f, 0.224699f, -0.199836f, -0.224945f, 0.065555f, -0.056042f, 
		0.020205f, 0.161746f, 0.230603f, 0.027860f, 0.107245f, 0.183662f, -0.051701f, -0.106477f, 
		0.175482f, 0.204551f, -0.203632f, 0.105973f, 0.234427f, -0.138797f, -0.080216f, 0.182743f, 
		0.102373f, 0.016451f, -0.083589f, -0.249805f, -0.218027f, 0.029797f, -0.001474f, -0.092751f, 
		-0.016862f, -0.082896f, 0.099551f, 0.228490f, -0.107702f, 0.226590f, -0.026041f, 0.140667f, 
		0.144342f, 0.232818f, 0.000807f, -0.200131f, 0.086896f, 0.068082f, 0.181270f, 0.113716f, 
		0.200043f, 0.207391f, 0.139300f, 0.039251f, -0.118472f, 0.101990f, -0.240963f, -0.133277f, 
		0.093867f, 0.041986f, 0.142907f, 0.185175f, 0.136102f, 0.241332f, 0.179374f, -0.002656f, 
		-0.238101f, -0.130909f, -0.104544f, 0.098823f, -0.049077f, -0.183100f, 0.113477f, 0.215082f, 
		-0.020081f, 0.057042f, -0.046899f, 0.030010f, -0.104710f, 0.138676f, 0.066288f, -0.193843f, 
		0.068901f, 0.071319f, 0.001756f, 0.050315f, 0.052033f, 0.167545f, 0.154473f, 0.073969f, 
		-0.086691f, 0.010400f, 0.222397f, -0.196422f, 0.095425f, -0.180986f, -0.071159f, 0.226925f, 
		0.111667f, 0.066409f, 0.028726f, 0.076609f, 0.092360f, -0.164978f, 0.061087f, -0.046515f, 
		0.021057f, -0.244448f, -0.124064f, -0.211486f, 0.087510f, -0.003589f, -0.227287f, 0.013812f, 
		-0.081131f, 0.008360f, 0.029244f, 0.230567f, -0.142460f, -0.100158f, 0.112604f, -0.055426f, 
		-0.232847f, -0.025216f, 0.143864f, -0.189157f, -0.021190f, 0.073795f, -0.044086f, 0.161232f, 
		-0.047954f, 0.222214f, 0.219874f, -0.135049f, -0.124082f, -0.120591f, -0.129840f, -0.211852f, 
		0.060481f, -0.126850f, -0.143663f, -0.126781f, -0.172958f, 0.112316f, 0.175698f, -0.011814f, 
		0.192948f, -0.024430f, -0.077853f, -0.200655f, -0.128786f, -0.012835f, -0.197832f, 0.137710f, 
		0.006543f, -0.133171f, 0.249081f, 0.016072f, 0.198211f, -0.166101f, 0.094075f, 0.243094f, 
		0.222308f, 0.038506f, 0.182843f, -0.047334f, -0.090608f, -0.203514f, 0.150317f, 0.018763f, 
		-0.093292f, 0.161836f, 0.224892f, -0.233558f, -0.173236f, -0.069571f, 0.143808f, 0.115124f, 
		-0.189986f, 0.064449f, -0.238632f, -0.152676f, -0.153630f, 0.237817f, -0.112583f, 0.010837f, 
		-0.111066f, 0.238288f, 0.230403f, 0.228883f, -0.024835f, -0.189730f, 0.075796f, -0.101778f, 
		-0.021450f, -0.113370f, -0.210298f, 0.231721f, 0.240187f, -0.121407f, -0.056570f, -0.213361f, 
		0.079298f, -0.112671f, 0.136648f, -0.094332f, 0.006645f, 0.196146f, -0.197155f, 0.242198f, 
		-0.236227f, 0.157327f, 0.070484f, -0.063449f, 0.035266f, -0.232094f, 0.101876f, -0.119991f, 
		-0.030412f, -0.068170f, 0.206055f, -0.191601f, -0.221678f, -0.064469f, 0.144319f, 0.108698f, 
		0.091483f, 0.004702f, 0.193850f, 0.139820f, -0.147508f, -0.006258f, 0.232562f, -0.217357f, 
		0.003646f, 0.225982f, 0.147570f, 0.007954f, 0.093464f, -0.246774f, 0.157219f, -0.176567f, 
		-0.112644f, 0.198798f, -0.218180f, -0.216991f, -0.203658f, -0.220160f, 0.183769f, 0.021083f, 
		-0.227423f, 0.202840f, -0.245432f, 0.103852f, 0.024440f, 0.148695f, 0.035152f, -0.170712f, 
		-0.219604f, 0.098782f, -0.040440f, 0.040811f, 0.115126f, 0.025502f, 0.067270f, 0.144758f, 
		-0.143133f, 0.113110f, -0.213092f, -0.115392f, 0.202324f, -0.216388f, 0.245230f, 0.031797f, 
		-0.137015f, -0.026671f, -0.037219f, 0.214642f, 0.122547f, 0.200389f, 0.117324f, -0.215662f, 
		-0.151829f, 0.147736f, -0.127468f, -0.199760f, 0.218097f, 0.223706f, 0.147415f, 0.017430f, 
		0.034328f, -0.163572f, -0.084535f, 0.070486f, 0.110189f, -0.184070f, -0.000393f, 0.059056f, 
		-0.194534f, -0.191107f, 0.139772f, 0.089951f, -0.090068f, -0.104364f, -0.150082f, -0.108732f, 
		-0.223375f, 0.232587f, -0.173290f, -0.080101f, -0.154096f, 0.015266f, 0.041009f, -0.113418f, 
		0.087147f, 0.195900f, -0.242799f, 0.184429f, -0.123363f, 0.212616f, -0.244695f, 0.170791f, 
		0.012198f, 0.142051f, -0.249245f, 0.123092f, 0.078876f, 0.101107f, -0.144395f, 0.129096f, 
		0.069548f, -0.207880f, -0.059194f, -0.225897f, 0.060340f, 0.073824f, 0.004055f, 0.174843f, 
		-0.134140f, -0.240913f, 0.222687f, -0.031234f, 0.214979f, 0.001677f, -0.175753f, -0.107927f, 
		0.030604f, 0.085304f, 0.009222f, -0.138621f, 0.180784f, -0.216270f, 0.061250f, 0.138854f, 
		0.089928f, 0.106741f, -0.170801f, 0.118638f, 0.042224f, -0.231045f, 0.213213f, -0.070580f, 
		-0.152808f, -0.163586f, -0.214113f, 0.088691f, 0.133292f, 0.108523f, 0.115735f, -0.215384f, 
		0.023388f, -0.027965f, 0.088948f, 0.150659f, -0.221422f, -0.070709f, -0.114792f, -0.035532f, 
		-0.216654f, -0.082368f, 0.004983f, 0.062026f, 0.043231f, 0.011679f, 0.248262f, -0.174448f, 
		-0.185414f, -0.033419f, 0.153780f, -0.016912f, 0.046529f, 0.248026f, 0.008509f, -0.053494f, 
		0.232405f, 0.166899f, 0.010841f, 0.122251f, -0.006830f, -0.022364f, -0.155304f, 0.074395f, 
		-0.032481f, -0.125958f, 0.058709f, -0.214510f, 0.128976f, -0.207201f, -0.060521f, 0.016004f, 
		0.049441f, 0.148673f, -0.106903f, -0.127408f, 0.104506f, 0.091645f, -0.045497f, 0.034523f, 
		-0.009275f, 0.221262f, -0.156094f, -0.062795f, -0.076588f, 0.178866f, 0.140604f, 0.042652f, 
		-0.144608f, -0.074854f, -0.162960f, -0.158947f, -0.084222f, -0.103216f, -0.238220f, 0.026776f, 
		-0.128914f, 0.144523f, 0.047020f, 0.197974f, 0.140528f, -0.234273f, -0.025573f, 0.216270f, 
		0.052207f, -0.222549f, 0.017438f, 0.239805f, 0.203005f, 0.063124f, -0.151155f, 0.037463f, 
		-0.065933f, 0.130551f, -0.147719f, 0.174877f, -0.147890f, 0.218364f, 0.126858f, 0.049096f, 
		-0.062213f, -0.137071f, 0.039007f, 0.015284f, -0.204011f, 0.150348f, 0.174235f, -0.234226f, 
		-0.114464f, -0.030142f, -0.163669f, -0.197130f, -0.047069f, -0.050205f, -0.030887f, -0.111948f, 
		0.175040f, 0.244915f, -0.140012f, 0.224395f, -0.097299f, -0.090873f, 0.238597f, -0.020188f, 
		-0.055656f, -0.081238f, -0.079059f, -0.084617f, 0.181809f, 0.233489f, 0.120583f, 0.231840f, 
		0.230118f, -0.010993f, 0.195242f, 0.035868f, 0.030598f, -0.178033f, 0.165344f, 0.147757f, 
		0.091964f, -0.124468f, -0.053018f, 0.130785f, 0.204511f, 0.165033f, -0.233710f, 0.127342f, 
		-0.061042f, 0.129317f, 0.118606f, 0.240396f, -0.063101f, 0.216298f, 0.050389f, 0.048865f, 
		0.069889f, 0.201965f, 0.119581f, -0.073904f, 0.158660f, -0.066858f, -0.190923f, 0.064717f, 
		0.058618f, 0.242803f, 0.048359f, -0.062657f, 0.098008f, 0.048943f, -0.238256f, -0.069628f, 
		-0.097082f, -0.129798f, 0.130984f, -0.149130f, -0.114271f, -0.082592f, 0.201658f, -0.079776f, 
		0.012376f, 0.094482f, 0.227666f, -0.035300f, 0.222351f, -0.055322f, 0.249387f, 0.236502f, 
		0.177881f, -0.245863f, 0.121860f, -0.101866f, 0.156751f, 0.137302f, 0.076326f, 0.218748f, 
		-0.060787f, -0.206729f, -0.221881f, -0.019715f, -0.179194f, 0.137406f, -0.061860f, 0.145939f, 
		0.036231f, 0.000274f, 0.165388f, 0.099703f, 0.050616f, 0.042273f, 0.178803f, -0.218730f, 
		0.207977f, -0.006688f, -0.229609f, -0.145072f, 0.098026f, -0.022476f, -0.157292f, -0.010530f, 
		-0.076607f, -0.125150f, -0.032346f, 0.156791f, -0.055503f, 0.234170f, -0.077111f, 0.203954f, 
		0.133856f, 0.119326f, 0.197625f, -0.053575f, 0.032659f, -0.044279f, 0.104782f, 0.180921f, 
		0.174969f, 0.152767f, 0.199252f, -0.180194f, 0.113268f, -0.190764f, -0.157214f, 0.089691f, 
		0.225884f, -0.244174f, -0.087358f, -0.032332f, -0.232837f, 0.111058f, -0.074590f, 0.004535f, 
		-0.051164f, 0.163475f, -0.080339f, -0.130774f, 0.184174f, -0.173225f, 0.078201f, 0.016466f, 
		0.199202f, 0.040877f, 0.105909f, -0.073415f, -0.048382f, 0.084587f, 0.184477f, 0.140198f, 
		0.219430f, 0.094157f, -0.059617f, -0.172775f, 0.028058f, -0.144863f, -0.185219f, 0.155761f, 
		-0.117322f, -0.045356f, 0.008221f, -0.209861f, -0.244452f, -0.038947f, 0.140567f, -0.007308f, 
		0.155679f, -0.045091f, -0.155551f, 0.105865f, 0.226989f, -0.074624f, -0.216914f, 0.220721f, 
		-0.027846f, -0.037565f, -0.207186f, 0.197011f, 0.016628f, -0.028504f, 0.181729f, 0.193793f, 
		0.091219f, -0.230248f, 0.068531f, 0.168006f, -0.147061f, 0.226223f, -0.208330f, -0.107734f, 
		-0.090589f, 0.138321f, 0.158970f, -0.039837f, 0.191196f, 0.197331f, 0.248323f, -0.062298f, 
		0.030914f, -0.040666f, -0.119065f, -0.138084f, 0.155942f, -0.135953f, -0.118296f, 0.015592f, 
		0.136227f, -0.108105f, 0.023374f, 0.081392f, -0.057875f, 0.026127f, -0.013018f, 0.083264f, 
		-0.177729f, -0.173822f, -0.145982f, -0.154737f, -0.082479f, -0.077807f, 0.144332f, 0.086620f, 
		0.241404f, -0.144096f, 0.014366f, -0.227376f, 0.064852f, 0.185968f, -0.220132f, -0.154652f, 
		0.073750f, -0.224753f, -0.234077f, -0.129037f, -0.138747f, -0.243152f, 0.187835f, 0.164438f, 
		-0.038480f, 0.155409f, 0.071681f, 0.032400f, 0.131352f, 0.037990f, 0.123036f, -0.241749f, 
		0.086171f, -0.093161f, -0.061385f, -0.217973f, -0.117945f, -0.057420f, 0.085513f, -0.089557f, 
		-0.122549f, -0.102228f, -0.037706f, 0.203808f, 0.034204f, 0.109659f, 0.168607f, -0.096522f, 
		-0.045944f, 0.112928f, -0.046330f, -0.146172f, -0.203340f, -0.165626f, -0.110763f, 0.197409f, 
		0.071767f, 0.194604f, 0.236075f, -0.017018f, 0.150035f, -0.204202f, -0.212697f, 0.057601f, 
		-0.026168f, -0.105548f, 0.229350f, -0.120804f, -0.241465f, -0.220855f, 0.007625f, -0.124418f, 
		0.215479f, 0.047902f, 0.212279f, -0.175754f, -0.141595f, 0.181665f, -0.058763f, -0.149249f, 
		-0.146813f, -0.066158f, 0.171861f, -0.169875f, -0.143432f, 0.024006f, 0.167616f, -0.176244f, 
		0.071134f, -0.091402f, 0.244124f, 0.147610f, -0.219011f, 0.063174f, 0.178067f, 0.188421f, 
		-0.044598f, 0.047461f, 0.156943f, -0.060865f, 0.082759f, -0.020661f, -0.210333f, 0.224260f, 
		-0.109543f, 0.015067f, -0.163901f, -0.220501f, -0.238675f, -0.028373f, 0.088808f, 0.229253f, 
		0.022420f, -0.242877f, -0.166829f, -0.037854f, 0.177114f, 0.083219f, -0.024278f, -0.107859f, 
		0.044471f, 0.115082f, -0.055571f, 0.001722f, 0.144507f, 0.047549f, 0.080200f, 0.050461f, 
		-0.204768f, 0.010641f, -0.088363f, 0.033695f, 0.100233f, -0.158854f, -0.178146f, 0.039768f, 
		-0.120248f, 0.015345f, -0.114525f, -0.181307f, -0.177440f, 0.220823f, -0.092316f, -0.202954f, 
		-0.248464f, -0.217605f, -0.243029f, 0.074160f, 0.134804f, 0.155075f, -0.065908f, 0.220742f, 
		-0.060442f, -0.013201f, 0.119868f, -0.004458f, -0.221845f, 0.209575f, -0.103487f, 0.143302f, 
		-0.041536f, 0.197674f, -0.050003f, 0.014993f, -0.105378f, -0.010813f, -0.189091f, 0.126008f
	};
	// Output Biases (32)
	static const float B2[32] = {
		0.010000f, 0.010000f, 0.010000f, 0.010000f, 0.010000f, 0.010000f, 0.010000f, 0.010000f, 
		0.010000f, 0.010000f, 0.010000f, 0.010000f, 0.010000f, 0.010000f, 0.010000f, 0.010000f, 
		0.010000f, 0.010000f, 0.010000f, 0.010000f, 0.010000f, 0.010000f, 0.010000f, 0.010000f, 
		0.010000f, 0.010000f, 0.010000f, 0.010000f, 0.010000f, 0.010000f, 0.010000f, 0.010000f
	};
}

#endif
