#ifndef WEIGHTS_H
#define WEIGHTS_H

// Automatically generated weights

namespace weights
{
	// Input -> Hidden (Weights: 64x96)
	constexpr inline float W1[6144] = {
		-0.126439f, 0.009795f, 0.178523f, -0.087216f, -0.098883f, -0.117736f, -0.046902f, -0.186064f, 
		-0.101098f, -0.191596f, 0.053983f, -0.093283f, 0.182150f, 0.131694f, 0.189804f, 0.049011f, 
		0.181430f, -0.150066f, -0.170249f, -0.050036f, 0.183490f, -0.031419f, -0.134969f, 0.176543f, 
		-0.168213f, -0.073345f, 0.116239f, -0.170870f, -0.116901f, -0.020661f, -0.057961f, -0.148649f, 
		-0.067280f, -0.154265f, 0.140526f, -0.146158f, -0.046036f, 0.090164f, -0.025472f, -0.147311f, 
		0.090746f, -0.129288f, 0.102610f, 0.133692f, -0.157613f, -0.184660f, 0.021237f, -0.060815f, 
		-0.130813f, -0.050691f, 0.014225f, -0.082153f, 0.184497f, -0.070110f, -0.187545f, 0.001416f, 
		0.037272f, 0.096483f, 0.138489f, -0.020284f, -0.087067f, 0.121037f, -0.139541f, 0.038514f, 
		0.053263f, -0.038524f, 0.015807f, -0.154809f, -0.023345f, -0.009480f, 0.150769f, -0.085436f, 
		-0.018850f, 0.149895f, 0.044730f, 0.133405f, 0.074667f, -0.159996f, -0.050772f, -0.177695f, 
		0.062702f, 0.040522f, -0.074210f, -0.025423f, -0.179214f, -0.113880f, 0.017235f, 0.031762f, 
		-0.079870f, -0.089892f, 0.101512f, -0.080120f, -0.059451f, -0.114316f, -0.140843f, 0.147635f, 
		-0.160722f, 0.098844f, 0.126727f, -0.016447f, 0.124606f, -0.045631f, -0.096840f, -0.010326f, 
		-0.165762f, 0.093683f, 0.079947f, 0.168141f, 0.141287f, -0.161201f, 0.115884f, 0.002207f, 
		-0.111858f, 0.020442f, -0.176541f, -0.080626f, -0.181473f, 0.018955f, 0.146010f, -0.045528f, 
		0.115204f, -0.062997f, -0.134769f, -0.183538f, -0.144687f, 0.081455f, -0.091094f, 0.021047f, 
		0.059114f, -0.062286f, 0.080485f, -0.086389f, 0.024988f, 0.088797f, 0.134814f, 0.120629f, 
		-0.050320f, 0.169826f, 0.028683f, 0.156494f, -0.053350f, 0.158911f, -0.132482f, -0.108347f, 
		-0.147142f, 0.134629f, 0.160244f, -0.018983f, -0.186582f, -0.040937f, -0.083597f, -0.020587f, 
		0.170682f, 0.127850f, -0.063123f, -0.009907f, 0.084727f, -0.150305f, 0.130571f, 0.017628f, 
		0.109436f, 0.164021f, -0.101224f, -0.042917f, 0.113640f, 0.133296f, -0.122702f, -0.090097f, 
		0.190991f, -0.178647f, 0.105401f, -0.026623f, 0.146991f, 0.099352f, 0.073625f, 0.158625f, 
		0.122950f, 0.099511f, 0.123093f, -0.137196f, -0.190475f, -0.150065f, 0.035967f, -0.062089f, 
		0.066842f, -0.157672f, -0.098720f, -0.085182f, -0.012747f, 0.091569f, 0.018821f, 0.143438f, 
		-0.135777f, -0.183218f, 0.104544f, -0.174471f, 0.108404f, 0.019631f, -0.178592f, -0.048746f, 
		0.062038f, -0.024144f, 0.028369f, -0.137075f, -0.031902f, 0.156032f, -0.083721f, -0.059471f, 
		0.010815f, 0.178272f, -0.173328f, -0.111534f, 0.046028f, -0.161001f, 0.121024f, -0.039768f, 
		0.039501f, -0.112820f, -0.053803f, 0.134680f, -0.132545f, -0.084402f, 0.109306f, -0.094772f, 
		0.064171f, -0.179682f, -0.150720f, -0.120352f, -0.031051f, -0.063679f, 0.046476f, 0.048730f, 
		-0.114790f, 0.025954f, -0.005630f, -0.192713f, 0.090875f, -0.164888f, 0.034647f, -0.005180f, 
		-0.163309f, -0.087357f, -0.072517f, 0.009379f, -0.164756f, -0.060935f, -0.125001f, 0.113911f, 
		-0.125698f, -0.177669f, 0.008684f, -0.138461f, -0.034594f, -0.076693f, 0.052478f, -0.097566f, 
		0.108317f, -0.116959f, -0.143603f, 0.125791f, -0.107675f, 0.125251f, -0.011744f, -0.091065f, 
		0.083991f, -0.136884f, 0.096609f, -0.088300f, -0.079095f, -0.084267f, 0.027108f, 0.105276f, 
		-0.054450f, 0.067090f, -0.058237f, 0.148588f, 0.015500f, -0.035856f, 0.141827f, -0.063315f, 
		-0.086008f, -0.026043f, 0.162385f, 0.167437f, -0.116023f, 0.092751f, -0.020869f, -0.118928f, 
		-0.176631f, 0.002632f, -0.135545f, -0.042629f, -0.018925f, -0.190369f, 0.078296f, 0.109034f, 
		0.006470f, 0.000907f, -0.119925f, 0.134189f, -0.069796f, -0.141777f, -0.150490f, 0.188260f, 
		-0.167813f, 0.092774f, 0.024981f, -0.060844f, -0.121756f, 0.160908f, 0.143295f, -0.100714f, 
		-0.056181f, 0.024302f, -0.150511f, -0.086299f, -0.145608f, -0.013012f, 0.113956f, 0.110943f, 
		0.156846f, -0.033474f, 0.041912f, -0.178041f, -0.013263f, -0.184720f, 0.048140f, -0.054681f, 
		0.017148f, 0.082996f, 0.015459f, 0.114096f, 0.095927f, -0.069218f, -0.148364f, -0.051468f, 
		-0.187808f, 0.157624f, 0.132912f, 0.070731f, -0.146496f, 0.185145f, -0.090289f, -0.171068f, 
		-0.166855f, -0.047693f, -0.057303f, -0.117297f, 0.063448f, -0.003436f, -0.043171f, -0.180906f, 
		-0.172726f, 0.120160f, 0.135649f, 0.102250f, 0.103682f, 0.150810f, 0.063987f, 0.006216f, 
		0.166307f, -0.010701f, 0.127276f, -0.114970f, 0.032043f, -0.166987f, 0.097334f, -0.081601f, 
		0.115263f, 0.074593f, 0.191740f, 0.102477f, -0.117348f, 0.136004f, 0.036840f, 0.115499f, 
		-0.002898f, -0.075276f, 0.024863f, -0.030693f, 0.042612f, 0.014096f, -0.167420f, 0.147784f, 
		-0.101867f, -0.180476f, -0.062757f, 0.126882f, 0.077739f, -0.005316f, 0.155477f, -0.046949f, 
		0.000159f, -0.009647f, -0.030774f, -0.165148f, 0.038201f, 0.128170f, -0.010764f, -0.027715f, 
		-0.057488f, 0.057050f, 0.076691f, -0.013942f, -0.080182f, 0.137384f, 0.164878f, 0.089920f, 
		0.162859f, 0.175928f, 0.012966f, 0.155777f, 0.146595f, 0.163980f, 0.065665f, -0.191358f, 
		0.106446f, -0.181647f, 0.134515f, 0.030780f, -0.114019f, -0.074920f, -0.180885f, 0.147026f, 
		0.050275f, -0.032698f, -0.148908f, -0.121228f, -0.010907f, -0.029362f, -0.079452f, 0.080549f, 
		-0.116414f, -0.011886f, 0.058713f, 0.004783f, 0.030691f, 0.054821f, 0.081199f, 0.067045f, 
		0.028538f, 0.091591f, 0.045404f, -0.117200f, -0.093325f, 0.089358f, 0.010446f, 0.142116f, 
		-0.007310f, -0.059842f, -0.056768f, 0.008599f, -0.147616f, -0.104460f, -0.128886f, -0.093703f, 
		-0.115072f, 0.077288f, -0.136494f, -0.098613f, -0.011719f, -0.063888f, -0.112131f, -0.081644f, 
		0.110167f, 0.121619f, -0.067550f, -0.130672f, 0.119640f, 0.036320f, 0.151111f, -0.085598f, 
		-0.074229f, -0.017375f, 0.093913f, 0.084669f, -0.097964f, 0.080503f, -0.083089f, -0.157350f, 
		-0.093934f, -0.116173f, -0.029107f, 0.130216f, -0.113329f, -0.113029f, -0.164194f, 0.097753f, 
		-0.082012f, -0.010676f, -0.145422f, 0.167957f, -0.168385f, 0.188802f, -0.104012f, 0.036937f, 
		-0.072283f, -0.134101f, -0.110240f, -0.131569f, -0.144155f, -0.105573f, -0.067378f, -0.145480f, 
		0.110697f, -0.031778f, 0.039733f, -0.036688f, 0.007167f, 0.153820f, -0.101041f, -0.102328f, 
		0.062189f, 0.123681f, 0.074567f, -0.058872f, -0.097617f, -0.064194f, -0.192196f, -0.022920f, 
		-0.093144f, 0.183601f, 0.100715f, -0.074880f, -0.152748f, -0.149406f, -0.179063f, -0.155308f, 
		-0.173390f, -0.171493f, 0.117013f, 0.133918f, 0.113590f, 0.097292f, 0.059320f, 0.121296f, 
		0.017955f, 0.094210f, -0.063648f, -0.179025f, 0.117060f, 0.102285f, 0.046888f, -0.064261f, 
		0.051173f, 0.051092f, -0.028424f, -0.052681f, 0.013295f, -0.005966f, -0.006831f, -0.070999f, 
		-0.173091f, -0.029032f, -0.032420f, -0.187674f, 0.124458f, -0.161302f, -0.070241f, -0.034828f, 
		0.128860f, -0.165395f, 0.007784f, 0.173240f, 0.166251f, -0.002297f, 0.191554f, -0.001655f, 
		-0.103712f, -0.163930f, 0.059780f, -0.161068f, -0.032504f, 0.094225f, -0.094575f, -0.168479f, 
		-0.063551f, -0.072147f, 0.108346f, 0.124790f, 0.006543f, 0.160634f, -0.130437f, 0.093656f, 
		0.054814f, 0.057753f, -0.081783f, -0.112547f, -0.071550f, 0.021821f, -0.023239f, 0.109217f, 
		0.174881f, -0.035832f, -0.060223f, -0.123442f, -0.068401f, -0.180351f, 0.138894f, -0.094056f, 
		-0.152992f, 0.026073f, 0.073341f, -0.041748f, -0.077903f, -0.081388f, -0.019344f, 0.108705f, 
		-0.042091f, 0.091930f, -0.008310f, 0.008855f, -0.048411f, -0.061259f, -0.071798f, 0.138949f, 
		0.125654f, -0.138145f, 0.169701f, -0.034789f, 0.045249f, 0.085494f, 0.031209f, -0.159973f, 
		-0.182296f, 0.132524f, -0.138501f, 0.108856f, 0.034943f, -0.188155f, 0.092572f, 0.135978f, 
		-0.151371f, 0.187527f, 0.182484f, -0.048482f, 0.081436f, -0.038532f, 0.145449f, -0.191631f, 
		0.145558f, 0.064908f, -0.047882f, 0.132622f, -0.001523f, 0.191700f, -0.037030f, 0.074604f, 
		0.000287f, -0.122394f, 0.047426f, -0.128247f, 0.097407f, -0.042465f, 0.188479f, 0.079942f, 
		-0.103622f, -0.104084f, 0.088307f, 0.189780f, -0.157982f, -0.007178f, -0.055438f, 0.016486f, 
		0.169754f, 0.015699f, 0.049927f, 0.189966f, -0.035405f, 0.063645f, 0.013518f, -0.122491f, 
		-0.068184f, 0.088386f, 0.155677f, -0.096180f, -0.177772f, -0.050279f, -0.055292f, 0.045715f, 
		-0.025484f, 0.033962f, -0.170463f, 0.029356f, 0.186044f, 0.041156f, 0.182205f, -0.077239f, 
		0.152395f, -0.094157f, -0.049838f, 0.105202f, 0.052309f, 0.143614f, 0.104748f, 0.137744f, 
		0.184963f, -0.125300f, 0.035006f, -0.171967f, 0.159752f, 0.059638f, -0.035474f, 0.021778f, 
		-0.168481f, 0.026309f, 0.138857f, 0.080156f, 0.093916f, -0.178215f, -0.165827f, -0.124103f, 
		-0.062516f, -0.134796f, -0.192784f, -0.014471f, -0.135933f, 0.183794f, 0.029249f, -0.180131f, 
		-0.142057f, -0.103278f, 0.143152f, -0.016103f, 0.175231f, -0.165723f, -0.037295f, -0.008552f, 
		-0.009665f, 0.067781f, -0.068687f, 0.188658f, 0.139345f, 0.125601f, 0.102308f, -0.053983f, 
		-0.001640f, -0.054735f, -0.084360f, 0.125984f, 0.040526f, 0.024596f, -0.131764f, -0.182173f, 
		-0.168865f, 0.130093f, 0.140829f, 0.121445f, 0.095213f, -0.186723f, 0.169730f, -0.098423f, 
		-0.140779f, -0.031876f, 0.108913f, -0.143481f, 0.046757f, 0.165347f, -0.130659f, 0.079062f, 
		-0.000622f, -0.036948f, -0.183597f, 0.170939f, -0.011882f, -0.180821f, -0.176639f, -0.037564f, 
		0.068608f, -0.129923f, -0.128750f, -0.088843f, -0.149680f, 0.189546f, -0.070244f, -0.036440f, 
		-0.031020f, 0.059663f, 0.051240f, 0.134543f, -0.014597f, -0.044696f, -0.012590f, -0.061725f, 
		-0.039572f, 0.078509f, 0.098767f, -0.190125f, 0.165296f, 0.036961f, 0.011998f, 0.121803f, 
		-0.169871f, -0.037907f, -0.014363f, -0.039378f, -0.001826f, 0.171159f, 0.104079f, -0.156909f, 
		-0.008104f, 0.055256f, -0.156184f, 0.116753f, 0.021574f, -0.049023f, 0.113548f, -0.090752f, 
		0.124610f, 0.127797f, -0.186687f, -0.193156f, 0.096782f, -0.109208f, 0.026366f, -0.027309f, 
		0.177025f, -0.151998f, -0.130629f, -0.118746f, 0.035458f, 0.013408f, -0.159584f, -0.091782f, 
		-0.045256f, 0.116568f, -0.102485f, 0.043262f, -0.135738f, -0.080619f, -0.026964f, 0.084534f, 
		-0.166425f, -0.081023f, -0.124509f, 0.109216f, 0.131785f, 0.119576f, -0.137964f, 0.159470f, 
		-0.027113f, -0.045746f, 0.004894f, 0.124568f, -0.122798f, -0.091828f, -0.145608f, 0.102852f, 
		-0.142193f, -0.148137f, -0.185471f, 0.149175f, -0.156851f, -0.169067f, -0.192243f, 0.129424f, 
		0.013613f, 0.109857f, -0.061508f, -0.006193f, -0.150017f, -0.193514f, 0.024148f, -0.150577f, 
		0.187055f, -0.000469f, -0.055068f, 0.099850f, -0.064935f, 0.104469f, -0.159819f, 0.103393f, 
		-0.152919f, 0.146754f, 0.155469f, 0.069881f, 0.174890f, -0.018430f, -0.073174f, 0.003259f, 
		-0.060129f, 0.170479f, -0.146510f, 0.187858f, -0.135362f, -0.175461f, -0.024397f, 0.185183f, 
		-0.033917f, 0.115096f, -0.168968f, 0.107826f, -0.131818f, 0.067320f, -0.104980f, -0.130787f, 
		-0.105583f, -0.079575f, -0.093495f, -0.097490f, 0.127329f, -0.086200f, 0.032882f, -0.133104f, 
		0.162369f, -0.034589f, -0.045390f, -0.162381f, 0.112961f, -0.014323f, -0.172120f, -0.100506f, 
		-0.073681f, -0.118496f, -0.056480f, 0.175371f, -0.087830f, -0.038685f, -0.029805f, 0.145811f, 
		0.078221f, 0.101744f, 0.088592f, 0.031913f, -0.158833f, 0.116195f, 0.100344f, 0.157436f, 
		-0.058549f, 0.091394f, -0.174622f, -0.043514f, -0.162258f, -0.031674f, 0.038866f, 0.083261f, 
		-0.022521f, -0.040959f, 0.012790f, 0.025639f, 0.008671f, -0.155033f, 0.065196f, -0.142122f, 
		0.043989f, -0.060125f, -0.032289f, 0.071791f, 0.060129f, -0.034748f, -0.067894f, -0.092108f, 
		-0.170693f, 0.063563f, 0.177195f, -0.051148f, -0.024719f, -0.109996f, 0.019896f, 0.030368f, 
		-0.036615f, -0.082871f, -0.099372f, -0.161514f, -0.141378f, 0.020441f, -0.058143f, 0.186097f, 
		-0.058010f, 0.182867f, 0.186252f, 0.144095f, 0.020301f, 0.135038f, -0.148630f, -0.068924f, 
		0.107422f, -0.114373f, 0.096359f, 0.050050f, -0.066436f, -0.078534f, 0.021545f, -0.164572f, 
		-0.041153f, -0.134293f, 0.015184f, 0.152462f, -0.039142f, -0.009292f, -0.033662f, 0.149784f, 
		0.098121f, 0.082034f, -0.006110f, 0.013677f, -0.005209f, -0.068608f, -0.165429f, -0.025733f, 
		-0.134155f, -0.050321f, 0.162018f, 0.183879f, 0.014402f, 0.078841f, 0.116239f, -0.051233f, 
		-0.038622f, -0.115077f, 0.173880f, -0.059399f, -0.157615f, -0.132475f, 0.059912f, 0.109532f, 
		0.007966f, 0.133644f, 0.096454f, -0.138806f, 0.179265f, -0.038072f, -0.141575f, -0.173800f, 
		-0.193245f, -0.145035f, 0.044496f, -0.034846f, 0.065139f, -0.035820f, -0.098678f, 0.136142f, 
		0.168131f, -0.060760f, -0.086397f, 0.165723f, -0.184083f, 0.140209f, -0.138056f, -0.126334f, 
		0.163143f, -0.012272f, -0.144059f, -0.137804f, 0.107270f, 0.094530f, -0.116863f, -0.002701f, 
		-0.182092f, 0.019025f, 0.137435f, 0.086000f, -0.060787f, 0.047178f, 0.005166f, 0.035687f, 
		0.176933f, -0.160831f, 0.168972f, 0.075731f, 0.028562f, -0.024795f, 0.083203f, -0.149025f, 
		-0.089921f, 0.060392f, 0.017394f, 0.077111f, -0.161171f, 0.127463f, -0.068018f, 0.082597f, 
		-0.003947f, 0.086772f, 0.119147f, 0.099602f, 0.172902f, 0.095793f, 0.145210f, 0.064428f, 
		-0.116958f, 0.001381f, -0.131948f, 0.178459f, -0.128434f, -0.052176f, -0.067502f, -0.037927f, 
		-0.166911f, 0.125365f, 0.140776f, -0.165712f, -0.045789f, 0.030249f, 0.096638f, 0.117151f, 
		-0.151362f, 0.131957f, -0.131318f, -0.001100f, 0.115982f, 0.144453f, -0.141197f, 0.137977f, 
		0.122584f, -0.088818f, -0.088182f, 0.161385f, -0.133096f, 0.059783f, 0.060577f, 0.150313f, 
		0.004617f, -0.162655f, -0.078026f, 0.046620f, 0.170654f, 0.187401f, -0.131513f, -0.189130f, 
		0.064457f, -0.071827f, -0.144330f, -0.153535f, 0.066725f, 0.109266f, 0.049168f, -0.081111f, 
		-0.098037f, -0.005680f, -0.170016f, -0.095273f, -0.111952f, 0.043814f, 0.160942f, -0.119558f, 
		-0.115744f, 0.075369f, -0.090332f, 0.127115f, -0.126308f, -0.021466f, 0.060236f, -0.054613f, 
		-0.097238f, 0.064136f, 0.000694f, 0.039228f, -0.114696f, -0.133473f, -0.116664f, 0.044567f, 
		-0.009240f, 0.013413f, 0.049591f, 0.127414f, 0.154163f, -0.105964f, -0.044364f, -0.166894f, 
		-0.106620f, 0.163857f, -0.075184f, -0.116602f, -0.157493f, 0.182374f, 0.148749f, 0.123684f, 
		0.049443f, 0.138843f, 0.047104f, -0.038577f, -0.148478f, -0.048037f, -0.032768f, -0.019414f, 
		-0.021343f, 0.162707f, -0.170863f, 0.083169f, 0.066931f, 0.003481f, -0.177917f, 0.059179f, 
		-0.173516f, 0.131810f, 0.035981f, 0.074494f, -0.171382f, 0.183738f, 0.051224f, -0.149311f, 
		-0.065570f, 0.107707f, 0.127947f, -0.188312f, -0.064730f, -0.006481f, -0.023324f, -0.113692f, 
		0.162435f, 0.065730f, 0.149550f, 0.116023f, 0.144990f, -0.123217f, -0.038125f, 0.071234f, 
		0.115600f, -0.141010f, -0.151699f, 0.156884f, -0.079769f, 0.104131f, 0.159239f, 0.014323f, 
		0.034135f, 0.093726f, 0.041207f, -0.118965f, 0.016982f, 0.115213f, -0.022066f, 0.099706f, 
		-0.127724f, -0.114679f, 0.149157f, 0.131029f, 0.129361f, -0.061736f, 0.130191f, -0.048069f, 
		0.008068f, 0.009274f, -0.004369f, -0.092077f, -0.121201f, -0.183306f, -0.128486f, -0.114680f, 
		0.009967f, -0.049662f, 0.177417f, -0.180197f, -0.109897f, 0.144050f, 0.043154f, 0.006405f, 
		-0.097472f, 0.026747f, -0.003625f, -0.021903f, 0.173546f, -0.181169f, 0.049993f, 0.107723f, 
		0.159193f, -0.136915f, 0.136399f, -0.077506f, 0.108549f, -0.193104f, 0.053198f, 0.100310f, 
		-0.112335f, -0.069213f, -0.075960f, -0.078174f, 0.100857f, -0.184265f, -0.099207f, 0.149618f, 
		-0.085746f, -0.111858f, -0.143079f, -0.166584f, -0.018242f, 0.066812f, 0.061751f, 0.121254f, 
		0.023565f, -0.052899f, -0.183805f, 0.165452f, 0.029057f, -0.113239f, -0.005838f, -0.138083f, 
		-0.098720f, 0.020749f, -0.134604f, 0.099400f, 0.113756f, -0.173348f, -0.074227f, -0.060436f, 
		0.036851f, 0.103434f, -0.122172f, -0.171459f, 0.103150f, 0.187058f, 0.144400f, -0.164728f, 
		0.081330f, -0.008874f, -0.058133f, 0.013861f, 0.060010f, -0.191815f, 0.100401f, 0.026669f, 
		0.082461f, -0.025451f, -0.079812f, -0.122356f, 0.180082f, 0.022464f, -0.013324f, -0.055873f, 
		-0.183779f, 0.032082f, -0.051402f, 0.004314f, -0.113660f, -0.162001f, -0.042194f, 0.166103f, 
		-0.035693f, -0.066878f, 0.092516f, 0.126639f, 0.067110f, 0.149325f, -0.171276f, -0.044386f, 
		-0.184881f, -0.153598f, -0.176875f, -0.032553f, -0.174165f, -0.105444f, -0.186950f, -0.111013f, 
		-0.037597f, -0.082575f, 0.084824f, -0.020546f, 0.127473f, -0.001108f, -0.158399f, 0.088842f, 
		-0.180138f, 0.117920f, -0.147569f, 0.006040f, 0.155892f, -0.127212f, 0.015503f, -0.113901f, 
		0.065385f, 0.123559f, -0.031687f, -0.142087f, -0.089932f, -0.092913f, -0.172740f, -0.073309f, 
		0.060802f, 0.171210f, 0.009061f, -0.181328f, -0.121406f, -0.179801f, -0.172269f, 0.024902f, 
		-0.152810f, -0.000714f, -0.100692f, 0.151311f, -0.160145f, -0.066102f, 0.102904f, 0.148240f, 
		0.098612f, -0.044685f, 0.152286f, -0.069757f, -0.179157f, -0.044455f, 0.187678f, -0.167902f, 
		-0.049947f, -0.075607f, 0.066556f, 0.023367f, -0.038485f, -0.101914f, -0.151662f, -0.099511f, 
		-0.026130f, 0.155490f, 0.067034f, -0.153956f, 0.116324f, -0.055069f, -0.182013f, -0.090002f, 
		0.172236f, 0.044780f, -0.053085f, 0.183390f, 0.046290f, -0.013465f, -0.024617f, -0.103685f, 
		0.088546f, 0.156872f, 0.064348f, -0.154667f, -0.171548f, 0.116091f, 0.158264f, 0.086687f, 
		0.135363f, 0.025826f, 0.148857f, 0.078107f, -0.024944f, 0.112780f, 0.046770f, 0.025998f, 
		0.036515f, -0.157325f, 0.054057f, -0.028168f, 0.054443f, -0.041290f, 0.129069f, 0.074873f, 
		-0.173368f, 0.045301f, 0.047157f, -0.042490f, -0.151947f, 0.011154f, -0.156355f, -0.050662f, 
		-0.095677f, 0.188516f, -0.038036f, 0.160577f, -0.173910f, -0.039059f, 0.005104f, 0.044683f, 
		0.163476f, -0.077643f, 0.090168f, -0.066730f, -0.100250f, -0.160674f, -0.125774f, -0.056134f, 
		0.032923f, -0.029515f, -0.035428f, -0.153088f, -0.136187f, -0.074183f, 0.159540f, 0.086771f, 
		0.071565f, 0.177338f, -0.073093f, 0.114280f, -0.096369f, 0.072899f, 0.145213f, -0.055288f, 
		0.013278f, -0.069801f, -0.172492f, -0.059580f, -0.020048f, 0.061514f, 0.064198f, 0.038085f, 
		0.006334f, -0.041401f, 0.018306f, 0.063104f, -0.011886f, -0.094276f, -0.089674f, 0.160895f, 
		-0.090119f, -0.100115f, 0.054861f, -0.067371f, 0.164080f, 0.061350f, -0.168193f, 0.187272f, 
		-0.131103f, 0.108098f, -0.131039f, 0.107253f, -0.014588f, 0.008404f, -0.106790f, 0.069582f, 
		-0.016211f, -0.035622f, -0.047017f, -0.038902f, -0.125045f, 0.149036f, -0.170843f, -0.078745f, 
		0.041650f, -0.170946f, 0.033860f, -0.006433f, -0.062409f, -0.167203f, 0.154399f, 0.014322f, 
		-0.005008f, -0.017151f, 0.127241f, -0.184946f, -0.117108f, -0.025596f, -0.130262f, 0.018778f, 
		0.045218f, -0.084859f, -0.001196f, 0.034149f, -0.145823f, 0.069150f, 0.141929f, 0.064408f, 
		0.126360f, -0.183850f, -0.076787f, -0.092482f, -0.106592f, -0.106056f, 0.168953f, 0.120221f, 
		0.007312f, 0.126766f, -0.090421f, 0.125246f, 0.114604f, -0.073264f, -0.032047f, -0.115641f, 
		0.059960f, 0.107887f, -0.064319f, 0.080276f, -0.018067f, -0.150623f, -0.133671f, -0.016627f, 
		-0.021411f, -0.019133f, 0.165731f, -0.013373f, 0.097982f, 0.055943f, 0.000318f, -0.008273f, 
		0.179692f, -0.122932f, 0.069669f, 0.061290f, -0.066412f, -0.146668f, 0.070084f, 0.189109f, 
		-0.138820f, -0.154574f, -0.133565f, -0.193341f, -0.099132f, -0.010543f, 0.115667f, 0.139800f, 
		-0.056565f, 0.044717f, 0.181605f, -0.024093f, 0.071057f, -0.160312f, 0.176434f, -0.005660f, 
		-0.167503f, -0.185904f, 0.135124f, -0.022144f, 0.063337f, -0.133751f, -0.043603f, -0.038531f, 
		-0.078825f, 0.177854f, 0.010782f, 0.148405f, 0.055617f, 0.129121f, 0.019278f, -0.140598f, 
		0.035160f, -0.023587f, 0.192820f, -0.055638f, 0.149433f, 0.108710f, 0.099624f, -0.096682f, 
		-0.003548f, 0.116542f, 0.022722f, 0.117408f, 0.095500f, -0.145691f, -0.023160f, 0.112525f, 
		0.144305f, 0.148073f, 0.102899f, 0.127133f, -0.063341f, -0.010393f, 0.173824f, 0.120325f, 
		0.001900f, 0.075018f, 0.159928f, 0.185543f, -0.118578f, -0.092906f, -0.113635f, 0.002890f, 
		-0.145126f, 0.151229f, 0.108257f, 0.058008f, -0.138745f, -0.070300f, 0.123492f, 0.033397f, 
		-0.084576f, -0.010764f, -0.012003f, 0.110302f, 0.061549f, -0.160876f, -0.005507f, 0.182616f, 
		-0.185450f, 0.041615f, -0.192053f, -0.128507f, -0.149672f, -0.105836f, 0.148695f, -0.077461f, 
		-0.155975f, -0.036810f, -0.169289f, 0.117674f, -0.026207f, 0.075507f, -0.047435f, -0.077982f, 
		0.071703f, -0.032577f, -0.145908f, 0.177707f, -0.115123f, 0.077169f, 0.095795f, -0.078286f, 
		0.031125f, 0.090224f, -0.075989f, -0.087089f, 0.016742f, 0.147538f, -0.064879f, -0.094866f, 
		-0.135941f, 0.050853f, -0.147952f, 0.120968f, 0.083153f, -0.118368f, -0.184141f, 0.111284f, 
		0.149572f, 0.055597f, 0.096436f, -0.174229f, 0.019470f, -0.092987f, 0.176725f, 0.033014f, 
		-0.110949f, -0.097786f, -0.103795f, -0.110710f, 0.189532f, 0.169167f, -0.124477f, 0.112242f, 
		0.037109f, 0.104065f, -0.038125f, 0.134291f, 0.114888f, 0.175230f, 0.098774f, -0.126360f, 
		-0.028846f, 0.063493f, 0.055807f, 0.126854f, -0.180935f, 0.099889f, 0.090012f, -0.041332f, 
		-0.165651f, 0.058510f, 0.016958f, -0.080313f, -0.175807f, -0.014357f, 0.072211f, 0.121630f, 
		0.043078f, 0.153223f, -0.100442f, -0.026641f, -0.129315f, 0.052328f, 0.063395f, -0.112045f, 
		0.018609f, 0.046218f, -0.118739f, -0.065587f, 0.064538f, 0.049030f, -0.191378f, 0.083879f, 
		0.172016f, -0.059610f, -0.106481f, -0.156358f, 0.045810f, 0.071047f, 0.171865f, -0.158270f, 
		-0.083843f, 0.114211f, -0.015354f, -0.089738f, 0.036507f, 0.108377f, -0.169359f, 0.158983f, 
		0.135352f, 0.176517f, -0.155741f, 0.095314f, -0.191716f, -0.088736f, 0.026553f, -0.042053f, 
		-0.071707f, -0.114667f, -0.094363f, 0.011330f, -0.119402f, 0.169208f, 0.139965f, -0.034452f, 
		0.039427f, -0.175179f, 0.121993f, 0.096176f, -0.023056f, 0.124176f, -0.101070f, 0.008391f, 
		0.113376f, 0.165578f, 0.138143f, -0.169284f, -0.104611f, 0.089374f, 0.120327f, 0.072536f, 
		0.117906f, -0.013422f, -0.141059f, 0.181518f, 0.135537f, -0.032534f, -0.128537f, -0.070264f, 
		0.138209f, 0.179174f, 0.062296f, -0.080736f, 0.152400f, -0.127951f, -0.135177f, 0.171816f, 
		-0.118959f, 0.181739f, 0.028215f, 0.063862f, 0.111088f, -0.186228f, 0.081156f, 0.146843f, 
		-0.080920f, -0.024369f, -0.165921f, -0.188593f, 0.044230f, -0.081686f, 0.097949f, -0.090114f, 
		0.080230f, -0.175515f, -0.107971f, -0.147235f, 0.065316f, 0.075888f, -0.167321f, 0.109164f, 
		-0.082580f, -0.033108f, -0.143268f, -0.041514f, 0.176036f, -0.184363f, -0.143789f, -0.158858f, 
		0.060448f, -0.113685f, -0.130599f, -0.074290f, 0.181803f, -0.017207f, -0.067256f, -0.165573f, 
		0.162641f, 0.119179f, -0.134615f, -0.028086f, 0.036712f, -0.064067f, -0.166703f, 0.063373f, 
		-0.058586f, 0.151332f, 0.066269f, -0.059384f, 0.001868f, -0.140721f, -0.074587f, 0.003001f, 
		-0.183058f, -0.182489f, -0.013727f, -0.048017f, -0.018194f, -0.124228f, 0.171524f, -0.090112f, 
		-0.082463f, 0.128675f, -0.176726f, -0.182768f, 0.095636f, -0.124203f, -0.121708f, -0.110531f, 
		-0.014488f, 0.093703f, -0.190336f, 0.094015f, 0.182584f, 0.139580f, 0.088297f, 0.032843f, 
		0.159638f, -0.133572f, 0.004973f, -0.059395f, 0.081131f, -0.146581f, -0.119455f, 0.187411f, 
		-0.166620f, 0.034461f, 0.018439f, 0.023741f, -0.021219f, 0.058350f, -0.156445f, 0.026675f, 
		-0.183301f, -0.080453f, -0.058829f, -0.091891f, -0.108148f, 0.027606f, 0.071859f, 0.109925f, 
		-0.183676f, -0.058322f, -0.061628f, 0.111695f, -0.082475f, -0.044684f, -0.177752f, 0.038305f, 
		0.006424f, -0.159662f, -0.033081f, 0.131314f, 0.102735f, -0.007163f, 0.049291f, -0.138707f, 
		0.180481f, -0.075281f, 0.003986f, 0.080507f, -0.075157f, 0.154193f, 0.006966f, -0.006570f, 
		-0.024495f, -0.072334f, 0.098358f, 0.155516f, 0.099965f, 0.131090f, -0.163282f, 0.132743f, 
		0.165111f, -0.025181f, -0.169560f, -0.149230f, 0.087600f, -0.165659f, -0.092546f, 0.130466f, 
		0.003790f, -0.130560f, -0.110159f, 0.004430f, 0.019497f, -0.141945f, 0.047381f, -0.113192f, 
		0.158068f, 0.158368f, 0.124280f, -0.181304f, -0.005030f, -0.166395f, -0.063034f, -0.051291f, 
		-0.036893f, 0.067285f, 0.010758f, -0.003609f, -0.012198f, -0.012459f, -0.048965f, -0.088464f, 
		0.133657f, 0.148913f, -0.091454f, 0.128865f, -0.055429f, 0.073266f, 0.104849f, 0.065017f, 
		-0.148751f, 0.174852f, -0.165200f, 0.141877f, 0.055863f, -0.044801f, 0.037300f, -0.047929f, 
		0.104080f, 0.105820f, 0.156294f, 0.069481f, 0.082694f, 0.087165f, -0.152241f, 0.163089f, 
		-0.057300f, -0.067262f, -0.126065f, 0.177098f, -0.126510f, 0.020008f, 0.180799f, -0.100707f, 
		0.025437f, 0.131691f, -0.125586f, 0.024227f, -0.080439f, -0.009423f, 0.051682f, 0.035701f, 
		-0.153851f, -0.151159f, -0.043795f, -0.113629f, 0.054798f, -0.026060f, 0.045570f, -0.087343f, 
		0.173476f, 0.070476f, 0.058989f, 0.175052f, 0.118971f, -0.074857f, 0.107717f, 0.056071f, 
		-0.160465f, 0.092883f, -0.097846f, -0.097094f, -0.068019f, 0.097890f, -0.164289f, 0.066067f, 
		-0.192709f, 0.064513f, -0.153253f, -0.144344f, 0.185563f, -0.061980f, -0.069603f, -0.108144f, 
		-0.179788f, 0.013110f, -0.170142f, 0.089580f, 0.138588f, 0.073869f, -0.147177f, -0.156656f, 
		-0.157516f, 0.100183f, -0.035960f, 0.163709f, -0.154098f, -0.069960f, 0.069447f, 0.027164f, 
		-0.072569f, 0.071470f, 0.058696f, -0.073865f, 0.096420f, 0.062562f, 0.131949f, 0.095559f, 
		0.064412f, -0.035004f, 0.128225f, 0.093367f, 0.074738f, 0.090446f, 0.040476f, -0.070365f, 
		-0.147558f, -0.037201f, 0.188130f, 0.084451f, -0.073910f, 0.016103f, 0.111685f, 0.137281f, 
		-0.081619f, -0.151287f, 0.124409f, -0.155408f, 0.074106f, -0.184459f, -0.155248f, 0.012038f, 
		0.059925f, 0.020236f, -0.164821f, -0.025836f, -0.184631f, 0.071430f, 0.044734f, -0.008108f, 
		-0.067294f, 0.022758f, 0.091648f, -0.052999f, 0.046740f, -0.010853f, -0.057694f, -0.058716f, 
		0.055620f, 0.099242f, -0.039422f, 0.100358f, -0.030507f, -0.009344f, 0.000598f, -0.026942f, 
		-0.097405f, 0.106767f, -0.046943f, -0.118281f, 0.038221f, 0.047380f, -0.033245f, 0.058129f, 
		0.061092f, -0.110395f, -0.092056f, 0.184925f, -0.188311f, 0.130194f, -0.072340f, 0.099855f, 
		0.090668f, -0.009981f, 0.054940f, 0.014697f, 0.038251f, -0.131684f, -0.023481f, -0.073968f, 
		-0.146838f, 0.072543f, 0.119328f, -0.089071f, -0.047628f, -0.186806f, 0.006666f, 0.133907f, 
		-0.181127f, -0.017361f, -0.013352f, -0.013043f, -0.042773f, 0.043495f, 0.064189f, -0.130743f, 
		0.079864f, -0.153366f, 0.164208f, 0.036218f, -0.132785f, 0.003337f, -0.029606f, -0.063417f, 
		0.127024f, 0.187945f, -0.090675f, -0.134278f, -0.073530f, 0.003400f, 0.185987f, -0.144698f, 
		-0.108611f, 0.098885f, -0.101461f, -0.091340f, -0.007280f, 0.006389f, -0.193244f, -0.054044f, 
		-0.081326f, 0.190341f, 0.137750f, 0.170401f, -0.147247f, -0.177924f, 0.068376f, 0.136862f, 
		-0.148094f, -0.027485f, 0.117082f, 0.055315f, -0.066797f, 0.104954f, -0.179192f, 0.101193f, 
		0.100075f, -0.068187f, -0.157246f, 0.097239f, -0.063778f, -0.062589f, 0.132910f, 0.170637f, 
		-0.153231f, -0.085693f, 0.003892f, -0.130514f, 0.004517f, 0.131655f, -0.125881f, -0.067889f, 
		0.181638f, 0.120969f, 0.025224f, 0.045799f, -0.027418f, -0.080247f, 0.046789f, 0.031820f, 
		-0.135465f, 0.061808f, 0.082313f, 0.079388f, -0.140018f, -0.069482f, -0.009633f, 0.093632f, 
		0.162149f, -0.093892f, 0.017892f, 0.124849f, 0.129886f, 0.015156f, 0.116351f, 0.119517f, 
		-0.013245f, -0.142158f, 0.031776f, -0.022840f, 0.134121f, 0.060966f, -0.087144f, -0.132851f, 
		0.109139f, -0.068254f, 0.064058f, 0.099520f, -0.136610f, 0.181433f, 0.173301f, 0.166906f, 
		0.028808f, -0.177626f, -0.143826f, -0.178399f, 0.096435f, 0.020326f, 0.156741f, 0.192121f, 
		-0.139050f, -0.067763f, 0.172204f, 0.041068f, -0.063588f, 0.090784f, 0.030937f, -0.053028f, 
		0.137624f, 0.132484f, -0.024507f, 0.032738f, 0.054734f, 0.109956f, 0.111897f, 0.108747f, 
		0.058543f, 0.121091f, 0.059280f, 0.185144f, 0.037155f, -0.043916f, 0.076424f, -0.150422f, 
		0.001481f, -0.072124f, 0.105863f, 0.191229f, -0.135578f, 0.168989f, 0.056126f, -0.144481f, 
		-0.186044f, 0.144291f, -0.073914f, -0.037630f, 0.180444f, -0.013669f, -0.075446f, -0.037289f, 
		-0.192684f, -0.116212f, -0.104822f, 0.148182f, -0.193561f, 0.037964f, -0.082309f, -0.176109f, 
		-0.029969f, -0.187206f, -0.006726f, -0.027555f, -0.168342f, 0.034027f, -0.042543f, 0.041296f, 
		0.050762f, -0.051003f, 0.042140f, 0.158121f, 0.191587f, -0.092068f, 0.004756f, -0.073800f, 
		0.045026f, 0.048748f, -0.129692f, 0.170546f, -0.075727f, -0.026537f, -0.027572f, -0.134094f, 
		0.116355f, -0.132178f, -0.014465f, -0.026320f, 0.093928f, 0.043663f, 0.022591f, 0.054943f, 
		-0.044090f, 0.173449f, -0.114924f, 0.090430f, -0.033300f, -0.015841f, 0.107159f, -0.091773f, 
		0.138670f, -0.051304f, 0.096749f, 0.038089f, 0.109902f, 0.068154f, 0.138397f, 0.110754f, 
		0.013540f, -0.184716f, -0.039712f, 0.104800f, 0.169656f, 0.102028f, 0.137609f, 0.073808f, 
		0.059801f, 0.044354f, -0.056568f, 0.191892f, 0.129062f, 0.138461f, 0.171177f, 0.186769f, 
		-0.181281f, -0.151454f, -0.071413f, -0.161074f, -0.092277f, 0.018523f, -0.103480f, 0.119664f, 
		-0.072496f, 0.174089f, 0.035507f, -0.126581f, 0.013078f, 0.141853f, -0.082954f, -0.122044f, 
		-0.045379f, -0.160115f, -0.134372f, 0.088720f, -0.010832f, -0.105522f, -0.112585f, -0.106671f, 
		0.011929f, -0.118652f, -0.168774f, 0.029426f, 0.002566f, -0.045809f, -0.140823f, -0.171615f, 
		0.166031f, -0.116980f, -0.170907f, -0.026776f, 0.039247f, 0.164584f, 0.147029f, 0.133362f, 
		-0.088168f, -0.175089f, -0.045099f, 0.075789f, 0.005741f, -0.009003f, -0.031321f, -0.061684f, 
		0.039001f, 0.020594f, 0.048071f, 0.058742f, -0.053451f, -0.128128f, 0.065339f, -0.165014f, 
		0.106000f, 0.189562f, -0.093244f, 0.075573f, -0.002108f, 0.020830f, 0.139951f, 0.122755f, 
		-0.041137f, 0.032773f, -0.092673f, 0.059610f, -0.082377f, 0.188308f, -0.192137f, 0.029331f, 
		-0.072876f, -0.059043f, -0.014462f, 0.084758f, -0.192107f, 0.074101f, 0.064441f, -0.078557f, 
		0.018705f, 0.138429f, -0.153540f, -0.087107f, -0.171638f, 0.010526f, 0.059702f, -0.089251f, 
		0.178767f, 0.111656f, -0.161145f, 0.092007f, -0.189492f, -0.058893f, 0.025014f, 0.049257f, 
		0.092736f, -0.154392f, -0.087887f, 0.105770f, 0.142517f, -0.060600f, -0.153948f, -0.020822f, 
		0.135545f, -0.107929f, -0.055337f, 0.078494f, 0.055070f, 0.038242f, 0.047831f, -0.136127f, 
		0.164755f, 0.075319f, 0.119312f, 0.039009f, -0.101599f, -0.074408f, 0.147737f, -0.149323f, 
		-0.042636f, 0.185272f, -0.166241f, -0.096113f, -0.041141f, 0.085050f, 0.003689f, 0.155689f, 
		0.180802f, 0.015567f, 0.178381f, 0.047171f, 0.149639f, 0.061807f, 0.065998f, 0.041762f, 
		0.131350f, -0.113218f, -0.040041f, 0.120441f, -0.023481f, 0.099180f, 0.182762f, -0.007987f, 
		-0.154173f, -0.058819f, -0.042512f, -0.120074f, -0.173971f, -0.060398f, -0.063509f, -0.036819f, 
		0.110205f, -0.035221f, -0.020433f, 0.008000f, -0.095134f, 0.094812f, 0.131767f, 0.126605f, 
		-0.024859f, -0.054605f, 0.078741f, -0.192279f, 0.145057f, -0.161535f, -0.153199f, 0.092448f, 
		0.151841f, 0.126125f, -0.060059f, 0.109523f, 0.094432f, -0.074173f, -0.049177f, -0.179976f, 
		-0.064431f, 0.173371f, -0.144529f, -0.167673f, -0.156638f, 0.054087f, 0.049567f, -0.073143f, 
		0.113327f, 0.104094f, 0.160458f, 0.011491f, 0.009193f, -0.071004f, 0.015128f, -0.069045f, 
		-0.162807f, -0.012632f, -0.010500f, -0.052312f, -0.070442f, 0.013513f, 0.147752f, -0.044886f, 
		-0.158837f, -0.081132f, -0.030381f, -0.130287f, -0.077877f, 0.185081f, 0.044942f, 0.091583f, 
		0.173128f, -0.129742f, 0.167517f, -0.182205f, -0.124480f, 0.034833f, -0.121034f, 0.158269f, 
		-0.028137f, -0.045067f, 0.165350f, 0.094772f, 0.025289f, 0.006125f, 0.137924f, -0.103183f, 
		0.022607f, 0.058140f, 0.080317f, 0.073283f, -0.173097f, 0.027822f, 0.031160f, -0.114410f, 
		-0.072501f, -0.099207f, -0.035434f, 0.054956f, -0.031651f, -0.095140f, 0.059069f, -0.146365f, 
		0.135879f, 0.180796f, 0.127727f, 0.177700f, -0.146645f, 0.171210f, 0.020472f, -0.089446f, 
		0.176941f, -0.127792f, 0.154056f, 0.047815f, -0.028521f, -0.033103f, -0.091406f, -0.036444f, 
		-0.074876f, 0.079349f, 0.037820f, -0.077589f, -0.183996f, -0.105676f, 0.001174f, 0.079240f, 
		-0.141252f, -0.184393f, -0.049818f, 0.080449f, 0.089984f, -0.056892f, -0.142666f, -0.035872f, 
		-0.065414f, 0.115081f, -0.048617f, 0.062349f, 0.139111f, -0.090220f, -0.192475f, -0.066292f, 
		0.029986f, -0.095949f, 0.015065f, 0.024895f, 0.005942f, -0.163886f, 0.125718f, -0.008059f, 
		-0.032391f, -0.170001f, -0.121488f, 0.129015f, -0.146781f, 0.105762f, -0.055696f, -0.009066f, 
		0.046787f, 0.092638f, 0.163487f, -0.110364f, -0.091428f, -0.038718f, -0.111458f, 0.131590f, 
		0.170174f, -0.174803f, 0.155030f, -0.185451f, -0.097794f, 0.168335f, -0.079430f, 0.167048f, 
		0.127740f, -0.191896f, 0.059619f, 0.191552f, 0.134593f, 0.125898f, 0.141010f, -0.043781f, 
		-0.053354f, 0.171054f, -0.159754f, 0.126036f, -0.134445f, 0.073421f, -0.091038f, 0.052218f, 
		0.165599f, 0.173157f, -0.118636f, 0.132392f, 0.077897f, -0.045968f, -0.147828f, 0.080314f, 
		-0.120174f, 0.044926f, -0.012062f, 0.104228f, -0.044777f, 0.145470f, 0.135074f, -0.147353f, 
		0.129261f, -0.164822f, 0.126784f, -0.092113f, 0.152784f, 0.050102f, 0.028908f, 0.084058f, 
		0.143672f, 0.137607f, -0.070441f, 0.048235f, 0.047424f, -0.157995f, -0.146230f, -0.189952f, 
		-0.001683f, -0.075915f, -0.038652f, -0.098905f, 0.128669f, 0.100686f, -0.123956f, -0.173496f, 
		0.076531f, -0.097267f, -0.078841f, -0.127833f, -0.025866f, -0.030949f, -0.038990f, 0.018062f, 
		-0.124816f, 0.178890f, -0.133213f, -0.007413f, -0.102836f, -0.096018f, -0.120779f, -0.141693f, 
		0.125230f, -0.064440f, -0.034087f, 0.155263f, 0.015135f, -0.025860f, -0.110208f, -0.056682f, 
		-0.043289f, -0.133523f, 0.012342f, -0.166224f, 0.104346f, -0.189920f, 0.164435f, 0.099266f, 
		0.094944f, 0.172827f, -0.022174f, 0.035546f, 0.066186f, -0.135302f, -0.120601f, -0.082529f, 
		-0.021274f, -0.138634f, 0.091302f, -0.018223f, 0.141427f, 0.067467f, 0.074047f, 0.103520f, 
		-0.082782f, -0.032976f, -0.047537f, -0.155760f, 0.171255f, 0.012550f, -0.027249f, -0.147535f, 
		-0.154196f, 0.082096f, -0.035026f, 0.086854f, -0.025742f, 0.085105f, -0.152508f, 0.089846f, 
		0.008560f, -0.055445f, 0.094141f, 0.129166f, 0.114359f, 0.123049f, -0.143257f, 0.111197f, 
		0.181064f, -0.013100f, 0.069795f, -0.000377f, 0.118440f, -0.162653f, -0.060921f, -0.176951f, 
		-0.189662f, -0.018974f, -0.184292f, 0.134132f, -0.120578f, -0.161775f, 0.050443f, -0.083519f, 
		-0.096174f, 0.124243f, 0.053318f, -0.007318f, -0.010089f, -0.116437f, 0.048898f, 0.193155f, 
		-0.028476f, 0.164283f, 0.110990f, 0.121153f, 0.032477f, -0.054991f, -0.031143f, -0.008159f, 
		-0.018537f, 0.041146f, -0.071218f, 0.182112f, 0.005153f, -0.098069f, 0.024599f, -0.046082f, 
		-0.029698f, -0.002828f, -0.101167f, 0.043310f, 0.091100f, -0.161787f, 0.054319f, 0.057365f, 
		0.185414f, -0.178010f, -0.158351f, -0.157230f, 0.046556f, -0.102853f, 0.131956f, 0.143299f, 
		0.064848f, 0.069203f, 0.088542f, -0.167353f, -0.159383f, 0.171146f, 0.161364f, -0.002807f, 
		0.182599f, -0.097514f, 0.164158f, 0.035332f, -0.179410f, -0.153409f, -0.115609f, 0.119112f, 
		0.156478f, -0.159737f, -0.144946f, -0.040105f, -0.049622f, -0.014875f, -0.028416f, 0.119532f, 
		0.102730f, 0.169575f, 0.077315f, 0.179698f, -0.016783f, 0.105721f, -0.063805f, 0.180273f, 
		-0.008408f, -0.020366f, -0.139261f, -0.192382f, -0.012843f, -0.185873f, 0.138923f, -0.186573f, 
		0.117740f, 0.023135f, 0.164900f, 0.048838f, -0.068890f, -0.171509f, -0.167865f, -0.175635f, 
		0.182912f, -0.109714f, 0.101972f, -0.041140f, -0.120497f, -0.171211f, -0.120562f, -0.066466f, 
		-0.032204f, -0.049994f, 0.104618f, -0.014826f, 0.057127f, -0.020549f, -0.056852f, -0.103364f, 
		0.069057f, 0.008926f, -0.159857f, 0.073819f, -0.129250f, 0.034794f, -0.183947f, 0.132755f, 
		-0.140649f, 0.158319f, -0.142386f, -0.053484f, -0.099864f, 0.010208f, 0.039321f, -0.183372f, 
		-0.012520f, 0.089719f, 0.145114f, -0.098980f, -0.038890f, 0.072126f, -0.155129f, 0.070338f, 
		-0.183518f, -0.082881f, 0.041443f, 0.117393f, -0.102773f, 0.164701f, 0.163476f, -0.111917f, 
		0.031655f, -0.122275f, -0.184463f, 0.034626f, 0.084191f, -0.092020f, -0.027725f, -0.038352f, 
		-0.097781f, 0.152639f, 0.042443f, -0.091535f, -0.023891f, 0.101964f, 0.174380f, 0.104908f, 
		0.028895f, 0.125766f, -0.087004f, 0.092389f, -0.071347f, -0.117962f, -0.181257f, -0.084622f, 
		-0.000532f, -0.102544f, 0.171041f, -0.178569f, -0.181268f, 0.099939f, -0.101919f, 0.014735f, 
		0.099346f, -0.173204f, -0.123981f, 0.148447f, -0.052872f, -0.141950f, -0.182716f, -0.010015f, 
		0.069252f, 0.054805f, 0.183717f, 0.011740f, 0.068395f, 0.164534f, -0.186783f, 0.021768f, 
		0.018901f, -0.083639f, 0.010637f, -0.060754f, -0.124484f, -0.008976f, 0.176661f, 0.126017f, 
		-0.090884f, 0.174145f, 0.098383f, -0.155276f, -0.039165f, -0.011864f, -0.084458f, -0.155972f, 
		-0.173256f, -0.076432f, -0.189363f, 0.173245f, -0.188182f, -0.190382f, -0.192920f, 0.055611f, 
		0.058245f, -0.073075f, 0.002958f, -0.158993f, 0.052739f, 0.105817f, -0.154390f, 0.112708f, 
		-0.025335f, -0.185859f, -0.034719f, 0.026602f, -0.073530f, -0.119493f, -0.123721f, 0.011235f, 
		0.095497f, 0.104563f, -0.014589f, -0.145787f, -0.188705f, 0.147667f, -0.171502f, -0.075116f, 
		0.045952f, -0.169325f, -0.052632f, 0.190312f, 0.107570f, 0.032505f, -0.172769f, 0.058210f, 
		0.084138f, -0.117198f, 0.179130f, -0.020636f, -0.133824f, 0.024375f, 0.166593f, -0.180473f, 
		0.140283f, 0.044053f, 0.152856f, 0.116168f, -0.099561f, 0.053689f, -0.050635f, -0.147792f, 
		0.027189f, 0.147800f, 0.130625f, 0.140711f, 0.119728f, -0.123179f, -0.152316f, 0.021199f, 
		0.156458f, 0.169265f, -0.128377f, 0.056261f, 0.053065f, -0.044940f, 0.056975f, 0.122650f, 
		-0.133190f, 0.007147f, 0.182289f, -0.172327f, 0.063852f, -0.034808f, 0.174237f, 0.149715f, 
		-0.070328f, 0.014078f, -0.028474f, 0.185150f, 0.020660f, 0.073160f, -0.064958f, 0.087481f, 
		-0.170498f, 0.016073f, -0.165555f, 0.093716f, -0.104389f, -0.138117f, -0.123316f, 0.018692f, 
		0.077602f, -0.062478f, -0.078517f, -0.124635f, 0.154613f, 0.020165f, -0.056823f, 0.110807f, 
		-0.130461f, 0.169798f, -0.111410f, 0.130389f, 0.040405f, 0.047492f, 0.176576f, -0.166123f, 
		0.142888f, -0.079586f, 0.006906f, -0.034312f, -0.107029f, -0.088086f, -0.168834f, -0.059971f, 
		-0.118752f, 0.073717f, 0.153105f, -0.073194f, -0.180664f, 0.133519f, 0.098600f, 0.047998f, 
		-0.108988f, 0.168832f, -0.138729f, 0.191416f, -0.113384f, -0.154179f, 0.144884f, -0.092543f, 
		-0.118430f, 0.020777f, -0.016034f, 0.039356f, 0.144308f, 0.180835f, 0.031849f, -0.013530f, 
		0.027828f, 0.170274f, 0.019486f, 0.048813f, 0.116397f, 0.030916f, 0.167632f, -0.095377f, 
		0.013115f, -0.032807f, -0.153155f, -0.093554f, 0.156770f, 0.011682f, -0.054230f, -0.035365f, 
		-0.070480f, -0.016111f, -0.112230f, 0.131142f, -0.021863f, 0.105037f, -0.041671f, -0.128026f, 
		0.177444f, -0.124793f, 0.001399f, 0.149708f, -0.000943f, 0.056834f, -0.161834f, 0.046026f, 
		0.157030f, -0.009836f, -0.099231f, -0.141757f, -0.095284f, 0.158795f, 0.001482f, 0.090521f, 
		0.143843f, -0.124681f, 0.103393f, -0.058310f, 0.075170f, 0.062953f, -0.086959f, -0.114151f, 
		0.158907f, -0.011506f, 0.046614f, 0.010723f, 0.066224f, 0.041599f, 0.016123f, -0.161952f, 
		-0.097826f, -0.130059f, 0.130564f, 0.094242f, 0.097407f, -0.014790f, -0.158968f, -0.082429f, 
		-0.104639f, -0.176208f, -0.121263f, -0.159991f, -0.053263f, 0.055635f, 0.033394f, -0.027819f, 
		0.116675f, -0.072155f, -0.079391f, -0.149899f, 0.172486f, 0.136676f, -0.007547f, -0.024136f, 
		0.108947f, 0.152761f, 0.044918f, -0.160005f, 0.074777f, 0.019344f, -0.086432f, -0.119327f, 
		-0.181982f, 0.177738f, 0.176879f, 0.056254f, -0.042865f, 0.115802f, -0.044444f, -0.070734f, 
		-0.058313f, -0.133472f, 0.185684f, 0.139998f, 0.007383f, 0.032321f, 0.037465f, 0.065059f, 
		-0.035684f, 0.132676f, -0.097698f, 0.120394f, 0.069458f, -0.164331f, 0.152437f, 0.071179f, 
		0.125393f, 0.098249f, 0.168006f, -0.126604f, -0.079626f, 0.064074f, 0.018661f, -0.100914f, 
		0.058550f, 0.089625f, -0.056900f, -0.135966f, -0.179249f, 0.048099f, -0.163671f, 0.063018f, 
		-0.041216f, -0.097153f, -0.085360f, 0.118904f, -0.173358f, -0.094427f, 0.104182f, -0.102394f, 
		0.012023f, -0.058521f, -0.081056f, 0.013715f, 0.134691f, 0.008714f, 0.077778f, 0.096397f, 
		-0.176635f, -0.057072f, -0.061984f, -0.026075f, 0.078584f, -0.036146f, 0.057711f, -0.173240f, 
		-0.013262f, -0.107406f, -0.139037f, 0.134968f, 0.151141f, -0.000508f, -0.061660f, 0.115561f, 
		0.025868f, -0.019341f, 0.041609f, 0.038153f, 0.070653f, 0.063746f, -0.032539f, 0.040642f, 
		-0.189709f, 0.046104f, -0.012939f, -0.108488f, 0.041144f, -0.179818f, -0.023749f, 0.040117f, 
		0.187107f, 0.039570f, -0.170760f, 0.091004f, -0.044696f, -0.029097f, -0.026413f, 0.134675f, 
		-0.159897f, -0.154181f, 0.026594f, -0.186928f, -0.016946f, 0.016300f, 0.023268f, -0.159985f, 
		-0.016333f, -0.180293f, -0.175808f, 0.089712f, 0.161784f, 0.075706f, 0.159328f, -0.041355f, 
		0.065831f, 0.080516f, -0.070304f, -0.098251f, -0.056136f, -0.149287f, 0.056036f, 0.012905f, 
		0.005169f, 0.053844f, 0.147054f, -0.114525f, 0.162965f, -0.140104f, -0.000854f, -0.174694f, 
		0.023108f, -0.182490f, -0.024495f, 0.082929f, -0.124956f, 0.048985f, 0.037132f, -0.150583f, 
		0.084914f, -0.082074f, -0.027812f, 0.119090f, -0.191463f, -0.110497f, -0.141612f, 0.041833f, 
		-0.067367f, 0.177241f, 0.166743f, -0.056145f, 0.135216f, -0.182751f, -0.192974f, 0.111966f, 
		0.167803f, 0.042036f, 0.182551f, 0.004307f, 0.041395f, -0.002188f, -0.071101f, -0.053609f, 
		0.040157f, -0.083634f, -0.026325f, -0.130486f, 0.082710f, -0.173857f, 0.008524f, -0.112219f, 
		-0.098107f, -0.178856f, -0.078352f, -0.063582f, -0.189406f, 0.104197f, -0.003269f, -0.061945f, 
		-0.090571f, 0.179697f, 0.045860f, -0.159003f, 0.097610f, -0.184919f, 0.143809f, -0.088603f, 
		0.042335f, -0.174170f, -0.039560f, 0.192505f, 0.114063f, -0.080540f, 0.103935f, -0.024912f, 
		-0.144462f, 0.027061f, 0.132935f, -0.020775f, 0.078276f, 0.107300f, -0.146471f, 0.044864f, 
		0.169950f, 0.066421f, 0.103041f, 0.163058f, -0.098308f, 0.006632f, -0.084033f, -0.075007f, 
		-0.143583f, 0.145366f, 0.100797f, 0.038650f, 0.027387f, -0.149383f, 0.012927f, -0.168138f, 
		-0.027284f, 0.095129f, -0.051010f, 0.058966f, 0.064219f, -0.022543f, 0.145456f, 0.003287f, 
		-0.074830f, 0.109690f, 0.099560f, -0.166986f, -0.170518f, 0.096314f, -0.118094f, 0.077564f, 
		-0.117256f, 0.097684f, -0.010392f, 0.190506f, 0.173309f, 0.061991f, -0.182484f, -0.062307f, 
		0.064964f, -0.070638f, 0.089767f, 0.096916f, -0.140158f, -0.110160f, -0.058077f, -0.090778f, 
		-0.097763f, -0.065685f, -0.017354f, -0.148195f, -0.113770f, 0.030168f, 0.085317f, -0.108057f, 
		0.119818f, -0.160442f, 0.147961f, -0.014789f, 0.122309f, -0.015865f, 0.185914f, 0.037567f, 
		0.014964f, -0.152321f, -0.134671f, 0.125117f, -0.180056f, -0.123414f, -0.017855f, 0.097469f, 
		0.113206f, 0.166150f, 0.185872f, 0.184510f, -0.009447f, 0.125942f, 0.161590f, 0.144385f, 
		0.035625f, -0.172085f, -0.035178f, 0.189772f, 0.017487f, 0.066949f, 0.015904f, -0.162838f, 
		0.046591f, -0.074161f, 0.002492f, -0.116185f, -0.091433f, 0.058819f, 0.043896f, 0.116420f, 
		-0.133423f, -0.019035f, 0.156668f, 0.016580f, 0.138359f, 0.152293f, 0.143882f, -0.055519f, 
		0.165901f, 0.006348f, -0.138339f, 0.157576f, -0.114982f, 0.081380f, 0.094960f, 0.089742f, 
		0.176008f, -0.159426f, -0.180528f, -0.038734f, 0.119806f, -0.141603f, 0.146825f, 0.062240f, 
		0.078487f, 0.106913f, -0.127058f, 0.094265f, -0.187339f, -0.007746f, -0.076620f, 0.043296f, 
		0.167960f, 0.045913f, 0.188370f, -0.173919f, 0.139275f, -0.122920f, 0.131052f, 0.146754f, 
		-0.161000f, 0.044263f, 0.072516f, -0.051062f, 0.018764f, 0.186368f, -0.152665f, -0.138647f, 
		-0.124201f, 0.009293f, 0.041091f, -0.091756f, -0.012802f, 0.002053f, 0.102638f, -0.064155f, 
		-0.147115f, -0.039983f, 0.094757f, 0.071116f, -0.185904f, 0.007877f, -0.086767f, 0.167299f, 
		0.102919f, -0.175160f, 0.038466f, -0.071502f, 0.168941f, 0.015015f, -0.098280f, -0.063178f, 
		-0.023522f, 0.152692f, -0.147640f, 0.105633f, 0.099223f, 0.016269f, 0.040339f, -0.083571f, 
		0.114816f, 0.145677f, 0.048206f, -0.087389f, 0.113610f, 0.156894f, -0.095646f, -0.047523f, 
		0.025331f, 0.158752f, -0.004751f, -0.015074f, -0.015999f, -0.039890f, -0.154180f, 0.134317f, 
		0.004481f, -0.043911f, 0.102921f, -0.087534f, 0.035967f, -0.134434f, 0.107876f, 0.074175f, 
		-0.166425f, 0.025397f, 0.114859f, 0.184068f, 0.025988f, 0.041303f, -0.140045f, -0.187533f, 
		0.091495f, 0.024809f, -0.163826f, 0.005262f, -0.161155f, -0.075298f, -0.190555f, -0.017178f, 
		0.148148f, 0.065647f, -0.044574f, -0.070583f, 0.101616f, -0.051838f, -0.061088f, 0.166117f, 
		-0.056788f, -0.142036f, -0.120382f, 0.114834f, -0.132318f, -0.103006f, 0.158738f, 0.147510f, 
		0.101824f, 0.010167f, -0.181848f, -0.106798f, -0.015159f, 0.121123f, 0.047164f, -0.132925f, 
		0.133803f, 0.113546f, 0.042635f, -0.158907f, 0.027480f, 0.120354f, -0.055820f, 0.084204f, 
		0.141590f, 0.009750f, -0.084580f, 0.126511f, 0.193100f, -0.095686f, 0.091371f, -0.189778f, 
		-0.053116f, 0.029171f, 0.051829f, -0.191732f, 0.034991f, 0.054610f, -0.013260f, -0.129416f, 
		0.106708f, 0.047030f, 0.073903f, -0.152982f, 0.144204f, -0.052585f, -0.120319f, 0.181127f, 
		-0.069232f, -0.017190f, -0.093897f, 0.033799f, 0.153225f, 0.176242f, -0.043614f, 0.110202f, 
		0.193546f, -0.041319f, 0.188474f, -0.191190f, -0.121728f, 0.157516f, 0.029202f, 0.021925f, 
		0.114504f, 0.090504f, 0.189319f, -0.176119f, 0.082653f, -0.082736f, -0.136447f, -0.121646f, 
		0.088703f, 0.045756f, -0.133379f, 0.017946f, 0.133977f, 0.087358f, -0.024911f, 0.038109f, 
		-0.041002f, -0.170767f, 0.182428f, 0.033550f, 0.152551f, 0.190143f, -0.172189f, 0.008317f, 
		-0.102632f, 0.081755f, -0.149010f, 0.020808f, -0.093010f, 0.056759f, 0.107226f, -0.139275f, 
		-0.030087f, 0.108687f, -0.176176f, 0.051173f, 0.006186f, 0.104466f, -0.167933f, 0.131667f, 
		-0.022501f, 0.003101f, -0.080711f, -0.009843f, 0.081518f, 0.074251f, -0.189836f, -0.118326f, 
		-0.187785f, 0.020602f, 0.145782f, -0.105418f, 0.188287f, -0.023735f, 0.173981f, -0.060970f, 
		-0.143219f, 0.019317f, 0.132427f, 0.009379f, -0.030136f, 0.115099f, 0.138015f, 0.137418f, 
		0.120648f, 0.143808f, -0.112095f, 0.121965f, 0.134012f, 0.128125f, -0.005464f, -0.106198f, 
		-0.184108f, -0.176110f, 0.002573f, -0.183962f, -0.158750f, 0.135420f, 0.081274f, -0.121966f, 
		-0.063024f, -0.128379f, 0.064649f, -0.064521f, -0.137407f, 0.058130f, 0.176669f, 0.157057f, 
		0.090155f, -0.147480f, 0.038058f, 0.135402f, -0.118839f, 0.169621f, 0.034515f, -0.114998f, 
		-0.072219f, -0.002320f, -0.105843f, -0.143941f, -0.128665f, -0.093462f, 0.008316f, -0.010711f, 
		-0.193448f, -0.039583f, -0.130210f, 0.148131f, -0.189765f, -0.139356f, 0.086330f, 0.048395f, 
		0.007249f, -0.062344f, 0.045901f, 0.175231f, -0.082339f, -0.154924f, 0.187414f, 0.027876f, 
		-0.181119f, 0.034795f, -0.111102f, -0.002782f, -0.114521f, -0.006742f, 0.173011f, -0.138613f, 
		0.117414f, 0.054141f, -0.192633f, 0.026282f, -0.088708f, -0.029059f, -0.190898f, 0.101688f, 
		-0.021327f, -0.164980f, 0.147390f, 0.046269f, -0.063822f, -0.016821f, -0.181624f, 0.108983f, 
		0.028811f, 0.072912f, 0.031636f, -0.039036f, -0.181715f, 0.060287f, -0.048831f, -0.086938f, 
		-0.070064f, -0.153326f, 0.096354f, 0.069428f, 0.002976f, -0.100379f, 0.087748f, -0.045515f, 
		0.060474f, 0.018923f, -0.180867f, -0.094250f, 0.008644f, -0.081017f, -0.078717f, 0.127604f, 
		0.139429f, -0.170321f, 0.175503f, -0.149945f, 0.003292f, 0.033519f, 0.127019f, -0.063191f, 
		0.100250f, -0.144411f, -0.111936f, 0.169391f, 0.057704f, 0.159302f, -0.000857f, 0.042796f, 
		0.154526f, 0.158018f, -0.079132f, -0.101926f, -0.134695f, -0.180099f, 0.058820f, 0.023513f, 
		-0.091627f, -0.159955f, -0.024374f, -0.120615f, 0.151306f, -0.137844f, -0.145663f, -0.065211f, 
		-0.144782f, 0.143770f, 0.121476f, -0.191590f, -0.127252f, -0.094090f, -0.121533f, -0.067227f, 
		0.180788f, -0.115844f, -0.034286f, 0.058741f, 0.032101f, 0.188358f, -0.176856f, -0.079227f, 
		0.154801f, -0.111625f, -0.006024f, 0.118817f, -0.125261f, -0.068182f, -0.059861f, -0.073560f, 
		-0.046698f, 0.161482f, -0.125842f, 0.040623f, 0.085058f, 0.046053f, 0.050005f, 0.139627f, 
		0.108852f, 0.162834f, 0.131974f, -0.081733f, 0.053288f, 0.111456f, 0.067125f, -0.153805f, 
		0.034110f, -0.084243f, 0.126146f, -0.173761f, 0.170371f, 0.075411f, -0.095896f, 0.008920f, 
		-0.062715f, 0.162290f, -0.064581f, -0.018176f, -0.018822f, 0.120035f, -0.162977f, 0.165367f, 
		0.076612f, 0.062800f, -0.121908f, -0.060652f, -0.038727f, -0.088254f, -0.189681f, 0.115760f, 
		0.139263f, 0.007325f, -0.005953f, -0.184161f, -0.060360f, 0.165495f, -0.118925f, 0.181716f, 
		-0.072366f, -0.100281f, -0.001368f, 0.064373f, 0.162663f, -0.177662f, 0.121558f, 0.010407f, 
		0.003714f, -0.090493f, 0.160697f, 0.078743f, 0.118520f, 0.048607f, -0.096577f, -0.007078f, 
		-0.048351f, -0.189241f, -0.158663f, 0.039467f, -0.018881f, -0.158493f, -0.040420f, -0.096186f, 
		-0.122213f, 0.186816f, -0.116656f, 0.023069f, 0.035071f, -0.176649f, -0.125707f, 0.061595f, 
		-0.111396f, 0.150533f, -0.018463f, 0.050848f, -0.021528f, -0.016488f, 0.031323f, -0.181697f, 
		-0.019784f, 0.120984f, 0.180152f, -0.156319f, -0.165786f, 0.001899f, -0.062359f, -0.012450f, 
		0.132932f, 0.140481f, -0.151586f, -0.040493f, -0.069496f, -0.067918f, 0.090587f, 0.015240f, 
		-0.007993f, 0.180042f, -0.054785f, -0.010939f, 0.125652f, -0.093547f, 0.057667f, -0.176817f, 
		-0.053759f, 0.063810f, -0.171988f, 0.124731f, -0.013989f, 0.031267f, -0.185878f, -0.191201f, 
		0.085891f, 0.184512f, -0.176583f, -0.129081f, 0.040009f, -0.085529f, 0.074714f, -0.008789f, 
		-0.008972f, -0.089437f, 0.090327f, -0.060226f, -0.144463f, -0.039129f, 0.082817f, -0.090949f, 
		-0.187216f, -0.007182f, 0.136409f, 0.183123f, 0.083673f, -0.079574f, -0.042902f, 0.104745f, 
		0.098183f, -0.149172f, -0.027935f, -0.010813f, 0.121160f, 0.061848f, 0.184014f, 0.044959f, 
		0.118375f, 0.062079f, 0.040674f, 0.028498f, 0.077799f, 0.188302f, -0.101885f, -0.045547f, 
		-0.155052f, 0.162192f, 0.097274f, -0.095890f, 0.135013f, 0.072029f, 0.129395f, -0.005101f, 
		-0.009699f, -0.186053f, -0.154938f, -0.045430f, -0.145353f, -0.080700f, -0.130401f, 0.161035f, 
		0.117165f, -0.121210f, 0.046381f, -0.030471f, 0.008092f, 0.041930f, 0.060126f, -0.016572f, 
		0.144616f, -0.104393f, 0.143058f, -0.033734f, 0.006445f, -0.172658f, -0.042658f, 0.014173f, 
		0.125514f, 0.178423f, 0.025882f, 0.106983f, 0.019055f, -0.023222f, -0.040997f, -0.078867f, 
		-0.080215f, -0.003065f, -0.021594f, 0.077377f, -0.178674f, 0.092434f, -0.018609f, -0.065181f, 
		0.111292f, 0.077865f, -0.176170f, -0.017807f, 0.049844f, 0.121061f, -0.191080f, -0.025101f, 
		-0.045975f, -0.060309f, 0.068193f, 0.153280f, 0.018034f, -0.126738f, -0.056157f, -0.091395f, 
		0.079936f, -0.097551f, 0.003323f, -0.178284f, -0.154070f, 0.094068f, -0.156838f, -0.072664f, 
		-0.143569f, -0.046842f, -0.038014f, 0.121218f, 0.092785f, -0.118170f, 0.109269f, -0.162966f, 
		0.059262f, 0.165945f, -0.036282f, 0.058062f, -0.019777f, 0.110685f, -0.018394f, -0.086539f, 
		-0.093937f, -0.184278f, 0.080406f, 0.036185f, -0.146695f, -0.063434f, 0.177906f, -0.037794f, 
		-0.173332f, -0.069679f, 0.078447f, 0.092550f, -0.018535f, -0.038053f, 0.091831f, 0.129017f, 
		0.085037f, 0.052911f, -0.104009f, -0.164122f, 0.040693f, 0.133791f, 0.161696f, -0.012107f, 
		-0.180592f, 0.042113f, 0.108758f, -0.129928f, -0.071748f, -0.164036f, 0.017764f, -0.033497f, 
		0.074047f, 0.183596f, 0.054453f, -0.102407f, 0.069722f, 0.112298f, 0.105525f, -0.162572f, 
		0.012880f, 0.096465f, -0.185380f, -0.021311f, -0.169937f, -0.179291f, 0.075335f, 0.009229f, 
		0.048271f, 0.027537f, -0.149227f, 0.172150f, -0.112692f, 0.086418f, 0.117349f, 0.011237f, 
		0.128564f, 0.086615f, 0.138634f, -0.093460f, -0.019907f, -0.120773f, -0.095313f, 0.073941f, 
		-0.094756f, -0.176627f, 0.057120f, 0.169032f, 0.176439f, -0.180654f, -0.178209f, 0.070291f, 
		0.034113f, -0.065570f, 0.127708f, -0.173571f, 0.188857f, 0.070338f, 0.074533f, 0.066111f, 
		0.135101f, -0.027715f, -0.135208f, -0.076081f, 0.006911f, 0.018663f, -0.075604f, -0.015052f, 
		-0.181603f, 0.179946f, -0.164712f, 0.102979f, -0.191914f, -0.111206f, 0.088747f, 0.182459f, 
		-0.072471f, 0.074841f, -0.009490f, -0.093928f, 0.119565f, 0.161018f, -0.060597f, -0.069071f, 
		-0.017969f, 0.109198f, -0.116046f, 0.004092f, 0.149175f, -0.176424f, 0.011766f, 0.144301f, 
		-0.085927f, -0.164499f, 0.114870f, 0.135475f, -0.144793f, -0.081294f, 0.104177f, -0.180375f, 
		0.098290f, -0.165752f, 0.027123f, 0.051096f, -0.041205f, 0.078099f, -0.126600f, 0.026456f, 
		-0.073378f, 0.180593f, -0.103188f, -0.081602f, -0.136876f, 0.147912f, -0.144166f, -0.178200f, 
		0.039182f, 0.115947f, -0.043312f, -0.027007f, -0.047162f, 0.137467f, 0.145075f, -0.086843f, 
		0.115998f, -0.019829f, -0.142925f, 0.108100f, -0.138558f, 0.136244f, 0.026405f, 0.071704f, 
		0.076947f, 0.171440f, -0.179977f, -0.111562f, -0.157873f, 0.092290f, 0.152249f, -0.120414f, 
		0.049968f, -0.055233f, 0.090429f, -0.174985f, -0.150849f, -0.124760f, -0.140831f, 0.075482f, 
		-0.102914f, 0.159536f, 0.138799f, -0.052297f, 0.073953f, -0.097722f, 0.189548f, -0.007739f, 
		0.151861f, -0.184782f, 0.009817f, -0.113172f, -0.060287f, -0.179222f, -0.172043f, -0.052979f, 
		0.067909f, -0.017219f, -0.186468f, -0.129120f, 0.109807f, -0.017743f, 0.020096f, -0.169937f, 
		-0.072180f, 0.163842f, -0.125640f, 0.146154f, 0.036728f, 0.145635f, -0.163508f, -0.001352f, 
		-0.154606f, -0.118529f, -0.000893f, -0.067886f, 0.163160f, 0.172759f, -0.007562f, 0.187411f, 
		-0.009205f, -0.158115f, -0.097271f, 0.061558f, 0.155158f, -0.166840f, 0.030668f, -0.141093f, 
		0.148298f, -0.118233f, -0.024715f, -0.001412f, 0.080232f, -0.092578f, 0.081670f, 0.107766f, 
		0.122574f, 0.026915f, 0.179105f, -0.101116f, -0.172149f, -0.121707f, -0.023777f, 0.071737f, 
		-0.166883f, -0.153192f, 0.141217f, 0.099450f, 0.179915f, 0.001363f, -0.095010f, -0.172697f, 
		-0.132111f, 0.059379f, -0.082912f, 0.115432f, -0.145228f, -0.053019f, 0.158980f, 0.064074f, 
		0.117382f, 0.041731f, 0.128666f, -0.174581f, 0.107216f, 0.086677f, 0.103524f, -0.171302f, 
		0.157177f, 0.166244f, 0.028457f, -0.131194f, -0.112449f, 0.094314f, 0.114633f, 0.104168f, 
		0.024100f, -0.027897f, 0.153546f, 0.141451f, -0.084345f, -0.094871f, -0.070482f, -0.035171f, 
		-0.057787f, -0.136927f, 0.023997f, -0.030810f, -0.142438f, -0.138712f, 0.111247f, -0.119089f, 
		-0.110134f, -0.129421f, -0.054980f, -0.152152f, -0.046008f, -0.007779f, -0.060908f, 0.139374f, 
		-0.101820f, 0.099256f, 0.101494f, -0.024592f, 0.158678f, -0.162489f, -0.075801f, 0.185726f, 
		0.027900f, 0.090916f, -0.004661f, -0.182061f, 0.054958f, -0.084630f, -0.008816f, 0.151592f, 
		-0.037068f, -0.069867f, 0.075143f, 0.069880f, -0.040200f, -0.110699f, -0.163708f, 0.044280f, 
		-0.087919f, 0.060740f, 0.110765f, 0.182674f, -0.157014f, 0.084052f, -0.131817f, 0.135412f, 
		-0.176984f, -0.166909f, 0.188970f, 0.148066f, -0.015882f, -0.011422f, 0.073171f, 0.116202f, 
		0.106667f, -0.000302f, -0.035255f, 0.123291f, 0.140123f, 0.169511f, 0.147187f, 0.067450f, 
		-0.052046f, -0.057644f, -0.007451f, 0.012761f, -0.073529f, -0.145798f, -0.099597f, -0.109649f, 
		-0.117016f, -0.029945f, -0.060349f, -0.112333f, 0.013566f, -0.084542f, -0.150365f, -0.168928f, 
		0.087167f, -0.009046f, 0.031816f, 0.035206f, 0.137173f, 0.123725f, 0.063701f, -0.014430f, 
		-0.021461f, 0.167990f, -0.072669f, 0.120316f, -0.076638f, -0.160129f, -0.075515f, -0.188802f, 
		-0.102523f, 0.177810f, -0.111544f, -0.096451f, 0.061608f, -0.172434f, -0.130074f, -0.024103f, 
		-0.150145f, -0.053322f, 0.064479f, -0.063246f, -0.098903f, 0.070858f, -0.027495f, -0.047653f, 
		-0.159776f, 0.145867f, -0.189260f, 0.041572f, -0.088916f, 0.070577f, 0.041884f, -0.078949f, 
		0.164544f, 0.099612f, -0.014537f, 0.069111f, -0.061053f, -0.099566f, 0.082339f, -0.118283f, 
		0.157592f, -0.142286f, 0.121713f, -0.082355f, 0.013315f, -0.174424f, 0.052776f, -0.168126f, 
		0.101424f, 0.153865f, 0.013856f, 0.122880f, 0.112512f, 0.115972f, 0.024058f, 0.131066f, 
		-0.075536f, -0.116804f, -0.098147f, -0.109867f, 0.148759f, 0.145701f, -0.007825f, 0.000528f, 
		-0.102620f, 0.109833f, 0.103721f, 0.143101f, -0.133263f, 0.089968f, 0.136871f, -0.114811f, 
		0.107152f, 0.075837f, 0.155915f, 0.105260f, 0.012890f, 0.178941f, -0.171995f, -0.166559f, 
		-0.169391f, -0.005680f, -0.112626f, 0.110972f, 0.130529f, 0.105947f, 0.114883f, 0.031596f, 
		-0.149013f, 0.087726f, 0.029915f, 0.090252f, 0.024934f, -0.058843f, 0.064961f, 0.076016f, 
		-0.142765f, -0.168736f, -0.172361f, -0.106039f, -0.044919f, -0.117857f, 0.191141f, 0.011587f, 
		-0.172021f, 0.067030f, 0.166189f, -0.063891f, 0.015203f, 0.168433f, -0.050399f, -0.143295f, 
		-0.033132f, 0.035412f, 0.148328f, -0.158262f, 0.071637f, 0.190400f, -0.179221f, 0.081048f, 
		-0.088257f, 0.090476f, -0.152863f, 0.176430f, -0.165732f, -0.108310f, 0.038423f, -0.054995f, 
		-0.060615f, 0.124435f, -0.091971f, -0.031871f, -0.133472f, 0.161806f, -0.007554f, 0.092184f, 
		0.126238f, 0.009520f, -0.193606f, 0.051561f, 0.027508f, 0.042002f, 0.150804f, -0.094438f, 
		0.099854f, 0.132579f, 0.033747f, -0.031133f, -0.107650f, 0.137223f, 0.183236f, -0.016004f, 
		-0.018831f, 0.122460f, -0.005186f, -0.076781f, 0.142377f, -0.138478f, 0.076406f, -0.093454f, 
		0.012930f, 0.100542f, -0.074770f, -0.149650f, 0.069182f, -0.165482f, -0.135160f, 0.026707f, 
		0.110595f, -0.081094f, 0.175743f, 0.163873f, 0.108732f, 0.045805f, 0.096413f, -0.089723f, 
		-0.074790f, 0.140798f, 0.025568f, -0.122377f, 0.036219f, 0.009801f, 0.000854f, 0.024087f, 
		-0.151714f, 0.184755f, 0.191039f, -0.145206f, 0.180847f, -0.143855f, -0.181945f, -0.005163f, 
		0.144850f, -0.193517f, -0.119301f, -0.081286f, -0.186022f, 0.143885f, 0.079029f, 0.101512f, 
		0.187775f, -0.191975f, -0.026130f, -0.171383f, 0.154532f, 0.087121f, -0.128653f, -0.161738f, 
		0.082050f, 0.100374f, -0.043583f, -0.089187f, -0.024460f, -0.060435f, 0.193050f, 0.164891f, 
		0.100204f, -0.045663f, -0.053965f, -0.063115f, 0.034076f, 0.186746f, 0.013162f, 0.057205f, 
		-0.100689f, 0.041226f, -0.183881f, 0.076378f, -0.148028f, -0.189887f, -0.172466f, -0.012412f, 
		-0.151815f, -0.061525f, -0.134930f, -0.060436f, 0.027537f, 0.095420f, 0.062561f, -0.084567f, 
		-0.137212f, -0.137786f, -0.012773f, 0.045307f, 0.173120f, 0.181412f, -0.024652f, -0.165092f, 
		0.131479f, 0.145062f, -0.099154f, 0.068757f, 0.070019f, 0.122969f, -0.162346f, 0.181044f, 
		-0.156420f, -0.072445f, -0.066671f, -0.146008f, -0.081180f, 0.046935f, -0.181136f, 0.172870f, 
		0.061947f, -0.006131f, -0.130146f, 0.122350f, -0.110642f, 0.021795f, 0.188326f, 0.082372f, 
		0.027799f, -0.065971f, -0.072100f, 0.022028f, 0.057963f, 0.088434f, -0.093129f, -0.001131f, 
		-0.108221f, 0.127208f, -0.009202f, 0.082228f, -0.158868f, -0.094077f, 0.111707f, -0.158943f, 
		0.151430f, 0.154492f, 0.086888f, -0.049668f, -0.042373f, 0.191081f, 0.180930f, -0.082642f, 
		-0.031898f, -0.045072f, 0.102871f, -0.030272f, -0.132146f, 0.188280f, 0.151118f, -0.032777f, 
		-0.021117f, 0.163757f, 0.124016f, -0.048684f, 0.042185f, -0.105030f, -0.125851f, 0.007088f, 
		0.167094f, -0.039078f, 0.167548f, 0.088565f, 0.004160f, -0.148207f, -0.106656f, 0.012845f, 
		0.039108f, 0.060154f, -0.170663f, 0.091662f, 0.141988f, -0.068763f, -0.078187f, 0.075015f, 
		-0.147760f, 0.169142f, -0.146043f, 0.186332f, 0.081180f, -0.083740f, 0.112041f, -0.133266f, 
		-0.046957f, 0.031328f, -0.068336f, -0.172686f, 0.166753f, 0.190663f, 0.172442f, 0.153139f, 
		0.097137f, -0.032677f, -0.192753f, -0.023366f, 0.030226f, -0.168894f, 0.073205f, 0.005149f, 
		0.173724f, -0.165942f, -0.047119f, 0.054898f, -0.077346f, 0.136446f, -0.032132f, 0.052018f, 
		-0.178434f, 0.065676f, -0.178968f, -0.150695f, -0.074589f, 0.045998f, -0.098916f, 0.100011f, 
		-0.067702f, -0.004481f, -0.093737f, 0.193249f, 0.106238f, 0.164492f, 0.084058f, 0.048217f, 
		-0.103601f, 0.177786f, -0.118823f, 0.023217f, -0.148979f, -0.171782f, -0.088142f, -0.173379f, 
		-0.178310f, 0.175604f, -0.105281f, -0.134002f, 0.069242f, 0.168640f, 0.085075f, -0.010207f, 
		-0.158836f, 0.044292f, -0.012550f, 0.059525f, -0.144282f, 0.062408f, -0.150395f, -0.030278f, 
		0.093162f, 0.028649f, 0.048766f, -0.027916f, -0.014085f, -0.129102f, 0.090820f, -0.064340f, 
		0.174416f, -0.000037f, -0.127582f, -0.003055f, 0.166749f, -0.098070f, -0.112223f, -0.073860f, 
		-0.129553f, 0.132729f, 0.051288f, -0.129775f, -0.039114f, -0.036486f, -0.190402f, -0.055448f, 
		-0.083436f, -0.089010f, 0.071822f, -0.089859f, -0.029428f, -0.187371f, -0.029193f, 0.155105f, 
		0.188854f, 0.006290f, 0.048224f, 0.067044f, 0.010774f, -0.088677f, -0.054226f, -0.112688f, 
		-0.071611f, -0.153165f, -0.053196f, 0.041414f, -0.078030f, -0.130042f, -0.028831f, -0.032269f, 
		0.105355f, 0.129527f, 0.172154f, -0.112400f, -0.123212f, -0.056861f, -0.139178f, 0.151957f, 
		-0.074892f, 0.085771f, -0.135509f, 0.081745f, 0.125480f, 0.109009f, 0.043908f, 0.059870f, 
		0.191207f, 0.164692f, 0.186248f, -0.030205f, 0.181524f, -0.138459f, -0.179727f, -0.107619f, 
		0.130750f, -0.145911f, 0.172722f, -0.096566f, -0.189865f, 0.018564f, -0.094229f, 0.024307f, 
		0.087392f, -0.106556f, 0.014942f, 0.191526f, -0.029367f, 0.037835f, 0.115894f, 0.137057f, 
		-0.074817f, 0.172047f, 0.044244f, -0.059314f, 0.104699f, -0.084233f, 0.120955f, 0.043168f, 
		0.017086f, -0.079430f, 0.143834f, -0.038474f, -0.004653f, 0.186937f, 0.102001f, 0.085699f, 
		0.111708f, -0.015965f, -0.180736f, 0.114442f, 0.105008f, -0.086144f, 0.041349f, 0.132045f, 
		0.016162f, 0.088351f, 0.005448f, 0.154235f, 0.169310f, -0.059724f, 0.017815f, 0.171122f, 
		-0.114611f, 0.094343f, -0.178790f, 0.040242f, 0.031067f, 0.124946f, 0.074316f, -0.001082f, 
		0.158333f, 0.046834f, -0.010265f, 0.131364f, -0.114303f, 0.092821f, -0.002469f, 0.182779f, 
		0.121065f, -0.129301f, -0.137237f, 0.094462f, -0.042849f, -0.103829f, -0.171493f, -0.070365f, 
		-0.057356f, 0.098338f, -0.118205f, -0.066602f, -0.060525f, 0.062210f, -0.079307f, -0.114047f, 
		-0.005353f, -0.085375f, 0.141685f, 0.144511f, -0.092184f, 0.140667f, -0.098735f, 0.065334f, 
		0.073128f, -0.145677f, -0.191897f, -0.029529f, -0.124696f, -0.108891f, -0.056769f, -0.019125f, 
		0.143175f, -0.004724f, -0.116207f, 0.140778f, 0.124627f, 0.135183f, -0.095506f, 0.193549f, 
		-0.084803f, -0.113348f, 0.112351f, 0.106415f, -0.192498f, 0.111417f, 0.163662f, 0.039736f, 
		0.150061f, -0.028439f, 0.055466f, -0.142611f, 0.149341f, -0.098497f, -0.175171f, -0.070347f, 
		0.105853f, 0.167050f, 0.137799f, 0.008312f, 0.168631f, -0.058638f, -0.110884f, 0.039024f, 
		-0.053240f, 0.062214f, -0.021213f, -0.027387f, -0.069746f, -0.164027f, -0.038513f, -0.016162f, 
		0.141814f, -0.119768f, -0.060148f, 0.017560f, 0.109175f, 0.098135f, 0.103531f, -0.054530f, 
		0.129305f, 0.134799f, -0.011307f, -0.035121f, -0.002461f, -0.059674f, -0.033582f, -0.141810f, 
		0.103563f, -0.187349f, 0.068057f, -0.006902f, 0.170230f, -0.049425f, 0.047432f, 0.071656f, 
		0.082028f, -0.149001f, -0.047756f, 0.030680f, -0.159956f, 0.032203f, 0.115457f, -0.146762f, 
		0.044530f, -0.054818f, -0.045759f, -0.122493f, 0.052557f, 0.138280f, -0.142293f, -0.186454f, 
		-0.082296f, 0.134615f, -0.099549f, 0.000369f, -0.046276f, -0.038354f, 0.075679f, -0.124758f, 
		-0.010346f, -0.115232f, 0.020434f, -0.020171f, -0.078534f, -0.034290f, 0.111928f, -0.010503f, 
		-0.153196f, -0.048879f, -0.162565f, 0.137588f, -0.090338f, 0.108965f, 0.183274f, -0.168091f, 
		0.030405f, -0.133465f, -0.003606f, -0.192739f, 0.068625f, 0.028344f, 0.039464f, -0.122675f, 
		0.140506f, -0.103010f, -0.067693f, 0.109053f, -0.026973f, 0.062250f, -0.170872f, -0.031188f, 
		-0.110582f, -0.073433f, 0.011425f, -0.042163f, 0.139943f, -0.124845f, 0.052894f, 0.134172f, 
		-0.162784f, 0.122447f, 0.160755f, 0.088360f, 0.011198f, -0.188293f, 0.190174f, 0.091837f, 
		-0.045011f, 0.004318f, -0.069192f, -0.100955f, 0.068416f, 0.124313f, 0.022800f, 0.090672f, 
		-0.111543f, -0.011610f, -0.150561f, -0.103281f, -0.160125f, -0.149520f, 0.096809f, 0.106717f, 
		-0.131727f, 0.026125f, 0.132601f, -0.152700f, -0.078581f, 0.032844f, 0.038996f, -0.021611f, 
		0.190979f, -0.014583f, 0.006557f, -0.107378f, 0.141965f, -0.068330f, 0.189568f, 0.066029f, 
		-0.071526f, 0.155816f, -0.025419f, 0.043559f, -0.186572f, -0.136895f, 0.186279f, -0.053709f, 
		-0.121884f, 0.180950f, 0.031730f, 0.180185f, -0.182193f, -0.142486f, -0.012594f, 0.134410f, 
		0.046699f, 0.156383f, -0.075467f, -0.075341f, -0.193502f, -0.084664f, -0.086257f, 0.138061f, 
		0.182090f, -0.057756f, -0.189096f, -0.141509f, 0.192515f, 0.030981f, 0.029423f, -0.135465f, 
		-0.091890f, 0.054546f, -0.170290f, -0.165920f, 0.185963f, 0.162569f, 0.171961f, -0.040647f, 
		0.107194f, -0.046993f, 0.133115f, -0.017555f, 0.152726f, -0.005473f, -0.111763f, -0.064706f, 
		0.022449f, -0.112787f, -0.119143f, 0.130249f, 0.040146f, 0.018671f, 0.086325f, -0.064460f, 
		0.095116f, 0.138674f, 0.173984f, 0.013126f, 0.167269f, 0.082707f, -0.119517f, -0.062796f, 
		0.041416f, 0.134079f, -0.097686f, 0.021802f, -0.142361f, 0.078051f, 0.109208f, -0.120000f, 
		-0.147112f, 0.144126f, 0.042360f, -0.016581f, 0.153016f, -0.120762f, 0.016597f, 0.135349f, 
		-0.106709f, -0.022844f, 0.095532f, -0.054083f, -0.084834f, -0.051663f, -0.024225f, -0.193519f, 
		-0.015644f, 0.149280f, -0.130271f, -0.073844f, -0.128597f, 0.137945f, -0.052421f, -0.055759f, 
		-0.184108f, 0.002455f, 0.010182f, -0.176414f, -0.019859f, -0.077700f, -0.040635f, 0.191539f, 
		-0.178335f, 0.083998f, 0.000710f, -0.139403f, -0.163125f, 0.174411f, 0.047810f, -0.175259f, 
		0.055760f, 0.055685f, -0.004209f, 0.005185f, -0.056159f, 0.000691f, -0.141734f, -0.169046f, 
		-0.183812f, -0.180442f, 0.105054f, -0.127126f, -0.017677f, -0.013867f, 0.155440f, 0.015886f, 
		0.082095f, 0.077572f, -0.116140f, -0.069837f, -0.055772f, -0.083347f, 0.180670f, -0.120339f, 
		0.033914f, 0.184261f, 0.053344f, -0.145107f, 0.189462f, 0.083118f, -0.057836f, -0.004560f, 
		0.159654f, -0.136777f, 0.123823f, -0.150711f, 0.126766f, 0.157744f, 0.100667f, -0.023140f, 
		-0.175983f, -0.153793f, -0.082013f, -0.084735f, 0.078272f, 0.153031f, -0.043009f, 0.158781f, 
		-0.012387f, 0.001099f, -0.085705f, 0.145594f, -0.175128f, 0.012234f, -0.013370f, -0.125382f, 
		0.169616f, -0.158105f, 0.007259f, 0.190564f, -0.179579f, 0.179601f, -0.034356f, 0.075702f, 
		0.092946f, 0.090000f, -0.116458f, -0.005467f, -0.095914f, -0.131409f, -0.126190f, -0.025082f, 
		-0.139835f, -0.170367f, 0.032885f, -0.088842f, 0.025655f, 0.059262f, 0.146325f, -0.081918f, 
		0.187546f, -0.066054f, -0.105681f, -0.153526f, -0.033382f, 0.063256f, -0.020597f, 0.167311f, 
		0.014817f, -0.144736f, -0.127080f, -0.121115f, -0.069280f, -0.170632f, 0.103444f, -0.150517f, 
		-0.029334f, -0.183978f, 0.066913f, -0.163081f, 0.050556f, -0.152392f, 0.009934f, 0.112896f, 
		-0.107331f, 0.168625f, 0.105449f, 0.191561f, -0.098852f, -0.136775f, 0.154950f, 0.020450f, 
		-0.013166f, 0.063061f, 0.158202f, 0.107901f, 0.103751f, 0.171512f, 0.191197f, -0.059755f, 
		0.134386f, -0.108123f, 0.078490f, 0.188306f, 0.018111f, 0.108359f, -0.122567f, 0.166625f, 
		0.074970f, -0.096454f, 0.078252f, -0.173812f, -0.013123f, 0.178386f, -0.123819f, 0.162927f, 
		-0.062337f, -0.107292f, 0.068515f, -0.011868f, -0.168300f, 0.082887f, -0.062810f, -0.121288f, 
		0.034433f, 0.189851f, 0.051730f, -0.190341f, -0.053899f, -0.019398f, 0.164478f, 0.167060f, 
		-0.075677f, -0.114545f, -0.039878f, 0.132002f, -0.108382f, 0.120846f, 0.125771f, 0.078113f, 
		-0.000980f, -0.185874f, 0.024357f, -0.008778f, -0.063855f, -0.040449f, 0.065948f, -0.190676f, 
		0.160250f, -0.005327f, -0.066128f, 0.064379f, 0.010278f, 0.003634f, -0.045285f, 0.099644f, 
		-0.038206f, -0.148640f, -0.112352f, 0.111983f, 0.043944f, -0.193448f, 0.131104f, 0.009107f, 
		-0.139373f, 0.064897f, 0.084369f, -0.098095f, -0.180613f, 0.094907f, 0.066934f, 0.165249f, 
		0.010338f, 0.131490f, 0.056053f, -0.037878f, -0.035074f, 0.151549f, -0.123100f, 0.060473f, 
		-0.014100f, -0.103887f, -0.008603f, -0.153419f, 0.040814f, 0.158007f, -0.171514f, -0.158820f, 
		-0.001628f, 0.072385f, -0.034815f, 0.111657f, -0.165289f, -0.067492f, -0.094708f, -0.134975f, 
		0.040067f, 0.057505f, 0.079080f, 0.025372f, -0.109903f, -0.107438f, 0.012050f, -0.158209f, 
		0.003028f, 0.003269f, -0.152962f, 0.016896f, 0.078985f, -0.082022f, -0.102543f, 0.091900f, 
		0.024342f, -0.031936f, 0.047875f, 0.091712f, -0.110116f, 0.029486f, 0.187280f, 0.057877f, 
		0.099458f, -0.120966f, 0.122758f, -0.039080f, -0.064453f, -0.186189f, -0.069790f, -0.006787f, 
		-0.029147f, 0.020247f, -0.090432f, 0.083322f, 0.115109f, 0.133315f, 0.043752f, 0.103111f, 
		0.179971f, -0.181815f, 0.171349f, -0.049770f, 0.153236f, -0.057552f, -0.148016f, -0.159066f, 
		-0.186719f, -0.023165f, -0.061969f, 0.125528f, 0.132088f, 0.090658f, 0.059539f, -0.018166f, 
		0.131618f, -0.070713f, 0.055015f, 0.009828f, 0.172684f, -0.015794f, 0.113664f, 0.056956f, 
		0.143093f, 0.039837f, 0.115579f, -0.050032f, 0.078206f, -0.185260f, 0.190278f, 0.068128f, 
		0.013079f, 0.118095f, 0.046491f, -0.078924f, 0.112665f, -0.139636f, 0.058653f, -0.089911f, 
		-0.034968f, 0.132630f, 0.150111f, 0.141100f, -0.032241f, -0.043874f, 0.044043f, -0.024570f, 
		-0.038974f, -0.187192f, -0.122726f, -0.171570f, 0.127439f, -0.189433f, 0.186227f, 0.170567f, 
		-0.065190f, 0.108935f, -0.016539f, -0.096575f, -0.189950f, -0.167912f, -0.044778f, 0.074789f, 
		0.014852f, -0.073458f, -0.176276f, -0.124779f, 0.166647f, -0.024386f, -0.108982f, -0.189655f, 
		0.153856f, -0.163183f, 0.095183f, -0.153406f, 0.002030f, -0.026773f, -0.065033f, -0.044640f, 
		-0.044850f, -0.067736f, 0.059687f, -0.073380f, 0.105137f, -0.151893f, -0.093809f, 0.181688f, 
		0.009425f, 0.092066f, -0.122069f, -0.187939f, 0.012888f, -0.128100f, -0.023288f, -0.086751f, 
		0.159631f, 0.052307f, -0.088628f, 0.101786f, -0.026251f, 0.041229f, -0.110588f, 0.171450f, 
		-0.004765f, -0.083780f, 0.114651f, -0.046908f, 0.005916f, 0.160522f, 0.188229f, 0.096967f, 
		-0.150771f, -0.105743f, -0.158853f, 0.112875f, 0.016657f, 0.082621f, 0.059676f, 0.027074f, 
		-0.009607f, -0.020175f, -0.003523f, -0.160992f, -0.086746f, -0.158628f, 0.111588f, 0.007657f, 
		0.093177f, -0.058804f, 0.089959f, 0.150470f, 0.029409f, 0.112932f, 0.056743f, -0.017016f, 
		0.053831f, 0.163988f, -0.007519f, 0.170130f, -0.154046f, -0.180755f, 0.017713f, -0.182633f, 
		0.062488f, 0.064332f, -0.120871f, 0.107123f, -0.061551f, -0.068654f, -0.039104f, -0.131787f, 
		0.058388f, -0.089181f, 0.166965f, -0.046405f, -0.124399f, 0.147484f, 0.033058f, 0.005718f, 
		0.098478f, -0.071497f, -0.043637f, -0.123595f, -0.183201f, -0.095524f, -0.167132f, 0.171421f, 
		-0.010933f, 0.052582f, 0.017775f, 0.053440f, -0.131780f, -0.182864f, 0.091948f, 0.098636f, 
		-0.176466f, 0.156735f, 0.103233f, 0.111924f, 0.074093f, 0.045358f, 0.168876f, 0.159923f, 
		-0.135555f, -0.167426f, -0.147516f, 0.094878f, 0.003893f, -0.046225f, -0.048451f, 0.041722f, 
		-0.171703f, 0.066650f, -0.034108f, 0.001449f, -0.064362f, 0.006934f, -0.056861f, 0.135453f, 
		0.183978f, -0.106563f, 0.113871f, 0.067264f, -0.048216f, 0.049419f, -0.074482f, 0.072923f, 
		-0.099420f, -0.010301f, -0.148297f, 0.097991f, 0.181847f, -0.112763f, 0.044986f, -0.056335f, 
		0.143404f, -0.138261f, -0.052289f, -0.165951f, -0.005622f, -0.132477f, 0.129420f, -0.159977f, 
		0.108979f, 0.013836f, 0.035042f, -0.059074f, 0.099992f, -0.033624f, 0.002826f, -0.037132f, 
		-0.081358f, 0.000071f, 0.057734f, 0.109085f, 0.116590f, -0.173945f, -0.087953f, 0.109417f, 
		-0.094542f, 0.106944f, 0.025265f, 0.133871f, 0.109855f, 0.153223f, 0.138010f, -0.123426f, 
		-0.116180f, -0.073590f, 0.115756f, 0.036683f, -0.137018f, 0.080803f, -0.081260f, -0.180976f, 
		-0.005637f, -0.133232f, -0.132759f, -0.137376f, 0.188490f, 0.049157f, 0.070291f, 0.053308f, 
		0.150860f, 0.123929f, 0.022736f, 0.132861f, 0.151883f, 0.169990f, 0.041993f, 0.098772f, 
		-0.188918f, -0.071952f, 0.037107f, -0.076335f, 0.001221f, 0.021552f, -0.033033f, -0.034412f, 
		0.084785f, 0.023400f, -0.016840f, 0.187820f, -0.084471f, 0.150422f, -0.091970f, -0.175186f, 
		0.127233f, 0.039980f, 0.128156f, 0.161249f, -0.159500f, 0.004419f, 0.014767f, 0.077895f, 
		-0.027889f, -0.088197f, 0.109037f, 0.051294f, 0.070286f, -0.071962f, -0.114128f, 0.037340f, 
		0.007362f, -0.091724f, -0.025292f, 0.117741f, -0.101951f, 0.111589f, -0.079645f, -0.083686f, 
		0.070243f, 0.001875f, 0.155974f, 0.162768f, -0.160065f, -0.104722f, -0.027818f, 0.187161f, 
		-0.073312f, -0.067781f, -0.008728f, 0.107224f, 0.026753f, 0.175631f, -0.173733f, 0.003882f, 
		-0.131142f, -0.162666f, 0.010733f, 0.029140f, 0.066453f, 0.149977f, -0.061705f, 0.095114f, 
		-0.099298f, -0.126509f, 0.061704f, 0.154619f, -0.055530f, -0.145001f, -0.179846f, 0.118305f, 
		0.012996f, 0.054701f, -0.190290f, 0.155319f, 0.055698f, -0.091198f, 0.102551f, 0.163604f, 
		0.121349f, -0.072728f, 0.031231f, 0.139770f, -0.103053f, 0.087270f, 0.130054f, 0.180233f, 
		-0.119480f, 0.151614f, 0.021202f, -0.047656f, 0.130382f, 0.130023f, 0.060811f, 0.003180f, 
		-0.148663f, -0.120021f, -0.188577f, -0.144602f, 0.183815f, -0.186301f, -0.076157f, -0.157335f, 
		0.065438f, -0.089653f, -0.174904f, -0.143643f, -0.084569f, -0.019177f, 0.180072f, -0.095079f, 
		-0.035534f, -0.048282f, 0.177761f, -0.007088f, -0.019110f, -0.018923f, -0.037144f, -0.102062f, 
		-0.109108f, 0.182050f, -0.165782f, 0.037397f, 0.063668f, 0.177294f, -0.091626f, -0.118611f, 
		-0.121489f, 0.116277f, 0.054515f, 0.064549f, -0.120634f, 0.078292f, 0.076597f, -0.058671f, 
		0.152329f, -0.108853f, -0.159524f, -0.013868f, 0.090311f, -0.039398f, 0.158018f, 0.119520f, 
		0.064722f, -0.081145f, -0.093116f, 0.179696f, 0.016618f, -0.115987f, -0.004954f, -0.016512f, 
		-0.035671f, -0.105511f, 0.028099f, 0.114346f, -0.122171f, -0.035378f, 0.183758f, 0.075852f, 
		-0.110192f, -0.111959f, 0.148426f, -0.048966f, -0.073827f, -0.166418f, 0.133927f, -0.167292f
	};
	// Hidden Biases (64)
	constexpr inline float B1[64] = {
		0.010000f, 0.010000f, 0.010000f, 0.010000f, 0.010000f, 0.010000f, 0.010000f, 0.010000f, 
		0.010000f, 0.010000f, 0.010000f, 0.010000f, 0.010000f, 0.010000f, 0.010000f, 0.010000f, 
		0.010000f, 0.010000f, 0.010000f, 0.010000f, 0.010000f, 0.010000f, 0.010000f, 0.010000f, 
		0.010000f, 0.010000f, 0.010000f, 0.010000f, 0.010000f, 0.010000f, 0.010000f, 0.010000f, 
		0.010000f, 0.010000f, 0.010000f, 0.010000f, 0.010000f, 0.010000f, 0.010000f, 0.010000f, 
		0.010000f, 0.010000f, 0.010000f, 0.010000f, 0.010000f, 0.010000f, 0.010000f, 0.010000f, 
		0.010000f, 0.010000f, 0.010000f, 0.010000f, 0.010000f, 0.010000f, 0.010000f, 0.010000f, 
		0.010000f, 0.010000f, 0.010000f, 0.010000f, 0.010000f, 0.010000f, 0.010000f, 0.010000f
	};
	// Hidden -> Output (Weights: 32x64)
	constexpr inline float W2[2048] = {
		-0.169202f, 0.088817f, -0.185995f, 0.113461f, 0.057626f, 0.153072f, -0.162664f, 0.142577f, 
		0.156896f, -0.173796f, 0.118679f, 0.063068f, -0.059432f, -0.227998f, 0.057148f, -0.050037f, 
		-0.213827f, -0.023032f, -0.133144f, -0.142081f, -0.142064f, -0.100865f, 0.122308f, 0.180403f, 
		-0.142350f, -0.228475f, -0.098060f, 0.149032f, -0.247328f, -0.113048f, 0.009928f, -0.020651f, 
		-0.093001f, 0.141646f, 0.157913f, 0.108128f, -0.084048f, 0.003700f, -0.105966f, -0.230341f, 
		0.156620f, -0.086550f, -0.143779f, -0.078156f, -0.057562f, 0.083157f, -0.160344f, 0.105290f, 
		-0.000046f, -0.163565f, 0.231603f, 0.016258f, 0.209019f, -0.179015f, 0.222570f, 0.212964f, 
		0.186052f, -0.232442f, 0.093102f, 0.184379f, -0.241848f, -0.225775f, -0.062059f, -0.052132f, 
		0.145395f, -0.222402f, -0.091810f, -0.154926f, -0.052092f, -0.192517f, 0.201518f, -0.030003f, 
		0.072415f, 0.020941f, 0.030517f, -0.010926f, -0.002304f, 0.109871f, -0.082071f, 0.100809f, 
		-0.248350f, -0.044939f, 0.078594f, 0.206140f, -0.037612f, -0.065671f, -0.104742f, -0.005902f, 
		-0.173518f, 0.098483f, -0.122806f, 0.066315f, -0.096383f, -0.188316f, 0.219184f, 0.029145f, 
		0.052734f, -0.220819f, 0.170246f, 0.073598f, 0.027750f, 0.198788f, 0.016996f, -0.145535f, 
		0.225426f, 0.228277f, 0.045153f, 0.165710f, 0.070985f, -0.119667f, 0.003683f, 0.145495f, 
		0.109289f, -0.139436f, -0.138453f, 0.149265f, -0.223187f, -0.103236f, 0.086413f, 0.185681f, 
		-0.153317f, -0.211369f, -0.070700f, -0.015036f, 0.193911f, 0.009532f, 0.206118f, -0.170199f, 
		-0.120924f, 0.181844f, 0.198620f, -0.214402f, -0.062619f, 0.159341f, 0.186082f, -0.135259f, 
		0.159220f, -0.227671f, 0.028139f, -0.056454f, 0.069286f, -0.085929f, -0.244836f, -0.226537f, 
		0.007403f, 0.006601f, 0.063614f, 0.081650f, -0.244175f, -0.124812f, -0.151947f, -0.026640f, 
		-0.190963f, 0.177659f, -0.122766f, 0.069553f, -0.034192f, -0.213165f, -0.188988f, 0.003933f, 
		-0.164378f, -0.086728f, -0.069449f, 0.228253f, 0.122359f, -0.099492f, -0.217792f, 0.240306f, 
		-0.018158f, 0.216233f, 0.249445f, 0.101948f, -0.090326f, 0.118844f, 0.221610f, 0.241875f, 
		-0.215911f, 0.054760f, 0.046578f, 0.158719f, 0.085402f, 0.245697f, -0.065559f, -0.023674f, 
		0.220310f, 0.100951f, -0.202579f, -0.032320f, 0.240592f, -0.156080f, -0.006261f, -0.135996f, 
		-0.122062f, 0.228511f, 0.180486f, 0.041859f, 0.028437f, -0.053061f, 0.144737f, -0.221140f, 
		0.213341f, -0.239141f, 0.202148f, -0.215308f, -0.168139f, -0.083394f, 0.112806f, 0.040669f, 
		0.242934f, 0.036324f, 0.110814f, -0.247366f, 0.213582f, 0.157607f, 0.136743f, -0.091211f, 
		-0.097867f, 0.056313f, 0.147149f, -0.115106f, 0.113232f, 0.216520f, -0.147670f, -0.179177f, 
		-0.083068f, 0.215533f, 0.182189f, -0.101199f, 0.215636f, 0.019665f, -0.105857f, 0.191088f, 
		-0.205757f, -0.247988f, 0.130447f, 0.038372f, 0.222839f, 0.161496f, -0.079806f, 0.193353f, 
		0.050567f, -0.037123f, 0.062625f, 0.165388f, -0.131610f, 0.015017f, 0.124819f, -0.052234f, 
		0.237432f, -0.026353f, 0.048412f, -0.163026f, 0.123271f, -0.092839f, 0.068156f, 0.238599f, 
		0.224828f, -0.098546f, -0.022746f, -0.016367f, 0.129385f, -0.042610f, 0.244806f, 0.234073f, 
		0.025224f, 0.239766f, -0.055863f, 0.163154f, -0.215646f, 0.066867f, 0.236744f, 0.201873f, 
		-0.078665f, -0.110534f, 0.051472f, -0.153905f, 0.033311f, 0.096109f, 0.137706f, -0.149829f, 
		-0.203825f, 0.035131f, 0.108933f, -0.105880f, 0.158363f, 0.062292f, -0.092728f, -0.153048f, 
		-0.064642f, 0.089155f, 0.126194f, -0.088203f, 0.041748f, -0.103560f, -0.058013f, -0.019371f, 
		0.146403f, 0.189032f, 0.207718f, -0.130063f, -0.057203f, 0.168345f, 0.123955f, 0.022640f, 
		0.172590f, 0.153409f, 0.196904f, 0.214313f, -0.176349f, -0.241015f, 0.116885f, 0.168830f, 
		0.056557f, -0.052400f, 0.173049f, -0.175163f, -0.120411f, -0.111191f, -0.248937f, -0.171563f, 
		0.233975f, 0.021078f, 0.212582f, 0.128574f, 0.200229f, -0.085346f, 0.183960f, -0.076493f, 
		0.218235f, 0.093122f, -0.039109f, 0.149373f, 0.111824f, -0.132748f, 0.153704f, -0.221617f, 
		0.099465f, -0.072281f, -0.213851f, 0.082738f, 0.195975f, -0.065808f, -0.087478f, 0.054276f, 
		-0.076587f, 0.205009f, -0.005853f, -0.137005f, 0.223733f, 0.208636f, 0.089140f, -0.221657f, 
		-0.200786f, 0.203061f, 0.158016f, 0.144619f, -0.219742f, -0.051938f, -0.099216f, 0.080018f, 
		0.240786f, 0.043037f, 0.075239f, -0.004621f, 0.118203f, 0.081305f, 0.088582f, -0.224573f, 
		-0.168239f, -0.074123f, 0.168403f, -0.118063f, -0.210817f, 0.142030f, -0.184897f, -0.081004f, 
		-0.003831f, -0.081177f, 0.245012f, 0.072314f, -0.137543f, -0.098634f, 0.060568f, 0.157376f, 
		-0.162591f, 0.108413f, -0.232344f, -0.136508f, -0.166451f, -0.066992f, -0.103120f, 0.230828f, 
		-0.218356f, 0.235916f, 0.104676f, -0.067977f, 0.139912f, 0.039096f, -0.048061f, 0.111781f, 
		-0.000984f, -0.015885f, -0.193386f, 0.225981f, -0.148793f, 0.213722f, -0.238155f, 0.082807f, 
		-0.048687f, -0.164410f, -0.138049f, -0.010213f, -0.103054f, -0.162778f, 0.108225f, -0.058247f, 
		0.217651f, 0.012714f, 0.198889f, 0.048673f, -0.191302f, 0.033670f, -0.200740f, -0.201415f, 
		0.026403f, -0.056265f, -0.019540f, -0.035756f, -0.077062f, 0.247296f, -0.170034f, 0.129802f, 
		0.028233f, 0.181408f, 0.064613f, 0.164030f, -0.023681f, 0.042562f, -0.170567f, 0.182628f, 
		-0.060407f, -0.119369f, 0.176401f, 0.248593f, 0.042718f, -0.024953f, -0.049734f, 0.158824f, 
		0.111641f, 0.003626f, -0.066258f, -0.051411f, -0.144922f, -0.065235f, 0.031892f, -0.201616f, 
		0.171608f, 0.143649f, -0.226000f, 0.127823f, 0.220965f, -0.241731f, -0.106260f, -0.088404f, 
		0.115672f, -0.249934f, 0.184906f, 0.247513f, 0.212729f, 0.203040f, -0.237750f, 0.157418f, 
		-0.077219f, -0.068238f, -0.207127f, -0.022523f, -0.240210f, 0.165402f, -0.228979f, -0.206548f, 
		0.183675f, -0.102586f, 0.063600f, -0.132796f, -0.098122f, 0.022331f, 0.086991f, 0.116232f, 
		-0.231901f, -0.233730f, -0.115544f, 0.109648f, -0.066561f, -0.044681f, 0.195265f, 0.048862f, 
		0.051285f, -0.211324f, 0.120181f, 0.145669f, 0.152867f, 0.160287f, -0.163741f, 0.157961f, 
		-0.078270f, 0.121967f, 0.179721f, -0.119288f, 0.209954f, 0.065530f, -0.043023f, -0.074549f, 
		0.128687f, 0.033132f, 0.040537f, -0.179321f, 0.157436f, 0.048773f, 0.195864f, -0.102181f, 
		-0.228219f, -0.068120f, -0.189602f, 0.076919f, -0.215296f, 0.068185f, 0.100865f, -0.094682f, 
		-0.172267f, 0.062854f, -0.235870f, -0.073732f, 0.115785f, 0.213063f, 0.173371f, 0.013255f, 
		-0.147831f, -0.101552f, -0.141516f, -0.208222f, 0.182629f, 0.230084f, -0.069943f, 0.177373f, 
		0.202944f, -0.204925f, -0.098898f, 0.104206f, -0.011353f, -0.158428f, -0.093400f, 0.170647f, 
		-0.164714f, -0.134295f, 0.187791f, -0.059888f, 0.112358f, -0.230142f, -0.025232f, -0.172245f, 
		0.052481f, 0.058364f, -0.039772f, -0.017223f, 0.172059f, 0.235027f, -0.160451f, 0.186302f, 
		0.202687f, -0.104774f, 0.147043f, 0.168579f, 0.021552f, -0.201374f, 0.202342f, 0.089586f, 
		-0.165591f, 0.222791f, 0.153454f, -0.146583f, 0.224695f, 0.157018f, 0.178858f, 0.153661f, 
		-0.246094f, 0.178541f, -0.229358f, 0.050848f, -0.148964f, 0.244621f, 0.069732f, 0.092343f, 
		0.017910f, 0.188976f, 0.162849f, -0.135426f, -0.190043f, -0.051425f, 0.032175f, 0.171728f, 
		0.027940f, -0.054092f, 0.207790f, -0.239257f, -0.248297f, -0.059622f, -0.201804f, 0.143588f, 
		-0.122407f, 0.051576f, -0.236731f, -0.212499f, -0.201164f, 0.085434f, 0.066340f, -0.248707f, 
		0.078118f, 0.226501f, -0.168698f, -0.164959f, -0.177158f, -0.028983f, 0.133817f, -0.091790f, 
		-0.048317f, -0.120926f, 0.088572f, -0.163992f, 0.231361f, -0.069296f, -0.140286f, -0.064473f, 
		-0.106350f, -0.136437f, -0.100085f, -0.232151f, -0.026905f, -0.046572f, -0.034968f, -0.086746f, 
		-0.056852f, 0.087633f, -0.105727f, 0.096587f, -0.176754f, 0.144292f, -0.216039f, -0.153507f, 
		0.007700f, 0.186680f, -0.167308f, 0.099511f, 0.018891f, 0.100361f, -0.059708f, 0.029259f, 
		-0.199736f, 0.184737f, 0.082702f, 0.030424f, -0.173982f, -0.146629f, -0.183869f, 0.005468f, 
		0.015666f, 0.028860f, -0.024859f, -0.055461f, -0.143169f, 0.023780f, -0.151731f, -0.025984f, 
		-0.170540f, -0.052815f, 0.077757f, 0.123222f, -0.012102f, -0.101936f, 0.152322f, -0.153154f, 
		-0.055391f, -0.087656f, -0.020844f, 0.185905f, -0.140593f, -0.090166f, 0.071961f, 0.161631f, 
		-0.245647f, 0.006299f, 0.140639f, -0.086598f, -0.215868f, -0.155764f, 0.044580f, 0.058958f, 
		-0.236780f, 0.174040f, -0.091079f, -0.157524f, 0.169864f, -0.152888f, 0.119475f, 0.100603f, 
		-0.113896f, -0.088613f, -0.007119f, 0.067194f, -0.073906f, -0.188381f, 0.173903f, -0.071693f, 
		-0.013284f, -0.061463f, -0.065784f, 0.093386f, -0.181929f, -0.240592f, 0.011036f, -0.162131f, 
		-0.025180f, -0.120175f, 0.237733f, 0.017111f, -0.079811f, -0.071788f, -0.079133f, 0.163894f, 
		-0.049568f, -0.193702f, 0.207216f, -0.190954f, -0.115584f, 0.021769f, 0.078387f, 0.247640f, 
		0.037734f, -0.156113f, 0.191471f, 0.224470f, -0.187344f, 0.015950f, 0.191582f, -0.051832f, 
		-0.049224f, 0.089800f, -0.132838f, 0.194149f, 0.052061f, -0.093996f, 0.101023f, 0.129051f, 
		0.241374f, -0.072733f, 0.086267f, -0.237107f, -0.236792f, -0.248883f, 0.131600f, 0.095247f, 
		0.133315f, 0.107767f, -0.062855f, 0.071063f, -0.099593f, -0.187617f, 0.158132f, -0.143850f, 
		0.094930f, 0.086385f, 0.125386f, 0.177409f, -0.008124f, -0.119117f, 0.231027f, -0.220115f, 
		-0.049700f, -0.072695f, 0.000177f, 0.189886f, -0.088012f, -0.136079f, 0.085755f, -0.205999f, 
		-0.072488f, -0.035306f, -0.209294f, -0.000681f, 0.049292f, -0.225146f, 0.156340f, 0.248577f, 
		0.183651f, -0.020975f, -0.191470f, -0.103340f, 0.031023f, -0.123605f, -0.003104f, -0.142709f, 
		0.134596f, 0.014053f, -0.093915f, 0.223703f, -0.026101f, 0.033803f, -0.126325f, 0.182491f, 
		0.089337f, -0.074272f, 0.066762f, -0.242855f, 0.186978f, -0.171556f, -0.107060f, -0.075612f, 
		0.073465f, 0.004126f, -0.201845f, -0.240728f, -0.240294f, 0.124139f, -0.071088f, 0.016985f, 
		-0.200616f, 0.050297f, -0.043272f, 0.033031f, 0.200910f, 0.197993f, 0.099257f, -0.141487f, 
		0.016391f, 0.012400f, -0.108125f, -0.204036f, -0.000119f, -0.242437f, 0.016851f, 0.101287f, 
		-0.102005f, -0.090598f, -0.090785f, 0.041021f, 0.244433f, 0.243314f, 0.130980f, -0.220906f, 
		0.181860f, 0.142278f, 0.129232f, 0.117945f, 0.010999f, -0.120373f, -0.207040f, -0.110901f, 
		-0.005723f, 0.048876f, 0.077338f, -0.211745f, 0.081314f, -0.189438f, -0.023444f, -0.229480f, 
		-0.226636f, 0.018091f, 0.185125f, -0.220886f, -0.196050f, 0.084367f, 0.059343f, -0.073838f, 
		-0.210540f, 0.028449f, -0.058560f, 0.134539f, -0.231164f, 0.122981f, 0.154518f, 0.237680f, 
		0.079744f, -0.117759f, 0.110695f, 0.192288f, -0.048294f, -0.199882f, -0.118989f, -0.134703f, 
		0.006501f, 0.027563f, -0.133822f, 0.003364f, 0.036357f, 0.174162f, -0.035322f, 0.125856f, 
		0.070354f, 0.207631f, 0.198744f, 0.233129f, -0.085246f, -0.098969f, 0.084753f, -0.019768f, 
		0.064744f, 0.016888f, 0.149802f, 0.077647f, -0.067799f, 0.227745f, -0.009156f, 0.097528f, 
		-0.050551f, 0.030311f, -0.063370f, -0.104194f, -0.030956f, 0.012242f, -0.116443f, -0.192615f, 
		-0.207642f, -0.244253f, -0.204482f, -0.024615f, -0.193069f, -0.173764f, -0.139053f, 0.119795f, 
		0.245570f, -0.098614f, -0.106391f, -0.214079f, -0.055309f, -0.047091f, 0.051002f, 0.080532f, 
		-0.070230f, 0.172974f, -0.143484f, 0.014540f, -0.082612f, -0.128491f, 0.224462f, 0.164894f, 
		-0.193646f, -0.245228f, -0.066269f, -0.159786f, -0.054965f, 0.108091f, -0.058871f, -0.041226f, 
		0.201892f, -0.076912f, -0.146868f, -0.138670f, 0.211746f, 0.152081f, 0.082672f, -0.183389f, 
		-0.159677f, -0.228598f, -0.141376f, 0.183987f, 0.213392f, 0.169396f, -0.045338f, -0.193539f, 
		0.131345f, -0.132296f, 0.039121f, 0.052948f, 0.077926f, 0.204031f, 0.132812f, -0.041606f, 
		-0.248257f, 0.196505f, -0.026562f, 0.224748f, -0.235160f, 0.131011f, -0.188930f, -0.053763f, 
		-0.089044f, -0.000297f, -0.003651f, -0.031296f, 0.130371f, -0.228148f, 0.042547f, -0.187677f, 
		0.097015f, -0.217099f, -0.003373f, 0.087284f, 0.166757f, -0.059559f, -0.175188f, -0.169055f, 
		-0.213960f, 0.089190f, 0.052910f, 0.000121f, 0.102257f, -0.025195f, -0.051470f, 0.200730f, 
		0.237140f, -0.075694f, 0.037892f, -0.045584f, 0.067483f, -0.017337f, 0.023998f, 0.089746f, 
		0.075739f, 0.070856f, -0.006963f, -0.070157f, 0.127324f, 0.046976f, 0.031983f, 0.090646f, 
		0.071071f, 0.007611f, -0.142000f, -0.036763f, -0.071741f, 0.186977f, 0.081688f, 0.057148f, 
		-0.093963f, 0.126616f, -0.063761f, -0.202458f, 0.150491f, -0.148379f, 0.143524f, -0.108746f, 
		-0.205431f, -0.000377f, -0.096172f, 0.072527f, 0.013548f, 0.233475f, 0.085156f, 0.022007f, 
		-0.116307f, 0.174807f, 0.019135f, -0.020187f, -0.167243f, 0.147325f, 0.197895f, -0.119146f, 
		0.074087f, -0.208972f, -0.047805f, -0.202114f, -0.145061f, -0.033218f, -0.151533f, 0.141541f, 
		-0.134034f, -0.056565f, 0.028903f, 0.177365f, 0.114347f, -0.202939f, 0.178140f, -0.181484f, 
		-0.002994f, -0.130368f, -0.024929f, 0.036243f, -0.225152f, 0.192442f, 0.147839f, 0.189299f, 
		0.128752f, -0.164346f, -0.212822f, 0.194997f, -0.079605f, 0.245933f, 0.205179f, 0.104428f, 
		-0.150087f, -0.241123f, 0.039842f, -0.147098f, 0.197171f, -0.056309f, -0.195863f, 0.114532f, 
		-0.024683f, -0.156096f, -0.164137f, -0.211838f, 0.175772f, -0.247333f, 0.157237f, -0.021094f, 
		-0.082744f, 0.014868f, -0.052633f, 0.009452f, -0.095992f, -0.227184f, 0.024729f, 0.044084f, 
		0.030158f, 0.228014f, 0.199079f, 0.141957f, -0.126670f, -0.190705f, 0.197612f, -0.060260f, 
		-0.078412f, 0.111315f, -0.051215f, -0.048294f, -0.101021f, -0.203321f, -0.205016f, 0.225807f, 
		0.051880f, -0.086102f, -0.036352f, -0.161845f, 0.010975f, -0.034368f, 0.087600f, 0.160246f, 
		0.041504f, 0.192461f, 0.210500f, 0.017989f, -0.170671f, 0.006564f, 0.190289f, 0.106390f, 
		0.115421f, 0.146389f, -0.140538f, -0.136607f, -0.186849f, 0.184323f, 0.186820f, 0.041487f, 
		0.213544f, -0.024628f, -0.144130f, 0.041755f, 0.117189f, -0.040094f, -0.086970f, 0.076657f, 
		-0.199731f, 0.215640f, -0.232723f, -0.052645f, 0.177151f, 0.249381f, -0.200409f, 0.247230f, 
		-0.177647f, 0.215258f, -0.246575f, 0.148353f, -0.001652f, -0.125507f, -0.195904f, -0.072058f, 
		-0.124548f, -0.157285f, 0.069700f, 0.215394f, 0.064791f, 0.199939f, -0.012866f, 0.028169f, 
		0.035259f, 0.068336f, -0.157672f, -0.193970f, -0.215993f, -0.106234f, -0.013829f, -0.013485f, 
		0.166023f, -0.207982f, 0.062342f, -0.207678f, -0.038176f, 0.112204f, -0.198324f, -0.038625f, 
		0.232547f, 0.092931f, 0.161734f, 0.208567f, 0.139408f, -0.234031f, 0.008160f, -0.224309f, 
		-0.012256f, -0.166565f, 0.216603f, 0.213597f, -0.228012f, 0.050402f, -0.027686f, 0.231519f, 
		-0.146697f, -0.147858f, 0.008375f, 0.055660f, 0.112552f, -0.073042f, 0.020385f, -0.213814f, 
		-0.105865f, -0.187126f, 0.075869f, -0.150518f, -0.197462f, -0.177592f, -0.131600f, 0.010163f, 
		0.074712f, -0.176196f, 0.139357f, 0.045169f, 0.207296f, -0.203103f, -0.098547f, 0.183724f, 
		0.170384f, 0.064489f, -0.139812f, -0.220731f, -0.088176f, -0.112571f, 0.073883f, -0.202736f, 
		0.184087f, -0.245211f, 0.055231f, 0.245730f, -0.011998f, 0.199834f, -0.140500f, 0.051671f, 
		-0.112066f, -0.103988f, -0.185531f, 0.055856f, 0.052284f, 0.242893f, 0.038541f, 0.215094f, 
		0.080640f, -0.200567f, 0.233860f, 0.103015f, -0.239899f, 0.080321f, -0.061274f, 0.142608f, 
		0.184302f, -0.060071f, -0.222985f, -0.059270f, 0.038097f, 0.010855f, -0.001231f, 0.020989f, 
		-0.201052f, 0.022498f, 0.215948f, 0.141171f, 0.018016f, -0.186009f, -0.133302f, -0.187221f, 
		-0.052335f, -0.187299f, -0.091030f, -0.049541f, 0.190188f, -0.122613f, 0.249030f, -0.079193f, 
		0.101943f, 0.222260f, 0.240591f, 0.115938f, 0.023757f, 0.064579f, 0.190701f, 0.062804f, 
		-0.108770f, -0.121272f, -0.009510f, -0.233505f, -0.218696f, 0.100869f, 0.114036f, 0.161128f, 
		0.038950f, -0.176367f, 0.179474f, -0.226370f, -0.027017f, -0.208632f, -0.174840f, 0.141740f, 
		0.184893f, -0.169839f, 0.119221f, -0.060696f, 0.229176f, 0.151626f, 0.119733f, -0.170867f, 
		-0.010226f, -0.191003f, -0.224865f, -0.202746f, 0.048044f, 0.130836f, 0.138336f, -0.070452f, 
		0.018483f, -0.047257f, -0.243518f, 0.137117f, 0.235807f, -0.034781f, 0.020791f, 0.214379f, 
		0.208859f, 0.079584f, -0.181150f, 0.173108f, 0.240636f, -0.083419f, -0.136141f, 0.233509f, 
		-0.195397f, -0.213890f, -0.090382f, 0.064651f, 0.002308f, -0.137748f, -0.217102f, 0.128054f, 
		-0.201531f, -0.052763f, -0.086782f, 0.248324f, -0.151453f, 0.205398f, -0.123093f, 0.151445f, 
		-0.111158f, -0.018366f, 0.055914f, 0.143422f, -0.052057f, -0.072521f, -0.132610f, -0.165269f, 
		0.167172f, -0.043231f, -0.028311f, 0.236244f, 0.123612f, -0.059205f, 0.060168f, 0.023099f, 
		-0.244628f, -0.144601f, 0.107878f, -0.135424f, 0.155664f, -0.043523f, 0.044321f, -0.128847f, 
		-0.049842f, 0.051299f, 0.188947f, -0.109360f, -0.235432f, 0.177571f, 0.114759f, -0.060678f, 
		-0.098222f, 0.231653f, 0.066007f, 0.211632f, -0.137968f, -0.246243f, 0.193048f, 0.069638f, 
		-0.082262f, 0.209422f, 0.041696f, -0.075548f, -0.034474f, 0.088319f, -0.139718f, -0.031043f, 
		-0.093837f, 0.198835f, -0.205286f, 0.016160f, 0.184750f, -0.048552f, 0.185114f, -0.068076f, 
		-0.028889f, -0.232044f, 0.170768f, -0.204275f, 0.071147f, 0.214622f, 0.092938f, -0.014102f, 
		-0.240825f, 0.019820f, 0.079443f, 0.066814f, -0.007199f, 0.107473f, 0.190722f, -0.182154f, 
		-0.082028f, 0.140207f, 0.160636f, -0.014245f, 0.035602f, -0.173874f, 0.122719f, -0.131242f, 
		-0.050011f, 0.087576f, 0.133372f, -0.246678f, 0.054687f, 0.035676f, -0.096245f, 0.238246f, 
		0.064753f, -0.037320f, 0.015378f, 0.104919f, -0.072986f, -0.080509f, 0.027099f, -0.136167f, 
		0.223671f, 0.169146f, -0.144269f, 0.150807f, 0.027310f, -0.148519f, 0.178131f, -0.226897f, 
		0.047392f, -0.114577f, -0.156996f, -0.171057f, -0.096882f, 0.218244f, 0.196519f, 0.224780f, 
		0.187617f, -0.003399f, -0.132656f, -0.106782f, -0.152858f, -0.149898f, 0.194596f, 0.179535f, 
		0.142082f, -0.164993f, -0.024351f, 0.101167f, 0.176887f, 0.191930f, 0.219371f, 0.231729f, 
		0.093806f, 0.231565f, 0.185380f, 0.117065f, -0.058452f, 0.142720f, 0.132003f, 0.003998f, 
		0.232184f, -0.111044f, 0.074986f, -0.038339f, -0.086369f, -0.046575f, 0.015565f, 0.000334f, 
		0.068060f, 0.240448f, -0.048236f, -0.174353f, 0.016020f, -0.012125f, 0.005650f, -0.111947f, 
		-0.184295f, -0.212094f, 0.010750f, -0.207632f, 0.020564f, 0.099419f, -0.058208f, 0.223197f, 
		0.113860f, -0.076111f, -0.171907f, 0.203571f, -0.244870f, -0.117668f, 0.149673f, -0.036174f, 
		-0.015938f, 0.065898f, 0.164578f, 0.026474f, 0.005992f, -0.101117f, -0.040919f, -0.191954f, 
		0.100386f, 0.247068f, -0.235827f, 0.146681f, -0.145760f, 0.004151f, 0.158999f, -0.125716f, 
		-0.151664f, 0.108690f, 0.079031f, 0.225167f, -0.040988f, -0.151257f, -0.083920f, 0.211717f, 
		0.223718f, 0.200324f, -0.053994f, 0.242304f, -0.234378f, -0.065849f, 0.062851f, -0.180650f, 
		0.051756f, 0.168284f, 0.101706f, -0.221628f, -0.032919f, 0.142236f, 0.179729f, -0.016526f, 
		0.130596f, 0.161984f, -0.216303f, -0.231321f, -0.038859f, 0.205573f, 0.107088f, 0.122045f, 
		0.086631f, -0.045228f, 0.186916f, 0.024477f, -0.095463f, -0.146883f, 0.146437f, -0.142130f, 
		-0.022788f, 0.238972f, 0.025396f, -0.113599f, 0.148825f, -0.248443f, -0.239556f, -0.162683f, 
		0.203051f, 0.111205f, 0.165616f, 0.133583f, -0.015632f, -0.148036f, 0.091251f, 0.203113f, 
		-0.027104f, 0.187926f, -0.048579f, -0.224694f, 0.214645f, -0.113005f, -0.144253f, 0.176551f, 
		0.085840f, 0.198889f, -0.116633f, -0.201021f, 0.096545f, 0.025700f, 0.074333f, 0.168722f, 
		0.211240f, -0.016845f, 0.120079f, -0.102475f, -0.224214f, 0.137625f, 0.071008f, -0.203474f, 
		0.249155f, 0.138296f, -0.029776f, 0.044073f, 0.219084f, 0.044194f, 0.217290f, 0.130041f, 
		-0.025945f, 0.227213f, 0.242019f, 0.001960f, 0.073295f, -0.207392f, -0.030846f, 0.086121f, 
		-0.043254f, -0.151032f, 0.011389f, -0.214140f, -0.176707f, 0.228947f, -0.170406f, -0.186936f, 
		-0.002657f, -0.124617f, -0.237650f, 0.038062f, -0.078445f, 0.212935f, -0.203038f, -0.231085f, 
		0.244226f, -0.006552f, 0.036486f, 0.097617f, -0.215624f, 0.147857f, 0.040724f, -0.035998f, 
		0.031095f, -0.140553f, 0.189514f, 0.182238f, -0.169273f, 0.207108f, 0.191443f, -0.022816f, 
		0.007255f, 0.037606f, 0.085760f, -0.176380f, -0.173196f, -0.109522f, -0.234203f, -0.234582f, 
		-0.014247f, -0.123696f, 0.000282f, -0.166115f, 0.089824f, 0.045040f, -0.109892f, 0.244448f, 
		-0.227776f, -0.023654f, 0.056059f, 0.162765f, -0.124760f, 0.008736f, 0.046460f, -0.169684f, 
		-0.230292f, -0.169514f, 0.023764f, -0.180694f, -0.105417f, -0.047141f, 0.107498f, 0.182933f, 
		-0.210726f, 0.222978f, 0.214520f, -0.086732f, -0.181317f, 0.040817f, 0.086724f, 0.019023f, 
		0.183377f, -0.215125f, 0.210508f, -0.108589f, 0.199815f, 0.120919f, -0.000681f, -0.046482f, 
		0.173295f, -0.018728f, 0.152762f, 0.245144f, -0.038875f, 0.168190f, 0.026945f, -0.136628f, 
		0.006253f, 0.186599f, 0.225939f, -0.077574f, 0.178186f, 0.087539f, -0.088097f, 0.023430f, 
		0.113634f, -0.034927f, -0.160683f, 0.202780f, 0.096014f, 0.104267f, -0.118227f, -0.010827f, 
		0.125790f, -0.249507f, 0.153312f, -0.249997f, 0.031807f, 0.101562f, -0.205785f, -0.040708f, 
		0.035258f, -0.196173f, 0.012619f, -0.182096f, -0.154240f, 0.091929f, -0.090269f, -0.132030f, 
		0.106344f, -0.044744f, 0.116341f, -0.219425f, -0.243325f, -0.047009f, -0.248660f, -0.014506f, 
		-0.220036f, -0.235860f, -0.191531f, 0.138397f, -0.075411f, 0.094371f, -0.025586f, -0.145505f, 
		0.094584f, 0.037454f, -0.158809f, -0.187392f, -0.076529f, -0.071373f, -0.180561f, -0.228297f, 
		-0.230264f, -0.071787f, 0.065691f, -0.055507f, 0.055001f, -0.026481f, -0.214281f, -0.141880f, 
		-0.088794f, -0.200401f, -0.069712f, 0.147622f, 0.017012f, -0.108099f, -0.086512f, -0.110117f, 
		0.050981f, 0.212588f, -0.045084f, -0.193364f, -0.120312f, -0.014020f, 0.162339f, 0.110776f, 
		-0.163347f, -0.203903f, -0.173879f, 0.142057f, 0.062225f, 0.056955f, 0.035874f, 0.216101f, 
		0.213494f, -0.217064f, -0.126157f, -0.122429f, 0.098086f, -0.185739f, -0.110029f, -0.011885f, 
		-0.172796f, -0.217306f, -0.159789f, -0.054526f, -0.079156f, -0.246440f, 0.150420f, 0.015098f, 
		-0.009647f, -0.247994f, 0.009826f, -0.194216f, -0.063897f, 0.196883f, 0.190463f, 0.086719f, 
		-0.130260f, 0.142969f, -0.022052f, 0.052358f, 0.163477f, -0.208190f, -0.093932f, -0.168378f, 
		-0.056170f, -0.069058f, -0.010643f, 0.074595f, 0.099763f, 0.179240f, 0.122202f, -0.207351f, 
		0.106696f, 0.055319f, 0.132558f, -0.098387f, -0.156305f, 0.189305f, 0.227565f, -0.227115f, 
		0.029623f, -0.230774f, -0.146465f, -0.187833f, -0.090823f, 0.246605f, -0.155569f, 0.152005f, 
		0.224227f, 0.012347f, -0.121219f, 0.231229f, 0.224884f, 0.048823f, 0.091940f, -0.147389f, 
		0.112600f, 0.014424f, 0.136553f, -0.138566f, 0.225184f, 0.060221f, 0.169973f, -0.087979f, 
		-0.224678f, -0.130349f, 0.173290f, -0.132600f, -0.002586f, 0.031962f, -0.230010f, -0.220025f, 
		0.153629f, -0.094273f, -0.045530f, 0.201718f, -0.026556f, -0.048954f, 0.035440f, -0.248515f, 
		0.003469f, 0.076223f, -0.195558f, -0.233727f, 0.108659f, 0.086501f, -0.156879f, 0.108615f, 
		0.248173f, -0.205972f, -0.066172f, 0.023122f, 0.201448f, 0.054564f, 0.016996f, -0.079657f, 
		0.071919f, 0.137719f, 0.009548f, 0.004741f, 0.248193f, 0.121579f, -0.233286f, -0.042562f, 
		0.001648f, 0.004664f, -0.211334f, -0.023914f, -0.197103f, -0.066514f, -0.236865f, -0.162419f, 
		0.132302f, 0.047145f, 0.055774f, -0.205844f, 0.161370f, -0.054461f, 0.168979f, 0.053677f, 
		-0.062852f, -0.009985f, -0.158343f, 0.008331f, 0.210685f, -0.186964f, 0.158570f, 0.139989f, 
		-0.095041f, -0.172895f, -0.068755f, 0.180384f, -0.204570f, 0.079334f, -0.166117f, 0.114705f, 
		-0.240182f, 0.040364f, 0.027283f, -0.023408f, -0.050086f, 0.073963f, 0.073198f, 0.092576f, 
		0.048256f, 0.039465f, 0.080805f, -0.230226f, -0.096694f, 0.057801f, 0.076098f, -0.200107f, 
		-0.248253f, 0.223904f, -0.180721f, 0.168211f, 0.186302f, 0.236892f, -0.225179f, 0.112771f, 
		-0.144342f, 0.199439f, 0.229626f, -0.222675f, -0.179365f, -0.033009f, 0.151679f, 0.078057f, 
		-0.079456f, -0.163748f, -0.105570f, 0.214836f, -0.124896f, -0.146524f, -0.134345f, -0.152525f, 
		0.239822f, -0.095778f, -0.070995f, -0.196559f, -0.141500f, -0.017646f, -0.027537f, 0.103356f, 
		-0.067919f, 0.088788f, -0.099310f, 0.138330f, -0.117957f, -0.113786f, 0.144084f, 0.123370f, 
		0.041091f, -0.050468f, -0.013938f, -0.235235f, 0.039382f, 0.183897f, 0.237314f, -0.091066f, 
		-0.114535f, -0.111648f, 0.031321f, 0.167979f, -0.006720f, 0.137317f, 0.087891f, -0.186306f, 
		-0.243219f, -0.242431f, -0.196219f, -0.234030f, -0.143169f, 0.199093f, -0.208990f, 0.058854f
	};
	// Output Biases (32)
	constexpr inline float B2[32] = {
		0.010000f, 0.010000f, 0.010000f, 0.010000f, 0.010000f, 0.010000f, 0.010000f, 0.010000f, 
		0.010000f, 0.010000f, 0.010000f, 0.010000f, 0.010000f, 0.010000f, 0.010000f, 0.010000f, 
		0.010000f, 0.010000f, 0.010000f, 0.010000f, 0.010000f, 0.010000f, 0.010000f, 0.010000f, 
		0.010000f, 0.010000f, 0.010000f, 0.010000f, 0.010000f, 0.010000f, 0.010000f, 0.010000f
	};
}

#endif
